{
  "weights1": [
    [
      -0.3087169943988457,
      0.8161813987429287,
      -0.9303470469074497,
      0.5628912827173806,
      -0.08268077154789699,
      0.7094133865619674,
      0.5805564875891283,
      0.9711065935448063,
      -0.4164005970310689,
      0.4243637340614492,
      -0.7457345415310033,
      0.11750659309559941,
      0.16828278411230935,
      -0.9251106979900606,
      -0.9926846474953355,
      0.8439462374442969,
      -0.9445381684577296,
      0.0637369987528329,
      -0.6685829063660742,
      -0.7820886105459253
    ],
    [
      0.5765765407339403,
      -0.28832430658454855,
      -0.11803677878733843,
      -0.10667289809917735,
      0.3979436526646638,
      0.7777171463059123,
      0.5171805800100149,
      -0.8624245672152724,
      0.0656503415232077,
      -0.7168049089524584,
      0.3821281200145792,
      0.3973111147688685,
      0.08506464782196854,
      -0.45924349749104243,
      -0.007679536178852864,
      -0.3642543647821854,
      -0.7526825991372093,
      0.06923286128964756,
      0.003686539000207878,
      -0.24365085290094468
    ],
    [
      0.6092261995379481,
      0.9726351002793665,
      0.9862267149283673,
      -0.3065268691249001,
      -0.0878625614704811,
      0.5973206808910247,
      -0.10386676886920265,
      -0.7400277746567849,
      0.9744223911593832,
      -0.21756589134039783,
      0.6333892160309462,
      0.8082905484584546,
      0.26012887729679957,
      -0.023726355058908633,
      0.18693921304050043,
      -0.022942103869617037,
      0.0646283476024998,
      0.1662877189241342,
      0.6835627689686338,
      -0.4859530600789205
    ],
    [
      0.18762182353089518,
      0.7990994124366272,
      -0.01787963626752387,
      -0.2642505427024513,
      -0.6407585063971992,
      0.9838844758144174,
      0.9189973924256849,
      -0.06478852147428382,
      0.3815356218789636,
      0.2838438525034528,
      -0.08327517117373207,
      0.26796228178125514,
      -1.2096288510782487,
      -0.7729254812210353,
      -0.7689487890920423,
      0.4057847094968746,
      -0.0997586933278547,
      -0.6668264610870902,
      0.26546319801763407,
      -0.6242950782353098
    ],
    [
      -0.07483315914029065,
      -0.4391551001858205,
      0.15102130773689015,
      -0.15639683898021506,
      0.6221991068396173,
      0.5629797849618545,
      0.7140698105108712,
      0.2493628379963524,
      -0.14738841942746372,
      0.8941464994248426,
      -0.47660661689766526,
      0.4140548607989858,
      0.4290419572555205,
      0.2501522410303276,
      -0.09536751314086067,
      -0.4200750441577794,
      -0.2151871070661182,
      0.2740542066874968,
      0.01275188278880457,
      -0.4232425815743244
    ],
    [
      -0.5289825764027144,
      0.6599490180286369,
      -0.9518868461462363,
      -0.3184877603147501,
      -0.685997647935014,
      -0.8462621946009032,
      -0.11765614665569313,
      0.07959365145198616,
      -0.3790267205448088,
      -0.9698839722308374,
      0.4246980599862987,
      0.8930352366517416,
      0.8851972828927454,
      0.151484449702596,
      -0.8004785435870425,
      0.7432106340274802,
      -0.0887346993682474,
      0.6371652791478442,
      -0.6781165754531513,
      -0.2800260104000061
    ],
    [
      0.06135012344899504,
      -0.4103376791450799,
      -0.94493897505401,
      -0.37666811525503563,
      0.8913852241575446,
      -0.29694739798387215,
      -0.7834359220144824,
      0.5161406018736314,
      0.13136373495664921,
      0.5869776251579384,
      0.48566815801634977,
      0.6382041110271313,
      0.307449349315981,
      -0.43906144416859616,
      0.4562927527114592,
      0.45559158313187464,
      -0.012306560207667738,
      -0.4476387438860693,
      0.7163324312465494,
      0.9789603736844974
    ],
    [
      -0.11022520736899188,
      -0.005886571569236665,
      -0.0724613441787284,
      0.24634774394707737,
      -0.8062158499443091,
      -0.8772791567830698,
      -0.7050344998780427,
      -0.195654825369176,
      0.9508814713393217,
      -0.24426959657428227,
      -0.46263038368635856,
      0.9661723991834998,
      -0.9848526351395019,
      0.2560110943507752,
      0.7609248524245424,
      0.3766696992243662,
      -0.2941386270087043,
      0.044494391604389394,
      0.3246340982404059,
      1.0522659920629107
    ],
    [
      -0.3849023525620954,
      -0.5392337242327379,
      -0.7177729580899238,
      0.28136521735145215,
      -0.054121787172844105,
      -0.9187983740177611,
      -0.729068807672339,
      -0.6228992353498182,
      0.2559367933899668,
      0.10955450328492944,
      -0.2570438709517324,
      0.8647024874927429,
      -0.9138520630379348,
      -0.46342143320863904,
      0.39390936020486655,
      0.9622135222561514,
      -0.40052007288621416,
      1.0379252639291636,
      -0.2565591369443372,
      -0.7591916059184434
    ],
    [
      0.3589822080550499,
      -0.5519970919343833,
      0.4572171177725026,
      0.5332973926112565,
      0.8315783600349084,
      0.5379688376903884,
      0.9369172881004241,
      0.4648815716293173,
      -0.9338961991648381,
      0.6501279990573329,
      -0.3312781518590523,
      0.0901800190403752,
      0.9845542496884179,
      -0.5240470715123657,
      -0.38406723794017394,
      -0.300189253478909,
      -0.10967199647413262,
      0.9644437636610376,
      0.5120313784403874,
      0.4207140903182346
    ],
    [
      1.0478183255091484,
      -0.45803702596833107,
      -0.3217852324776034,
      0.32664626679095443,
      -1.080599299200804,
      -0.0823901113654375,
      -0.4033648463825572,
      -0.5260841795100468,
      -0.4313461256740201,
      0.07470035360571536,
      0.019525666940065967,
      -0.9903044592101367,
      -0.7265786009237857,
      0.7210104371368397,
      0.6854171678807328,
      -0.5269350807099383,
      -0.5934775622929958,
      0.4928502277595932,
      -0.3274640231293622,
      -0.26196674973953415
    ],
    [
      0.7474893787541537,
      -1.1625351099061496,
      -0.6103929487120816,
      -0.2778171454321816,
      0.3838557991003947,
      0.6053756902392564,
      0.7149774415969219,
      0.835981354167616,
      0.16903872256649077,
      -0.35037611656196965,
      -0.7547532703108348,
      0.674515040482313,
      -0.3473017527298551,
      -0.8037422790511637,
      -0.913301868306458,
      0.6288358789114206,
      -0.01450115792580231,
      -0.41028610507504026,
      -0.4272865381472526,
      -0.18492310182767824
    ],
    [
      -0.555752777382513,
      0.20602409388475496,
      -0.37702082797679026,
      -0.7756595715345429,
      0.6707899542377336,
      0.6100753190536434,
      -0.84785832986217,
      -0.22555828864597416,
      0.2980434725887031,
      0.4751911480329688,
      0.7947634829219973,
      0.8789426565490381,
      -0.3793081845078047,
      -0.13325943831503062,
      0.5248646379324327,
      0.5723756852677592,
      0.04828954306565514,
      -0.24055639598707912,
      0.640204166154072,
      -0.6150657132962698
    ]
  ],
  "bias1": [
    [
      0.4215927873641596,
      0.49724064631316767,
      -0.39371682203857805,
      0.8566175044470405,
      -0.245732088148932,
      0.7549992627970701,
      0.08699656561289526,
      -0.5959669722140633,
      -0.19743278288732535,
      -0.25340454065286666,
      0.10276442468504243,
      -0.4412234892315716,
      -0.4863044800242563,
      -0.6857254177169247,
      -0.925508158999663,
      1.1828305536155848,
      0.9004273538426071,
      -0.782561290321262,
      -0.8649828544181083,
      -0.9579765954226704
    ]
  ],
  "weights2": [
    [
      -0.2737570468403073,
      -0.38760947498732756,
      0.991464115307024
    ],
    [
      -0.3763131046146566,
      0.6550140368077573,
      -0.08179060818575501
    ],
    [
      -0.307354769301869,
      -0.15125525337417456,
      -1.0442442891944028
    ],
    [
      -0.6708274673003652,
      -0.8944625455152244,
      0.022419628870669506
    ],
    [
      -0.8803166150558521,
      -0.00792766786225707,
      -0.30768760235884685
    ],
    [
      -1.0789171710528014,
      -0.39908810604244715,
      0.35034584056684537
    ],
    [
      0.08648734424496363,
      0.7096637085007984,
      0.6258124233223219
    ],
    [
      -0.5690149250135341,
      0.37138992781458224,
      0.44437455047661023
    ],
    [
      0.6563369827220699,
      -0.6290842048026565,
      0.6619351138989424
    ],
    [
      -0.9599927041391796,
      -0.9564556841745645,
      -0.3293465825185886
    ],
    [
      0.1745398949950765,
      0.29509050223071565,
      0.39162669710044273
    ],
    [
      -0.09616246615218138,
      -0.3272632328626721,
      -0.20841784240847883
    ],
    [
      -0.807157569013802,
      -0.7733145685928492,
      -0.1313203275669148
    ],
    [
      -0.9196447271217578,
      0.6642417186958904,
      -0.017930117461854245
    ],
    [
      0.5517144816581738,
      -0.01445348023455073,
      0.39651073733151365
    ],
    [
      0.2713962491097526,
      0.392369235618346,
      -0.04760524795590504
    ],
    [
      0.9160221310124115,
      -0.04728266469627074,
      0.3868295605297911
    ],
    [
      0.5758185322119984,
      -0.3394992632227797,
      0.6579814748436876
    ],
    [
      -0.9953719280315577,
      0.2533097714201247,
      -0.1393310862718603
    ],
    [
      0.5341782929721757,
      0.8683013961306036,
      0.3285481467192892
    ]
  ],
  "bias2": [
    [
      0.46500214417140817,
      0.7692539619087952,
      -0.6070117052391888
    ]
  ]
}