{
  "weights1": [
    [
      -0.4635119522683877,
      0.3510262019500754,
      0.34405452413284854,
      -0.791043257018603,
      -0.3874221562946283,
      -0.7364912020146153,
      0.3927957305738169,
      -0.07441755865711253,
      0.4476760994638962,
      0.8220530927962628,
      -0.5226966573504893,
      -0.5544049268389456,
      0.7904571411761592,
      1.1749879563942895,
      -0.9165427420861244
    ],
    [
      0.06377655352694678,
      -0.43772511534102376,
      0.07618600116860552,
      -0.7392845643823901,
      0.3592885771156388,
      0.35877543065596373,
      0.6832479879503118,
      0.9311911473432324,
      0.5494714301450576,
      -0.438491107080743,
      0.5324689509104751,
      -0.2107617968738028,
      0.34485208438991477,
      -0.13853183765376653,
      0.4081401179613593
    ],
    [
      0.6791205324422114,
      0.689189131284091,
      -0.3293941064148834,
      -0.015157212835564593,
      -0.9006873014030687,
      0.4126899640029319,
      0.45551638221904733,
      0.25371495326288585,
      -0.5458490270054392,
      0.5470715186866033,
      0.4096593782642888,
      0.1475870468498921,
      0.0007719313624279245,
      0.6777171532232322,
      -0.0631378625054676
    ],
    [
      -0.9427165122500405,
      0.693441369875253,
      0.8190298535294325,
      -0.6748211638322912,
      0.42655088991242884,
      0.5482294185911156,
      0.6221026846867153,
      0.35259720394262883,
      0.6387985847911613,
      0.41450495630938966,
      0.16688664033938183,
      -0.24377794830796784,
      -0.541619784378795,
      -0.2644484563934989,
      1.006429298695375
    ],
    [
      0.5214787340347886,
      -0.13938793335139565,
      -0.9989124076219267,
      -0.7090648795180612,
      0.34329388736010924,
      -0.8623442720396093,
      0.04338734971569003,
      -0.9009202655977142,
      0.8477450565477866,
      0.4576123615413813,
      0.7279969462068947,
      -0.47960184666677386,
      0.19804650956801784,
      -1.1550519747465162,
      0.31931761917231094
    ],
    [
      -0.734568710406383,
      0.0868287533614116,
      0.8722992947041313,
      0.37565267041831674,
      -0.6609410421769737,
      0.5843590374375589,
      -0.2010947765481157,
      0.009756292297191771,
      0.05119292363263961,
      -0.9592469502927368,
      0.5787593402621191,
      0.09688218635841084,
      0.14639279254665194,
      -0.31520889109545414,
      -0.5286634466203308
    ],
    [
      0.8917311432967767,
      1.0611538646493466,
      -0.627288300384937,
      -0.7576659044512022,
      0.46630384910917155,
      0.358837661879571,
      0.4658126442802164,
      0.6941035982515744,
      -0.704495587542099,
      0.5045991282704154,
      -0.24994194495306798,
      -0.4988529161917863,
      -1.030842865620944,
      -0.6076299093344915,
      0.7228395069659018
    ],
    [
      -0.14455329929137872,
      0.8415687778549024,
      -0.042559402244166655,
      -0.8076671993203663,
      -0.1644268734683597,
      0.10991476908816356,
      0.38872630930174035,
      0.35944352991280704,
      -0.6936852633012571,
      -0.4110933122642273,
      0.010820231275573522,
      -0.7856912337011475,
      0.8990677029104048,
      -0.053464599854412875,
      0.42065220614867715
    ],
    [
      -0.4133297501862483,
      0.849935524104137,
      1.0667323280390442,
      -0.20103728977375512,
      -0.07134412301107973,
      0.17615534530345378,
      0.9603352648039989,
      -0.07362925990037061,
      -0.7417470105375564,
      0.7644214695594748,
      -0.1013019881163495,
      -0.4853897178747326,
      0.0716308914019903,
      0.2809132840394519,
      0.4913941898774543
    ],
    [
      -0.5662031348342363,
      -0.7768486212413261,
      -0.7063219697638177,
      -1.0819669912663028,
      0.3694611922301436,
      -0.6453550302661338,
      0.7369130189918423,
      0.9221759740290514,
      -0.48882808423891166,
      -0.7128993086000882,
      -0.9142617919851158,
      0.6814018810880335,
      0.3460388360735509,
      -0.2956072596291497,
      1.2091607326124367
    ],
    [
      1.0431619800795089,
      -0.2863797271528883,
      -0.6017922008558401,
      0.6267768680904195,
      -1.1557975486696748,
      0.8673296455656696,
      0.9858012476144102,
      -0.9090370884562056,
      -0.3718406929017777,
      0.44477299534934056,
      0.5857876203646231,
      0.9256715636945877,
      -0.1340440830989178,
      -0.18599391031023416,
      0.5234057755231636
    ],
    [
      -1.0376069180742327,
      0.5300653605462116,
      -0.10544989945425465,
      -0.6367563090301248,
      0.8463208004528111,
      0.2291935707506373,
      0.3248769660948586,
      -0.04689789952157575,
      -0.8492908774807484,
      -0.7677164216598563,
      0.37325972229501936,
      0.005099099972821541,
      -0.915822947719207,
      0.24713828206303434,
      -1.0815225810978468
    ],
    [
      0.5664664331045993,
      0.08513771853837593,
      0.2995536958811519,
      0.6564190683698751,
      -0.512325201172048,
      0.05785206779727581,
      0.16657189889111867,
      -0.8373251123247729,
      0.3408885578044205,
      -0.4950027430819989,
      0.7873482447429694,
      -0.86744787033671,
      0.47157698574469054,
      0.070900518278179,
      -0.9491876754102009
    ],
    [
      -0.42128009339419425,
      -0.12205990495390395,
      0.25286696564688615,
      0.5146892171372133,
      -0.8273763870750807,
      -0.15309961160762098,
      -0.8663842017117678,
      -0.6092053733789857,
      0.36301626023710254,
      -0.5632878020324914,
      0.8838108088958898,
      0.6136657124872194,
      -0.8841609980714942,
      -0.19648085579840568,
      0.6351332886314417
    ]
  ],
  "bias1": [
    [
      0.7771928033039837,
      0.8061570967357761,
      -0.005079201340655981,
      0.10217477892699778,
      -0.09105602070155738,
      0.8788021352836237,
      -0.3473290708794544,
      0.31548552857081713,
      -0.1285371498229182,
      -0.5646545672030832,
      0.13049152361032268,
      -0.19729284350683507,
      -1.072217946308673,
      0.34902590839198533,
      0.6353276454862109
    ]
  ],
  "weights2": [
    [
      -0.5120557645454604,
      -0.6094730474820911,
      -0.8667535180827856
    ],
    [
      -0.6327133043987865,
      0.13050166418199582,
      0.5675650178298125
    ],
    [
      0.8111683647029326,
      -0.8936150119593526,
      -0.08251728392935898
    ],
    [
      -1.3354179847690024,
      -0.7350319057523489,
      -0.955868689549356
    ],
    [
      0.185937110008067,
      0.9399543598855131,
      0.5573655573446117
    ],
    [
      -0.9099616515383908,
      0.14796394578407246,
      -0.7122338483389732
    ],
    [
      -0.302831744392961,
      0.5100065515355405,
      -0.4193837826892628
    ],
    [
      0.020932327696057573,
      -0.2088981817606892,
      0.6786272996853464
    ],
    [
      0.23105267998805035,
      -0.19497549909032474,
      -0.12986912528229
    ],
    [
      -0.17276986469491407,
      0.640465999585158,
      0.3192780082648662
    ],
    [
      -0.7877211901263488,
      0.09378911346911556,
      -0.6505091827819109
    ],
    [
      1.1332185338352176,
      -0.770341741547721,
      0.44610834002744937
    ],
    [
      0.07027272481143099,
      -0.48603428373198065,
      -0.3118254119109918
    ],
    [
      -0.5634469643444211,
      -0.9749506951983844,
      -0.5061845668772809
    ],
    [
      0.25887766213943886,
      0.12435286924923838,
      0.8005861194030259
    ]
  ],
  "bias2": [
    [
      -0.6394813394630527,
      -0.17683649548700464,
      0.12351649291405309
    ]
  ]
}