{
  "weights1": [
    [
      0.14416045393756116,
      -0.3791849485382608,
      0.7502049980660045,
      0.023021438245271475,
      0.6717234526266109,
      -0.9044868349634515,
      0.7302339089033884,
      -0.4851127471749854,
      -0.011704731236056531,
      0.9452111400523836,
      0.6263173383299856,
      -0.4365235791874764,
      0.8482860220837343,
      0.6931767652413524,
      -0.10749941855667156,
      -0.24136183182568294,
      -0.5587167046181546,
      0.17909622203325082,
      0.6533017832546086,
      -1.1011554270861446
    ],
    [
      0.8513541740525152,
      -0.18461071284306918,
      -0.9562512624605088,
      -0.9430585731017261,
      0.7300400392884026,
      -0.18778712203633585,
      0.6006995350053534,
      0.6015501990146235,
      0.052940323215078355,
      -0.8670756024315645,
      -0.4931910827046464,
      -0.27555304234236944,
      -0.3781747594114213,
      -0.36384667547288174,
      -0.7899081668628365,
      0.033558562174939244,
      1.168060769350363,
      0.9021185236247886,
      -0.153152368744907,
      1.1223637694786135
    ],
    [
      0.511213625241496,
      0.5492664555155804,
      -0.9092373720548554,
      0.7034572491803804,
      -0.6874670990373151,
      0.32421692997103246,
      0.6366928301009644,
      -1.1010174469774565,
      1.1014524129635794,
      -0.020420314658988747,
      -0.9209189696215175,
      -0.572563755184595,
      0.14337432223363233,
      -0.31048302744695,
      0.6332189985453323,
      0.5216909613918181,
      -0.05656702962659943,
      -0.08670567535863438,
      -0.49846057703470414,
      0.5526031401228755
    ],
    [
      0.4418578781739422,
      -0.019588260139784208,
      0.6745200273680871,
      0.13375381107693363,
      0.017787401617345378,
      -0.8069741614850678,
      0.11359526633826222,
      0.06670280760394964,
      -0.3798301857827747,
      -0.7589295428606935,
      -0.15367454875255326,
      -0.2609346601756011,
      0.30689326990555843,
      -0.06376993780361329,
      -0.3191433943308435,
      -0.870000592029061,
      1.1796135089925648,
      0.28637988860038144,
      0.7628500329925965,
      -1.2195229430991925
    ],
    [
      -0.3866959225246003,
      0.4195468370049569,
      -0.615981629042087,
      0.5314365034661339,
      -0.003399958188500918,
      1.0992564162740126,
      0.7309425649322159,
      -0.6632995546056195,
      -0.7986104643719587,
      -0.3561190658200464,
      0.48454307546565456,
      0.33167094474563796,
      0.7516860522259892,
      0.031040774498375168,
      0.8771849028175187,
      0.6082058184445795,
      0.4090346420737051,
      -0.9059869904168026,
      -0.8369033296756294,
      0.6565642114559971
    ],
    [
      0.24716691710588168,
      0.5572719886815638,
      0.9847332738791339,
      0.14736239194401302,
      -0.46751371878768255,
      -0.2425806697313856,
      -0.7783492921146296,
      0.14726515880732505,
      1.0285028414749258,
      0.32813687096644095,
      -0.7277387433183891,
      -0.27796258286160214,
      -0.7234641677366911,
      -0.08282969954899366,
      0.6149679785842508,
      0.5716538470161829,
      0.5319938874638929,
      0.30887287482994097,
      0.8177832640062053,
      -1.0199361607141006
    ],
    [
      0.7596802957652655,
      -0.3970814870205124,
      -0.6155717366560526,
      0.3905182111242582,
      -0.1095917039763179,
      -1.1578615267539516,
      -0.9830848021628356,
      -0.37488302897234793,
      -1.0257377570470436,
      -0.0705630273459954,
      0.5424274701798271,
      0.38382411581833775,
      0.5313712468968316,
      0.639036529698937,
      0.3299793895162553,
      -0.8121966446185797,
      -0.7755876237087964,
      -0.14515668645394153,
      0.725920357529541,
      0.8509035888004447
    ],
    [
      0.43856085947531387,
      1.0246674504562736,
      0.2246444020567382,
      0.33989739786588624,
      0.2230819945556064,
      0.02627485872544244,
      -0.8313831865803304,
      0.8706671054065827,
      0.9213275943540675,
      0.3540927691463063,
      0.1356918144521837,
      0.8646726096170689,
      0.5037743783108232,
      0.38761160421629537,
      1.024931043058622,
      0.7080851163163431,
      0.42105220872145765,
      -0.6311552485398795,
      -0.5230828521789596,
      -0.716832610586688
    ],
    [
      -0.6150687862864512,
      0.09082120482924116,
      0.5163166308471812,
      -0.3644000186176668,
      -0.7925962195338787,
      0.5231458671531506,
      -0.37798144162914726,
      0.006718435574760928,
      -0.038464259857952876,
      -0.7568535667398311,
      -0.38628584060207993,
      0.9113074887602868,
      0.017433776529637623,
      0.6909767886128124,
      -0.065001913974164,
      0.4470567916526824,
      0.656824676517657,
      0.0899230418371697,
      -0.16249131406018646,
      -0.38962945324675546
    ],
    [
      0.2899867599031716,
      0.7392652826850806,
      -0.8306139039086887,
      -0.9019037284759267,
      0.5066109523923201,
      0.3912101869729052,
      0.16087481086012712,
      -0.5138299070340226,
      -0.3917431226098279,
      0.22942758481229697,
      0.5884962527610778,
      0.41976777675352794,
      -0.7030945920838468,
      0.9603040836763612,
      -0.5102632501471511,
      0.4193714725883497,
      0.427788791958998,
      0.4214269089695142,
      -0.8940376087653032,
      1.1551368286223602
    ],
    [
      -0.3098282388156529,
      -0.06646038247548391,
      0.02472269639387914,
      0.25254305082140505,
      0.8018477346795975,
      1.1320715214023698,
      0.7300380591217286,
      0.5624305855845381,
      0.8335084408050233,
      0.7236636218708883,
      0.074481424440616,
      -0.8350188106769973,
      0.10578681632119302,
      0.6295837255771435,
      0.02472133449284708,
      -0.42029951898439544,
      -0.8532015528725586,
      0.4171957560563905,
      -0.9993673285550547,
      0.5113259629907319
    ],
    [
      0.6044043216847172,
      -0.8225559049719435,
      0.55413844903907,
      -0.6666745460618373,
      -0.555520803829304,
      0.08490409226151607,
      0.34766270803066157,
      -0.06127906331849786,
      -0.784427085134455,
      0.6640304390437248,
      0.13980253445090485,
      -0.760433826880107,
      0.44975071294993274,
      0.7865191135481369,
      -0.4231044195085233,
      -0.2785267860913745,
      -0.8755547777601018,
      0.999393385226985,
      1.0358276646065256,
      -0.1204225979889404
    ],
    [
      -0.9987643733750802,
      -0.13408155923473575,
      0.7718573580537891,
      0.7766274258089818,
      0.7223409033635668,
      0.7352085077326116,
      1.0821625158102113,
      0.599449869920361,
      -0.775331516608704,
      -0.18885225899824953,
      -0.7389155080063232,
      -0.9785395540780701,
      0.24584426090945422,
      0.3869661332055194,
      0.6544488928681517,
      -0.695283298969092,
      0.8368223677625839,
      -0.5727682866215438,
      1.0691935514973663,
      -0.023678281617487307
    ],
    [
      0.6725339260081875,
      0.7919963501869289,
      0.9043323407133945,
      0.9094226094580424,
      0.9067377929209823,
      0.3641459672297016,
      0.9093613779054847,
      0.019003796088428615,
      -0.3819590095790645,
      -0.13678153222759581,
      0.597760390876543,
      -0.929141371506689,
      0.6923735364229202,
      0.7151448820073019,
      0.34068509230183575,
      -0.9652151862648027,
      -0.5544642128768329,
      0.005248318418186959,
      0.5200348834768529,
      0.7468978192721094
    ]
  ],
  "bias1": [
    [
      -0.7355493281022739,
      -0.193723774600135,
      0.8626441146244264,
      0.9179631435563924,
      -0.18270124165432877,
      0.9365085160721112,
      0.9064854190410965,
      -0.3512597077670695,
      -0.717668169637304,
      -0.6446096003220942,
      -0.1778695991799587,
      -0.8288815706199104,
      -0.7337795211295517,
      -0.9222197716435465,
      -0.34193707910364557,
      0.20176879668414438,
      -0.4509424236872974,
      -0.08662002550646475,
      0.7446127690542332,
      -0.16006165102525083
    ]
  ],
  "weights2": [
    [
      -0.7013741461060752,
      -0.8983438153007226,
      0.9840290514846779
    ],
    [
      -0.42905960633079054,
      0.31047833916999823,
      0.6933212674997287
    ],
    [
      -0.5477086654195285,
      0.6744668996504992,
      0.9364416691966221
    ],
    [
      -0.38541640039454084,
      0.818680893269848,
      -0.6872119665615849
    ],
    [
      0.002641299354614546,
      -0.9165805165543475,
      0.4861456787829673
    ],
    [
      0.833511423423587,
      -0.6802772337300462,
      -0.212143266092653
    ],
    [
      0.44741915673489974,
      -0.4027589392519335,
      -0.6883726901780934
    ],
    [
      -0.6726261844125925,
      -0.14927305517549572,
      -0.5034465022604344
    ],
    [
      -0.23584927109802367,
      0.4401379950642025,
      0.19785713414242556
    ],
    [
      0.27830947610985124,
      0.3099476066745419,
      -0.6888465689449683
    ],
    [
      -0.9389384530154032,
      -0.09141937986913895,
      0.4873417124488778
    ],
    [
      0.22426262128146646,
      -0.9842140067518508,
      0.14353254096812096
    ],
    [
      -0.7636510102586649,
      -0.2165544253353051,
      0.5835148549813121
    ],
    [
      0.47529484529988286,
      0.36089273573969516,
      -0.45807949478918353
    ],
    [
      -0.9515872420520941,
      -0.22297530663044118,
      0.7664295648555548
    ],
    [
      0.4052687798842419,
      0.17747946861160324,
      0.9536349180404975
    ],
    [
      0.5077196772756878,
      -0.2254500315455139,
      -0.028261436182126953
    ],
    [
      -0.7762599139480432,
      -0.31157845682957275,
      1.0566546602210498
    ],
    [
      0.13190846604105833,
      -0.6183780309361561,
      0.4110038618629289
    ],
    [
      -0.513192827952544,
      -0.9159136171283384,
      0.07333756748581843
    ]
  ],
  "bias2": [
    [
      0.9625392040222704,
      0.29679782416387346,
      0.18107456437118596
    ]
  ]
}