{
  "weights1": [
    [
      0.9634968156382665,
      0.6300067900729296,
      -0.5215859345609783,
      -0.9921307333012603,
      -0.8635370352019236,
      -0.8592927385867415,
      0.6114973548706994,
      0.17105776968831865,
      0.24099726918636266,
      -0.3511683064876503,
      -0.35988984068578267,
      0.30156508505168667,
      -0.830299404630606,
      -0.8743067651812688,
      -0.12347778479276761
    ],
    [
      -0.10646769475543572,
      0.8139812714451655,
      -0.7500952430295635,
      -0.4712607806476462,
      0.6006485278216158,
      -0.5458506047525566,
      -0.8030827791348633,
      -0.5794076713628256,
      0.589114686939907,
      -0.3165781903477538,
      0.7678008115893014,
      -0.002159194034291323,
      -0.6026681351190026,
      0.4790384753237147,
      -0.1439180652425227
    ],
    [
      0.3997908569036568,
      -0.9488518608699543,
      -0.281027099440359,
      0.4907917177772254,
      -0.5469361364629188,
      0.11539249498361215,
      0.6271044262216265,
      0.19026141970575994,
      0.32302281379228726,
      -0.5755693844363767,
      -0.9583683960406484,
      0.481900109594557,
      1.0569260736639619,
      0.5590848009840892,
      0.9944081000164164
    ],
    [
      -0.021255905158961585,
      0.6866687144328765,
      0.6504491510641186,
      0.8046462259792402,
      0.08924811969039093,
      0.11617355867573975,
      0.5700640460551192,
      0.78722492132135,
      0.19151489875929206,
      0.5464171708464298,
      0.962712442769655,
      0.6313597989307698,
      -0.29663528322447963,
      0.6481474266675624,
      -0.5706120151742287
    ],
    [
      -0.9688565326495742,
      0.6037299596789567,
      0.004396746392329565,
      -0.3098037042094073,
      0.13703448442715205,
      -0.9186277950938981,
      0.34917383577624905,
      -0.8935819461309227,
      0.974957076736545,
      -0.003106461087748258,
      -0.46759920617970474,
      0.05304473401960941,
      -0.6109082818648197,
      -0.2284649706865416,
      -0.5571583577287167
    ],
    [
      0.6967967900356329,
      -0.014606088637378,
      -0.36930488660460725,
      -0.07015939006425276,
      -0.9629365707889619,
      0.3535270383403679,
      -0.8741245922761531,
      0.9470716159741372,
      0.5387971827956481,
      0.12247936650083169,
      -0.22840329110609225,
      -0.9556316897075652,
      0.4415819317473515,
      -0.12872938665883416,
      0.9405041182256162
    ],
    [
      -0.8629327952636001,
      0.2568398202176807,
      -0.3695826811215177,
      -0.639696152590818,
      -0.0871751210920424,
      0.6890333918674942,
      -0.5823225126068645,
      -0.6234129703254758,
      -0.7475029886626583,
      -0.6422760158391618,
      -0.7272729431841376,
      0.08502108595118296,
      -0.551820646432041,
      -0.9825221264699106,
      0.39880457033131744
    ],
    [
      0.5592372996371595,
      0.4044124814055592,
      -0.06117018701009047,
      -0.020907004466050427,
      -0.7263264114446066,
      0.19086808546543255,
      -0.6407092599383581,
      -0.4603688861184949,
      -0.8257354510646406,
      0.005565289499704917,
      -0.05557076303273245,
      -0.8268175288104622,
      -0.18884252652816214,
      0.8404236646615689,
      0.3038046758880073
    ],
    [
      -0.357393620540185,
      -0.1317828597476134,
      0.7650999657372237,
      -0.19008996208117424,
      -0.7976518485272615,
      -0.49335448479477984,
      -0.36058731122383136,
      0.5265714708211768,
      0.9129341602300709,
      0.9760486589021453,
      -0.05364455181541539,
      -0.4966617174208636,
      0.9408316026764445,
      0.6625863134966736,
      -0.8496806029026054
    ],
    [
      -0.10944254131891018,
      0.1775483977752046,
      0.35570390034958965,
      -0.562054869541146,
      -0.25272779708044224,
      -0.6925989402134317,
      -0.90217983955641,
      -0.07724471548326728,
      -0.8335370959240544,
      0.1950409556416598,
      0.4039092291547579,
      -0.9724223427624898,
      -0.6961296584285162,
      -0.0034770118779618997,
      0.2178761386616186
    ],
    [
      -0.11090911452599095,
      -0.6171515477614067,
      -0.5737701896518659,
      -0.21998348427575332,
      -0.056435542531447336,
      0.5926916780355657,
      -0.7448380660058191,
      0.39346085764694605,
      -0.8906529852735336,
      -0.5814759621346959,
      -0.18644970088789714,
      0.8713430505107036,
      -0.7283323654700755,
      -0.9402788179768717,
      0.6649963711260445
    ],
    [
      -0.5874839066843434,
      -0.9289002634670696,
      0.3690624661405565,
      -0.43549396030793064,
      0.15292988180980993,
      -0.6171219546203139,
      -0.05709426778782645,
      -0.6229661462463629,
      -0.0782249298343829,
      0.9585542074049895,
      -0.9030414790459766,
      -0.8073961897770974,
      0.364826852909371,
      -0.9189885140766565,
      -0.013824028530507904
    ],
    [
      0.3466302865038098,
      -0.9939453920569048,
      0.18231469002154332,
      -0.9334882208375306,
      -0.5093799521216642,
      -0.26425757223109514,
      0.8633638754360065,
      0.20597924664736345,
      0.819421432474682,
      0.8070010229086066,
      -0.27892367178993505,
      -0.5237165615491932,
      -0.38680358344604393,
      -0.7074081078445054,
      0.4300486706397173
    ],
    [
      -0.5498805829348425,
      0.8882995835951606,
      0.21132166975708522,
      0.05481217590379073,
      -0.8420069141372539,
      0.15906859131471185,
      0.8253258259547471,
      -0.5515675029168509,
      0.6843614638326962,
      0.7744596125205767,
      -0.5410808480288937,
      -0.6643920102352596,
      -0.5212227837264503,
      0.7870917199279792,
      -0.9509783092007216
    ]
  ],
  "bias1": [
    [
      -0.3714734228796148,
      0.03382652439598166,
      -0.9611993500135769,
      -0.3213649182625038,
      -0.9176227220974709,
      -0.1578580815195587,
      -0.5194708437126843,
      -0.35683536147678385,
      -0.32463211414686244,
      0.5296869578299139,
      0.7320595635962666,
      -0.31317681565511934,
      0.5120357181148836,
      0.5466268281921085,
      -0.9775693321718899
    ]
  ],
  "weights2": [
    [
      0.31060491166169646,
      0.08903339217956996,
      0.2145248233127255
    ],
    [
      -0.9081547268875951,
      0.9125154954131145,
      -0.4483900725917356
    ],
    [
      0.39831256929699776,
      0.1512862528947021,
      -0.9283289707794475
    ],
    [
      0.4714379562321227,
      -0.39053202097509443,
      0.665251053395262
    ],
    [
      0.30920320443073557,
      0.2610556668349613,
      -0.7768031080263561
    ],
    [
      0.4119033021802365,
      0.34274460857468236,
      -0.09613728905009866
    ],
    [
      -0.2202475173821581,
      0.871809244069734,
      0.9938284041568135
    ],
    [
      0.05343904202769556,
      0.04872894274855177,
      -1.1575541622996752
    ],
    [
      -0.6736980249284743,
      -0.6692349896431904,
      -0.8822598340889769
    ],
    [
      0.6748673796191915,
      -0.8999102509123866,
      -0.34602581607509775
    ],
    [
      -0.09312744864073963,
      0.09913245874224463,
      0.5605407348904383
    ],
    [
      -0.12815400530574816,
      0.651427860629195,
      0.9387307807967384
    ],
    [
      -0.08162346596916814,
      0.6677220694933266,
      -0.7443906065994774
    ],
    [
      -1.1110530729180856,
      0.04177700165414555,
      0.32685393955120645
    ],
    [
      -0.1951232779078662,
      0.7389405531146347,
      -0.022503382232273328
    ]
  ],
  "bias2": [
    [
      -0.2755058380614188,
      -0.6127893773858011,
      -0.6269413801621266
    ]
  ]
}