{
  "weights1": [
    [
      0.8095229311888337,
      -0.40441156842675274,
      0.8693812210338554,
      0.2555086182537585,
      0.34716341550787977,
      -0.38927977570891015,
      -0.6562436090187886,
      0.46615191691236246,
      -0.9341419639361717,
      0.30002405274622745,
      -0.1165917331331553,
      0.12441622073676406,
      0.8985212209503812,
      -0.048259763597699235,
      -0.6250118356594632
    ],
    [
      -0.30460859690005426,
      -0.3679911735504158,
      -0.31698766486155794,
      -0.08758200401178229,
      0.2761604188604938,
      -0.427623173843112,
      -1.002570805811339,
      -0.08250405848882403,
      -0.22701609703046366,
      -0.9211256635779965,
      -0.016304031951511644,
      0.10440846262131265,
      -0.28045856663915236,
      0.446895219818924,
      0.7003570166964019
    ],
    [
      0.3907149995086777,
      0.7429584827553573,
      0.7009132108149122,
      1.1539354046116628,
      -1.0529686580224689,
      -0.6484702208406183,
      -0.48408619997674285,
      0.9241740068170907,
      0.8458424096563546,
      0.1343111066993643,
      0.38521046627273536,
      -0.4132053713099896,
      0.6382359848086293,
      -0.8003862869241202,
      0.6324346232175282
    ],
    [
      1.1187554665465531,
      1.093113281555452,
      0.20574797916942655,
      -0.822652221456813,
      0.04957414674054972,
      0.11421709372668076,
      0.29804171172026994,
      0.6128594759701818,
      0.07814192630060957,
      -0.23895986148806914,
      0.22185550014228061,
      0.5662756367533102,
      0.5935201444531459,
      -0.007328194857912695,
      -0.80992662673646
    ],
    [
      -0.6618837894649613,
      -0.26543259439966027,
      -0.33850347377100554,
      0.023461798720990856,
      0.44785763122797473,
      -0.494189147903509,
      0.06905208642912308,
      0.4161511633312638,
      0.551578993941789,
      -0.005570657902035037,
      -0.4173386824978723,
      0.1018088592381261,
      0.8755453809715154,
      -0.16752167588557354,
      -0.6807304362039854
    ],
    [
      -0.8777083624587925,
      -0.9843344339321285,
      -0.2864388609744615,
      1.0801469015586385,
      0.4124248277764613,
      -0.5573822323755815,
      1.3063432515729554,
      -0.5041142603862734,
      -0.9504395183519798,
      0.7861776480940379,
      -0.6312289038337564,
      0.8852584371084793,
      0.1691432802331465,
      0.55732053364726,
      -0.7410291170886985
    ],
    [
      -0.7364502727296456,
      -0.45190371522054285,
      0.2460779666941919,
      -0.3059721255898904,
      -0.4603001500051027,
      0.8437065825828598,
      -0.6781381332496408,
      -0.6020658939479202,
      0.418976223628427,
      0.4714255792743014,
      -0.8053183300858935,
      -0.38526721731708236,
      -0.9405128102237472,
      -0.7957242288818227,
      -0.292859944578002
    ],
    [
      -0.8573660568274686,
      -0.11666435539465025,
      -0.013659588843917159,
      0.1725185131555188,
      0.023606795902383793,
      -0.5542338399319231,
      0.8586100031771151,
      -0.20215899965845097,
      0.006307088196476851,
      0.27342280306889677,
      -0.14155853430205423,
      -0.9833808299989011,
      -0.06522201310112541,
      0.5970069709469215,
      0.6481507804517208
    ],
    [
      0.09287728881207524,
      -0.26091551076565134,
      0.575909631597748,
      0.3604476361523441,
      0.33165758608255036,
      -0.024799949121786735,
      -0.3758688929830223,
      -0.8706507349916133,
      -0.14106054360822462,
      -0.9083373908307066,
      0.777124306794795,
      -0.677498621803184,
      -0.3539837442744882,
      0.8112124461169907,
      0.2568633725630809
    ],
    [
      -0.5543814913870002,
      -0.8251381967731501,
      -0.7481752469131153,
      -0.13325563293662324,
      0.8140346146620923,
      0.2685921533349487,
      -0.2061786206590126,
      -0.5575780874499112,
      0.7310472732949078,
      0.36145884866540356,
      -0.2529267168928837,
      -1.0648808335504447,
      0.38469503608578837,
      -0.5057870061007277,
      -0.2762605794602857
    ],
    [
      -0.40283748079009296,
      -0.3357041751266998,
      0.46514363242795964,
      -0.8154865282134156,
      0.26804424668399385,
      -0.27282242435783777,
      -0.07670729787790875,
      -0.12626783204103642,
      -0.44682801519312054,
      -0.05522243495831791,
      0.1532179543158363,
      -0.7554626574334473,
      -0.24025544229691498,
      -0.026578859479953643,
      -0.2529069974036696
    ],
    [
      0.5866083663646346,
      -0.5841065413385014,
      0.3740790652215247,
      0.3464761288021907,
      -0.6755220497108012,
      0.13598968528624678,
      0.09113245018676652,
      0.8054847697211036,
      0.34498208816621156,
      -0.9168109681472487,
      0.6680920753766768,
      -0.14623247449252563,
      0.5552385853084019,
      -0.6698675868936128,
      0.6637518942822762
    ],
    [
      -0.7049048287379978,
      -0.3942778737099082,
      -0.18627467066716574,
      -0.8427438864932402,
      0.597866227311183,
      0.6181073292404053,
      -0.41214169984730986,
      0.290181935051522,
      -0.4490746107320268,
      0.3307967384555347,
      0.2916827579834481,
      -0.07744979638899074,
      0.05950005443317696,
      0.9717943131328761,
      0.72069138285267
    ],
    [
      0.7954549470303887,
      -0.06993262573626335,
      -0.5472367599962666,
      0.24868395759354878,
      0.13416385056874525,
      0.023237900779853327,
      0.23492534448270852,
      -0.34725003447705194,
      0.4689124723933489,
      -0.040284000110057505,
      -0.23688903125921357,
      -0.8343896316476116,
      -0.004343484667835185,
      0.628741567585,
      0.8332310803803944
    ]
  ],
  "bias1": [
    [
      -0.5662178425393991,
      0.7420995271388056,
      -0.5821942650861338,
      -0.4465382680145513,
      -0.5540177761267366,
      -0.6451386657372957,
      0.7181439187655623,
      -0.9677322417503795,
      -0.8626881107976172,
      0.6710967064154354,
      -0.623503499792879,
      -0.8482297649851771,
      0.8311170972442002,
      -0.8928206460007204,
      0.7656283916235198
    ]
  ],
  "weights2": [
    [
      0.4155527004357209,
      -0.0022496799695783665,
      -0.4282218183252735
    ],
    [
      -0.20000083871014485,
      -0.23443263424982774,
      0.1374851717665182
    ],
    [
      -0.9126207872458805,
      0.28040080640587783,
      -0.03631691301890205
    ],
    [
      -0.786342676828439,
      -0.0030317012117380138,
      0.3318450425877242
    ],
    [
      0.9710579449950307,
      -0.13610693058048362,
      0.989908796191934
    ],
    [
      0.6224798824039153,
      0.9134375535326704,
      0.11848967642028585
    ],
    [
      -0.8196805894052663,
      -0.13806343970014234,
      -0.5493962160179957
    ],
    [
      -0.6830722958741298,
      -0.26141703783912584,
      0.07960243096203046
    ],
    [
      0.33067628453647835,
      -0.25618739498031595,
      -0.2661244729243124
    ],
    [
      -0.3445829678762333,
      0.05528559662326238,
      -0.630016330932107
    ],
    [
      0.20072750930970829,
      -0.15543154353364574,
      0.14681292869310358
    ],
    [
      -0.03349119222289243,
      0.6919575223928089,
      0.4343733823056577
    ],
    [
      0.8170255493601073,
      0.7931115940326763,
      -0.7121333684683937
    ],
    [
      -0.4147855333111131,
      -0.15396759308914743,
      -0.3975865503514395
    ],
    [
      -0.39077441104437494,
      -0.9001922690758567,
      0.8446959826565528
    ]
  ],
  "bias2": [
    [
      0.42762834428662577,
      -0.4668605042397944,
      -0.5591810243865263
    ]
  ]
}