{
  "weights1": [
    [
      -0.4635119522683877,
      0.3510262019500754,
      0.34405452413284854,
      -0.9050328460083786,
      -0.3874221562946283,
      -0.7364912020146153,
      0.3927957305738169,
      -0.07441755865711253,
      0.4476760994638962,
      0.8008391625188178,
      -0.5226966573504893,
      -0.5544049268389456,
      0.7904571411761592,
      0.9301227144628772,
      -0.9165427420861244
    ],
    [
      0.06377655352694678,
      -0.43772511534102376,
      0.21460425410934825,
      -0.7392845643823901,
      0.3592885771156388,
      0.41976729267974366,
      0.5378287045596136,
      0.9311911473432324,
      0.5494714301450576,
      -0.42951912886097576,
      0.5324689509104751,
      -0.2107617968738028,
      0.34485208438991477,
      -0.13853183765376653,
      0.4081401179613593
    ],
    [
      0.6791205324422114,
      0.689189131284091,
      -0.3293941064148834,
      -0.015157212835564593,
      -0.9006873014030687,
      0.4126899640029319,
      0.45551638221904733,
      0.27017192022267955,
      -0.5458490270054392,
      0.4690189565508851,
      0.4096593782642888,
      0.1475870468498921,
      -0.054678535828551644,
      0.6777171532232322,
      -0.0631378625054676
    ],
    [
      -0.9427165122500405,
      0.7967590202949688,
      0.8190298535294325,
      -0.6748211638322912,
      0.5566902706238914,
      0.5482294185911156,
      0.6221026846867153,
      0.35259720394262883,
      0.6387985847911613,
      0.41450495630938966,
      0.16688664033938183,
      -0.24377794830796784,
      -0.541619784378795,
      -0.2644484563934989,
      1.006429298695375
    ],
    [
      0.5214787340347886,
      -0.13938793335139565,
      -0.9989124076219267,
      -0.7090648795180612,
      0.34329388736010924,
      -0.8623442720396093,
      0.04338734971569003,
      -0.9009202655977142,
      0.795771923248681,
      0.4576123615413813,
      0.7279969462068947,
      -0.47960184666677386,
      0.19804650956801784,
      -1.1550519747465162,
      0.4175986609577611
    ],
    [
      -0.734568710406383,
      0.0868287533614116,
      0.924470470663673,
      0.37565267041831674,
      -0.6609410421769737,
      0.5843590374375589,
      -0.3078953887242536,
      0.009756292297191771,
      0.05119292363263961,
      -0.9392007878018798,
      0.5787593402621191,
      0.09688218635841084,
      0.14639279254665194,
      -0.31520889109545414,
      -0.5286634466203308
    ],
    [
      0.8917311432967767,
      1.0611538646493466,
      -0.627288300384937,
      -0.7576659044512022,
      0.46630384910917155,
      0.4316128619433921,
      0.4658126442802164,
      0.6941035982515744,
      -0.704495587542099,
      0.5045991282704154,
      -0.24994194495306798,
      -0.4988529161917863,
      -1.030842865620944,
      -0.6076299093344915,
      0.8306999962306851
    ],
    [
      -0.14455329929137872,
      0.8415687778549024,
      -0.042559402244166655,
      -0.8076671993203663,
      -0.24527911226494892,
      0.10991476908816356,
      0.38872630930174035,
      0.567647582782722,
      -0.6936852633012571,
      -0.2516143786951912,
      0.003665351609452472,
      -0.9236771602606072,
      0.8990677029104048,
      -0.053464599854412875,
      0.42065220614867715
    ],
    [
      -0.4133297501862483,
      0.849935524104137,
      1.0667323280390442,
      -0.20103728977375512,
      -0.07134412301107973,
      0.13159175040506765,
      1.016858957514437,
      -0.07362925990037061,
      -0.7417470105375564,
      0.5325957869201501,
      -0.1013019881163495,
      -0.4853897178747326,
      0.0716308914019903,
      0.33156857129230843,
      0.4913941898774543
    ],
    [
      -0.5662031348342363,
      -0.7768486212413261,
      -0.9470083456377298,
      -1.0819669912663028,
      0.3694611922301436,
      -0.43561986002741726,
      0.7369130189918423,
      0.9221759740290514,
      -0.48882808423891166,
      -0.7128993086000882,
      -0.9142617919851158,
      0.6814018810880335,
      0.3460388360735509,
      -0.2956072596291497,
      0.9923296062273934
    ],
    [
      1.0431619800795089,
      -0.2863797271528883,
      -0.6017922008558401,
      0.6267768680904195,
      -1.0539799478569258,
      0.8673296455656696,
      0.9858012476144102,
      -0.9090370884562056,
      -0.3718406929017777,
      0.3513683328942774,
      0.5857876203646231,
      0.9256715636945877,
      -0.1340440830989178,
      -0.00467256835712182,
      0.5234057755231636
    ],
    [
      -1.0376069180742327,
      0.5300653605462116,
      -0.005060526573656632,
      -0.6367563090301248,
      0.8463208004528111,
      0.2291935707506373,
      0.3248769660948586,
      -0.04689789952157575,
      -0.8492908774807484,
      -0.7677164216598563,
      0.37325972229501936,
      0.005099099972821541,
      -0.915822947719207,
      0.24713828206303434,
      -1.0815225810978468
    ],
    [
      0.5664664331045993,
      0.08513771853837593,
      0.2995536958811519,
      0.6564190683698751,
      -0.512325201172048,
      0.05785206779727581,
      0.16657189889111867,
      -0.8373251123247729,
      0.3408885578044205,
      -0.4950027430819989,
      0.7873482447429694,
      -0.86744787033671,
      0.47157698574469054,
      -0.034083794261773104,
      -0.9491876754102009
    ],
    [
      -0.42128009339419425,
      -0.2060524530110679,
      0.25286696564688615,
      0.6674496226801654,
      -0.9229612814037836,
      -0.15309961160762098,
      -0.8663842017117678,
      -0.6092053733789857,
      0.36301626023710254,
      -0.5056508451661355,
      0.8838108088958898,
      0.6136657124872194,
      -0.7460164827527351,
      -0.19648085579840568,
      0.6351332886314417
    ]
  ],
  "bias1": [
    [
      0.7771928033039837,
      0.8061570967357761,
      -0.005079201340655981,
      0.10217477892699778,
      -0.08462484159513006,
      0.723602895728057,
      -0.3473290708794544,
      0.2353578981668889,
      -0.1285371498229182,
      -0.3807293353369996,
      0.2004899950980833,
      -0.19729284350683507,
      -1.072217946308673,
      0.34902590839198533,
      0.6353276454862109
    ]
  ],
  "weights2": [
    [
      -0.5120557645454604,
      -0.6094730474820911,
      -0.8667535180827856
    ],
    [
      -0.5859383239171351,
      0.13050166418199582,
      0.5675650178298125
    ],
    [
      0.8111683647029326,
      -0.8936150119593526,
      -0.08251728392935898
    ],
    [
      -0.9315019214790667,
      -0.7350319057523489,
      -0.955868689549356
    ],
    [
      0.185937110008067,
      0.9399543598855131,
      0.5573655573446117
    ],
    [
      -0.9099616515383908,
      0.14796394578407246,
      -0.7122338483389732
    ],
    [
      -0.4577539851432929,
      0.5100065515355405,
      -0.4193837826892628
    ],
    [
      0.020932327696057573,
      -0.2088981817606892,
      0.6786272996853464
    ],
    [
      0.23105267998805035,
      -0.3626363615138416,
      -0.12986912528229
    ],
    [
      -0.17276986469491407,
      0.640465999585158,
      0.4205444542951091
    ],
    [
      -0.7877211901263488,
      0.09378911346911556,
      -0.6505091827819109
    ],
    [
      1.002108733428122,
      -0.770341741547721,
      0.44610834002744937
    ],
    [
      0.07027272481143099,
      -0.5363135039238974,
      -0.3118254119109918
    ],
    [
      -0.5634469643444211,
      -0.9749506951983844,
      -0.5061845668772809
    ],
    [
      0.25887766213943886,
      0.16815288635542502,
      0.8005861194030259
    ]
  ],
  "bias2": [
    [
      -0.6394813394630527,
      -0.17683649548700464,
      0.12351649291405309
    ]
  ]
}