{
  "weights1": [
    [
      0.24658948101667377,
      0.5633467680534294,
      -0.5825721296499116,
      -1.0400639097343178,
      0.7429752221109487,
      0.14084251715415608,
      0.26149843297773456,
      -0.8185159822273724,
      0.6709626648820466,
      -0.5738396753265786,
      0.1942824085135495,
      0.18658441035973194,
      0.4342640263977522,
      -0.9438689274386833,
      0.5907581999457188
    ],
    [
      0.5272474436133772,
      0.3537000768378942,
      0.6070357892085259,
      -0.9548410426845275,
      -0.6118404215534707,
      -0.4877123815441582,
      0.49933594089697575,
      -0.6584353840425226,
      0.9902361431817632,
      0.17992860311598902,
      -0.7707139359594852,
      0.9916125430744054,
      0.5992408236763214,
      -0.3998655094186274,
      0.663405973962258
    ],
    [
      -0.4609268035442575,
      0.7864574093866721,
      0.3585436458758071,
      0.5307203630250314,
      -0.49712314449275996,
      0.745860898469723,
      -0.18788790930068355,
      -0.24594048405449165,
      0.995404331154757,
      0.9827118929744985,
      -0.013416067067735904,
      0.15340448846797639,
      -0.4337768479147094,
      -0.3417211558564315,
      -0.8108019555412662
    ],
    [
      -0.9073025512898933,
      -0.11676755276884165,
      -0.9685939561263446,
      -0.2121538949986559,
      0.8742531679838477,
      -0.9632977326207748,
      0.37956401606552237,
      -0.7763238950843636,
      0.8318432344438516,
      -0.37545830648653933,
      0.8564363197321536,
      -0.3544724129033763,
      0.5784930405545373,
      -0.07549820284721198,
      -0.17369077973905245
    ],
    [
      -0.16337670304378982,
      0.6651102029719056,
      0.2638371625415443,
      -0.4804698951867028,
      -0.1526758899277887,
      -0.47450914563117186,
      -0.11959681080443896,
      -0.9991275753117552,
      0.9333902624001822,
      -0.95578480995961,
      -0.11436211731986345,
      -0.5489224265870356,
      -0.03125018710750993,
      0.11956567413736696,
      0.5976957208280005
    ],
    [
      0.04278608315893839,
      -1.0312652000259264,
      -0.8536978766967538,
      0.022215980187842543,
      0.2491452838813757,
      0.0891458004376866,
      0.009611631851100366,
      0.9638421624811513,
      -0.5656883411490015,
      -0.6496219788234741,
      -0.09826769705756533,
      0.09821964614814649,
      0.9711525167424218,
      0.7145618563240099,
      -0.7687093799884543
    ],
    [
      -0.6407684308664955,
      -0.3005081834698049,
      0.6341146512573017,
      0.9578295758359701,
      0.4845251011102949,
      0.8575491134313431,
      0.2256760142121581,
      -0.9737995988820023,
      0.693389720722879,
      0.04356040822985696,
      -0.4910514106753121,
      0.3782085051870374,
      0.5779269269765188,
      -0.5838872670876336,
      -0.5488956523800654
    ],
    [
      0.13972964613743022,
      0.3180169890812852,
      -0.5518214624237813,
      0.6212490275968241,
      0.9382090886178864,
      -0.47322885317922525,
      -0.09745385495118564,
      -0.9335360001627837,
      0.7012950505720905,
      0.3382335845916673,
      -0.35298678244600135,
      0.5951390766697386,
      0.9133375678962024,
      -0.16929904877249768,
      0.6429328742508262
    ],
    [
      0.03580359470013672,
      -0.5739041661929671,
      -0.12679007849342838,
      0.19199341708747975,
      -0.20299850281224163,
      0.4446156840562523,
      0.09737783644788933,
      0.5907927901731769,
      0.45732449632765393,
      -0.8322295493863381,
      -0.26353765865437895,
      0.814457091960799,
      0.16487487804444956,
      -0.9404167259105418,
      0.6340323425874161
    ],
    [
      -0.26336871757643987,
      -0.8069885746998393,
      -0.7240801314426647,
      0.031721501692701715,
      -0.3189515813047391,
      -0.9388211049052879,
      0.5119799900974114,
      -0.007022517426351849,
      0.337133668621898,
      -0.49735579192352475,
      -0.8979668854789025,
      -0.5949844135379205,
      -0.7304376497952341,
      0.5657453335669862,
      -0.13122803855321719
    ],
    [
      -0.08743910157084178,
      -0.3214194056105315,
      -0.2872337166389114,
      0.8327281246548246,
      0.6346348675117118,
      0.5979211327763676,
      0.4869488882458035,
      -0.589381867714545,
      -0.018602217267694066,
      0.2755486751094556,
      0.20472390178580246,
      -0.852725465168283,
      -0.6107357207268103,
      -0.44566264190469873,
      0.2756497454235154
    ],
    [
      0.4466572669938551,
      0.9401342591234223,
      -0.9201088592535067,
      0.11608205198845445,
      -0.6715733078767835,
      -0.8955976561928868,
      -0.47903910092514046,
      0.3282172519574571,
      0.9111087584847062,
      -0.7882086583125827,
      0.27154929682222795,
      0.22649506213310522,
      0.6095400093618234,
      -0.11562969377288457,
      1.0157559320087937
    ],
    [
      0.40952248773970945,
      0.33173057453075216,
      0.8695128733234598,
      0.807315722818069,
      0.5690885706118758,
      0.13311810049582196,
      -0.6863477160395477,
      -0.05429035412591787,
      0.4082135906528319,
      0.9641180552160619,
      0.24200025114071488,
      -0.7841602140962677,
      -0.34368876595006403,
      -0.008928415913157073,
      -0.45862996034282677
    ],
    [
      0.8222256236899486,
      0.7693646681143758,
      -0.7781414770219706,
      0.7845895536676086,
      0.32373965391142934,
      0.17979381534185412,
      -0.7570230808990357,
      0.6216483782365776,
      0.294892420252185,
      0.3826458059094485,
      -0.6978117884759039,
      0.036737226307700155,
      0.9985332008669228,
      0.36414262066291103,
      0.39448831926575245
    ]
  ],
  "bias1": [
    [
      -0.9628846420580146,
      0.7636001920449202,
      0.18346010337144447,
      1.0512417673462264,
      0.6968199564902551,
      0.058520476402820876,
      0.7255039620602843,
      0.48148935235053114,
      0.9442323905306775,
      -0.005000308509139462,
      -0.7807272415889228,
      0.38924618309794434,
      -0.5938316301946234,
      -0.5240445744571933,
      -0.303617397139996
    ]
  ],
  "weights2": [
    [
      -0.6009191657861161,
      -0.6660449621534912,
      0.9738342373083904
    ],
    [
      -0.6761229519178973,
      0.9796195409365183,
      -0.41277014266138456
    ],
    [
      -0.6144742116345809,
      -0.7449817232297837,
      0.6129157122273626
    ],
    [
      -0.7017055539488892,
      0.8141272622092894,
      -0.03502502508894212
    ],
    [
      0.28130082265781464,
      0.8075943337898099,
      0.03137082547343084
    ],
    [
      -0.09889458115537186,
      -0.8836631833655999,
      0.8380309557244932
    ],
    [
      -0.8889765929526465,
      -0.7761731205220643,
      -0.4955972861495499
    ],
    [
      -0.8395680703716581,
      -0.2524828801697061,
      -0.5029174196245108
    ],
    [
      -0.5581662407196759,
      -0.18801878035375008,
      -0.33842051695372355
    ],
    [
      0.584629052859392,
      0.8720789868782153,
      -0.33945945199059047
    ],
    [
      0.49104615870023505,
      0.8506884649623867,
      -0.5443183417908317
    ],
    [
      0.43420964297361353,
      -0.2063417730688979,
      0.3929484860582151
    ],
    [
      -0.3856538296959702,
      -0.7259443104450125,
      -0.20741867202064723
    ],
    [
      -0.6189579544130104,
      -0.6195003087059463,
      0.9143499203106296
    ],
    [
      -0.003497674744330048,
      0.26448070403412005,
      -0.37842186207538164
    ]
  ],
  "bias2": [
    [
      -0.7183752208224727,
      -0.9140998409223511,
      0.6358435149951394
    ]
  ]
}