{
  "hiddenWeights": [
    [
      -0.550464684683696,
      1.3813430818113024,
      -0.12172087311597624,
      0.4703231426501562,
      -0.4386404645548492,
      -0.4767717857887652,
      0.22470486591347205,
      -0.07636530189107793
    ],
    [
      -0.031778677292775726,
      -0.09681308427886037,
      0.6383268476992083,
      -0.8700609928397536,
      -0.5257637522635772,
      -0.09498542144264333,
      0.34153054843276154,
      -0.04467232060776771
    ],
    [
      -0.5311587024553193,
      -0.2580641346598316,
      0.3910024169688997,
      -0.4938167037371155,
      0.21196822862218534,
      -0.5267362823039825,
      0.6833051301254129,
      0.6988709443885814
    ],
    [
      -1.025020921226953,
      -0.6471233515425032,
      -0.9832286429878963,
      -0.7535653910756144,
      -0.14049471147209003,
      -0.9455636768262337,
      -0.0682847204670014,
      0.44352759887789617
    ],
    [
      0.8842049714682796,
      0.9759504734081319,
      0.17808328709781485,
      -0.7243847113996487,
      -0.10942989173652196,
      0.3346020657292341,
      0.662636106056377,
      -0.9019901227448521
    ],
    [
      0.9279871420692491,
      -0.024958008385308705,
      0.2957239596740928,
      0.07471783507326268,
      -0.4064028402005193,
      -0.32488399910528987,
      0.2541872478881122,
      -0.5223771439046043
    ],
    [
      -0.5956647464826075,
      0.2058567426228035,
      0.931466132685072,
      -0.07358948762452044,
      0.30854163733260664,
      -0.10295447407088609,
      0.7451946836037173,
      -0.8816271698218405
    ],
    [
      0.8477271169191316,
      0.8225636583999965,
      0.1223058093330569,
      -0.3617486429961967,
      -0.6774547172319938,
      -0.6039346956771201,
      -0.5267130883513005,
      0.6434004062144334
    ],
    [
      -0.5738238121238202,
      -0.7164967616326194,
      -0.47411719961041987,
      0.5373958914891996,
      -0.022414208901388122,
      -0.23028543624469222,
      0.6890665959394369,
      -0.8509760707156881
    ],
    [
      -0.9202936281659677,
      -0.6242017361991818,
      0.2672204003816314,
      0.010966318926854068,
      0.5120277133285263,
      -0.4942510125073678,
      0.7091863822892983,
      0.9251463515769407
    ],
    [
      0.7562321829112597,
      -0.9104752262846594,
      -0.0763888728735651,
      0.33202763876969765,
      -0.1429854065648719,
      0.7478568781694293,
      0.4301518131663027,
      0.8966557060938514
    ],
    [
      0.8655855229845422,
      -0.33302155948780765,
      0.37231470099162367,
      -0.8553917627233685,
      -0.43972172984541835,
      0.4461068727207609,
      0.7420670087549581,
      -0.27229618752670337
    ],
    [
      0.07968621121304098,
      0.3833139892896469,
      0.6723769983572292,
      0.5744004171643486,
      -0.8825630986916178,
      -0.04230147963832653,
      -0.7052897660583546,
      0.9331792968970527
    ]
  ],
  "hiddenBias": [
    -0.27804709500386005,
    -0.2352525534123071,
    -0.10399828922532062,
    0.16647047374135182,
    -0.1873709410619726,
    -0.09813051090682556,
    0.15719492679164881,
    0.03035854224760115,
    -0.3566422434525036,
    0.4685169878411901,
    0.30187613596687024,
    0.34386411528119987,
    -0.18383265859357567
  ],
  "outputWeights": [
    [
      -0.9416712378143726,
      -0.4584264579847681,
      0.25357470547522465,
      0.3814379726059911,
      -0.4047573772745072,
      -0.25113852633536915,
      0.9491622248477314,
      -0.44114282617957024,
      0.39235637545832214,
      -0.4114670750620626,
      -0.31298814113704765,
      0.013821021888323237,
      -0.758542827459328
    ],
    [
      0.5349944491229046,
      0.4608383336466031,
      0.766681891148274,
      -0.08427997128413356,
      0.39768556314775116,
      0.6144590437788495,
      0.40346818275011165,
      0.4907435592455949,
      -0.29646532475986387,
      1.3922393804429822,
      0.6739247919295361,
      -0.168518719075752,
      0.6335811459727387
    ],
    [
      -0.7490876131792463,
      -0.40886308053409337,
      -0.5097457566620118,
      0.1935844250751324,
      -0.030505930889207278,
      0.8694019425597053,
      0.027835411362762574,
      -0.26632931893420997,
      -0.8768453004057313,
      0.5960177466077696,
      -0.7904341580773036,
      -0.4258133573842646,
      0.29140617347780995
    ],
    [
      0.34612254117807195,
      -0.046354194859060005,
      0.17165503428393603,
      -0.7432029460932612,
      -0.9392135395608889,
      0.9626540612320773,
      -0.2199908557948782,
      0.4624353323831525,
      0.39736281538210383,
      0.36633652366698133,
      -0.6430491939816565,
      0.8869556065876387,
      -0.4961727594115133
    ],
    [
      -0.36739995981049933,
      0.9689576444312342,
      0.7981265288201596,
      0.4422102782020296,
      -0.7344438430199625,
      -0.4804313434629641,
      -0.8932220909742752,
      -0.29260058834138336,
      0.22405384550388918,
      -0.3536647366321741,
      -0.3313103658104115,
      -0.5507242095868623,
      -0.7174968968641311
    ],
    [
      0.2635490488180978,
      0.015555482445420044,
      -0.7465267179377202,
      -0.6423455362249935,
      -0.5715212037348052,
      0.49268165377565376,
      -0.7520509740485899,
      -0.4619758237398357,
      0.3655020944102114,
      0.7271147286785635,
      0.6504756515793875,
      0.7069320270544721,
      0.19438757176890498
    ],
    [
      0.4086241636574077,
      0.6976051236541045,
      -0.91002717007779,
      0.6347185513315723,
      -0.8396981646916726,
      -0.8002196074284069,
      -0.9041576373194196,
      0.5620650818137016,
      0.7568312095629905,
      -1.0263388677644032,
      -0.6314795237399524,
      -0.12860910027162498,
      0.17219016354135164
    ]
  ],
  "outputBias": [
    0.3444093555559733,
    0.4659319787280347,
    -0.5904070370294883,
    -0.21271602334946116,
    -0.19174407999038823,
    0.0374748180426947,
    -0.09720353764004219
  ]
}