{
  "weights1": [
    [
      -0.4946827897655588,
      -0.2435416890432851,
      -0.550402140296117,
      0.47313854639715736,
      -0.04939198803039835,
      0.13853438626876002,
      -0.9338362510952334,
      0.19242978225050722,
      -0.07812740919274219,
      -0.3266404313664846,
      -0.7269804466156802,
      -0.8416751916477403,
      0.10949804534639174,
      -0.047313752889384,
      -0.816483535357106,
      -0.7530766997517673,
      -0.5464245798916711,
      -0.5268993143856973,
      -0.9807143165102579,
      0.008968293538206051
    ],
    [
      -0.2648127696551612,
      0.7516954233524875,
      -0.23815204919488187,
      0.29382305502529915,
      0.7764246831585213,
      0.7650643951187441,
      -0.9456040817524292,
      0.7082198241162514,
      -1.0614463354210923,
      -0.1467631579797386,
      0.17695093067214707,
      0.8689305974764543,
      -0.6207651411324706,
      0.055158459337176335,
      0.05416898561434813,
      -0.3412029388367801,
      -0.7493596126189401,
      -0.46903651982124384,
      -0.35252924169611743,
      0.31629436595022664
    ],
    [
      0.9175484328816368,
      -0.5914038631503757,
      0.42212115899989566,
      0.3217606948884022,
      -0.8107936316500708,
      -0.7581239492390419,
      -0.8475577384309855,
      0.7787542326337924,
      0.8030891474781701,
      -0.6290673068351232,
      -0.8355021994024225,
      0.07633248668477632,
      0.06550147073387347,
      -0.9071936592973837,
      0.9753260670092512,
      0.7295539952180965,
      -0.20665161076550875,
      -0.49522233712685804,
      0.6641390175297794,
      -0.5664838985979597
    ],
    [
      -0.6571257385174123,
      -0.7333452498494779,
      0.13718143709298758,
      -0.03988220215211191,
      -0.9466068183389167,
      0.575975273222757,
      -0.7358065101688189,
      -0.44068820648185003,
      0.509851628566218,
      -0.9321817024781422,
      -0.42018758891305774,
      -0.9393702070554464,
      0.7900596294337605,
      -0.8148014975416942,
      0.03834731482151765,
      0.980090243915873,
      -0.22522779322194264,
      -0.027111791876466285,
      -0.9711560765115567,
      0.3736965543307962
    ],
    [
      0.5103576910121963,
      -0.12875592360640087,
      0.3005769460280665,
      0.07800530440170972,
      0.6355332618674594,
      -0.2899925486537187,
      0.1517000534660169,
      -0.9839158546965185,
      0.41312698043820895,
      0.35262873377713344,
      -0.4139217559451245,
      0.6225557714132002,
      0.483829551627748,
      0.3782157322009234,
      0.14474210616349892,
      -0.8217444825877243,
      -0.27923030378356195,
      -0.13048192311807183,
      -1.0405122179600648,
      0.4454772162058349
    ],
    [
      -0.6930051830921653,
      -1.0826759201134872,
      -0.6779470200625384,
      0.4789332152449006,
      -0.27804141480807676,
      -0.1910809216266629,
      -0.1503519200384198,
      0.16757979823400326,
      0.8329677760367713,
      0.8704849635315091,
      0.6357428623113379,
      -0.7324511996305592,
      -0.38056330557556606,
      -0.4579994502253304,
      -0.16948908342010816,
      -0.15229409589710974,
      -0.2611495625563438,
      0.5859505378480746,
      0.5544708653896109,
      0.12641575747121458
    ],
    [
      -0.22664479751645272,
      0.28373520367025495,
      -0.3766754778140373,
      -0.3470946028450492,
      -0.7066706311638414,
      0.2173817628220741,
      -0.92883346079994,
      0.4654269269558826,
      0.01742725139671375,
      0.025581057118698514,
      -0.7393777071224323,
      0.12984113629813,
      -0.6621864782661957,
      0.6434715781315439,
      0.41790420945338225,
      0.49042412070639685,
      0.9249460677363164,
      -0.24448414883937009,
      0.5574773558889693,
      -0.5658036780810051
    ],
    [
      0.8404694924449198,
      -1.0710584728710142,
      -0.18860491564837412,
      -0.05389856372075075,
      -0.012458466174491978,
      0.9942669796081494,
      0.019821170405088573,
      -0.4880914126564835,
      0.47551917741549843,
      -0.3993413786194755,
      -0.7942675544477759,
      0.6413372060445798,
      -0.640297509888438,
      0.5290258712404388,
      0.7603442588455624,
      0.042540194045240565,
      -0.710173749240786,
      0.38214923489033215,
      -0.4019200768142249,
      0.7731386404231007
    ],
    [
      -0.11045509873659043,
      -0.009551780364179585,
      -0.45188420154150855,
      0.7728263978071452,
      0.9239304834058237,
      0.5942315835948672,
      0.6489278363210951,
      -0.15665006342157684,
      -0.4850370948810703,
      0.521831967707374,
      0.5314741797272835,
      0.11357034022968682,
      0.7553066407705225,
      -0.12339856738975763,
      -0.7722205749359171,
      0.5965217809845877,
      -0.043159803068943514,
      -0.6825395538408259,
      -0.6114052800461454,
      0.5364560761569344
    ],
    [
      -0.9984138113052814,
      0.3724159670902717,
      -0.5316165264985195,
      0.1826655934118777,
      0.5630000261649322,
      -0.08125041665447119,
      -0.6422748380663024,
      0.25298111675811785,
      -0.8877123045390656,
      -0.549440020140759,
      0.8924480040030327,
      -0.9405899399868495,
      0.6026621228501265,
      -0.5399963930486962,
      0.07107245816565477,
      1.0306401677381842,
      0.18784807417354976,
      -0.5767544927355224,
      0.1155900750236507,
      0.0621762569731199
    ],
    [
      0.7732245978944015,
      -0.9663611766081801,
      -0.8026795025524857,
      0.6241025381672154,
      0.6175198694293234,
      -0.9246334942947705,
      -0.27778611064931047,
      -0.5482477135694381,
      -0.5533067582612393,
      -0.3473972694847016,
      0.2577973276296187,
      -0.5985081228253168,
      -0.8276491826288721,
      0.1142949273731717,
      -0.4844844701491713,
      0.5350418194483564,
      0.5045788931543291,
      0.2831086226167314,
      -0.8359717276607723,
      0.19656018346264492
    ],
    [
      -0.4560753409435253,
      -0.8224492724255863,
      -0.5934452794414868,
      0.7743011582787312,
      -0.6258078110041319,
      0.31865056537755354,
      -0.053584339066511166,
      -0.7312065259208631,
      -0.33623479596536754,
      -0.7334450857268902,
      0.34102254390003994,
      -0.9577378507671873,
      0.5369101314671187,
      0.0228200796261544,
      0.16498442301477922,
      -0.3748690411969129,
      0.6901209627394498,
      -0.1699459828128993,
      0.7467651127020278,
      0.5316237018865646
    ],
    [
      0.7110366471032852,
      -0.46810069016789335,
      -0.9916790678495775,
      -0.8817985601386443,
      -0.34373062034471147,
      -0.597703342493757,
      0.24019359960328934,
      0.8143463786547511,
      0.3063818977301427,
      0.46665762801531807,
      0.5577349326895211,
      0.7355197993930638,
      0.30827468466257946,
      0.4371869104417261,
      -0.1649230055689368,
      -0.3301260653618896,
      0.01891129949240966,
      0.9261012388154364,
      -0.21717093808423282,
      -0.9475642255866314
    ]
  ],
  "bias1": [
    [
      0.5105141735302685,
      1.158228053871794,
      -0.07648347763207564,
      -0.3494782032077728,
      -0.6397438124701562,
      -0.24667283102756765,
      -0.8782438403138006,
      -0.12935039999987952,
      0.7116126380384684,
      0.7659040302317508,
      -0.061244665448528135,
      -0.6646968483967381,
      0.7972804944797913,
      -0.6232321633810347,
      0.7025092111498581,
      -0.37367803419655177,
      0.2908266009509606,
      -0.09771191475453378,
      0.8130596264595349,
      -0.444585117992073
    ]
  ],
  "weights2": [
    [
      0.1896675147684479,
      -0.6513066404103296,
      -1.0358592913063198
    ],
    [
      0.6114266528080535,
      0.28721840870115045,
      0.35373018482327234
    ],
    [
      0.4911567488258153,
      0.513105349805655,
      -0.48575157054601137
    ],
    [
      -0.8932801356160538,
      0.8367554316098458,
      -0.9567621022194865
    ],
    [
      -0.01793275480288692,
      -0.5960957300278773,
      0.21349510448310094
    ],
    [
      0.19427254326007493,
      -0.592705937665337,
      0.5334421179444555
    ],
    [
      -0.6791067482313715,
      0.9824657594648141,
      0.8361376772688078
    ],
    [
      0.7204020013879613,
      0.207271957527289,
      -0.47695326408274186
    ],
    [
      -0.5760262178356359,
      -0.9922372211819463,
      -0.6728085713952645
    ],
    [
      -0.7646393625939307,
      0.01678138384108796,
      0.9056778676093806
    ],
    [
      -0.8108364831887158,
      0.8482177325415976,
      -0.4767838210241053
    ],
    [
      0.46542265077173406,
      0.9653401402556461,
      0.7533884150017288
    ],
    [
      0.14237154863588364,
      0.8090199402538429,
      0.01719438974659182
    ],
    [
      0.6566414164539491,
      -0.47827252460065095,
      0.8735370813440411
    ],
    [
      0.7248429001476304,
      0.012531208388054882,
      -0.047820781048392824
    ],
    [
      0.21761524483285521,
      -0.2114175329913106,
      0.9488720953170042
    ],
    [
      0.9900456399100079,
      -0.2595605020912952,
      0.536218441453916
    ],
    [
      0.31121209958468476,
      0.2632710561207139,
      0.5361911680337723
    ],
    [
      -0.32519454932843095,
      0.4846563756313853,
      0.811942353396947
    ],
    [
      -0.41116380480463877,
      -0.045232915482355085,
      0.4784628523959449
    ]
  ],
  "bias2": [
    [
      -0.45516598224399374,
      0.21326908823995216,
      -0.8376081526762812
    ]
  ]
}