{
  "hiddenWeights": [
    [
      0.5023796341111322,
      -0.4509364537479894,
      -0.8695036029981562,
      -0.5682922883944959,
      0.13083975695692018,
      -0.7678560563148351,
      -0.24282295510205065,
      -0.0018717508836931795
    ],
    [
      -0.9350190539943775,
      -1.136227385669106,
      0.9941174806007038,
      0.2874371002199483,
      -0.45553882000909085,
      -1.100436983134691,
      -0.5859217539807795,
      -0.5655511639398072
    ],
    [
      -0.14990120886664382,
      -0.13824615460953948,
      0.740714831013229,
      -0.7228911677950087,
      -0.7694559910288095,
      -0.3858563195812168,
      -0.54729325762673,
      -0.15747946357713216
    ],
    [
      0.9374198528739135,
      -0.36998848937741124,
      -1.2353820431716296,
      0.8445958151025672,
      -0.8967728314383456,
      -0.3412268877753144,
      -0.5636631465848776,
      0.010202095503609732
    ],
    [
      0.8687797386320413,
      -0.5764475521392312,
      0.36071208619448103,
      -0.414135371018155,
      0.7794049272074337,
      0.9685063498029303,
      0.9713725378586737,
      -0.17096281078071685
    ],
    [
      -0.626613687039971,
      -0.4934836305757453,
      -0.14134690422078222,
      0.8196500029717566,
      -0.15462638018544483,
      0.07633568409543878,
      0.23195233958217765,
      0.02593528362253994
    ],
    [
      0.3833764917031208,
      0.13290159491733156,
      1.062762284437966,
      -0.1792254959919133,
      0.9623020009129222,
      0.11784414046798108,
      -0.1527054249704678,
      -0.8255738010068814
    ],
    [
      -0.5741586190432735,
      0.5247781470947912,
      1.5620396471415632,
      -0.0008375060299217196,
      -0.5233002331490066,
      -0.24611566959027442,
      -1.1303416432808688,
      0.42173825057500847
    ],
    [
      -0.6742727957937782,
      -0.369795423313827,
      -0.5930187275363223,
      -0.13987849658228102,
      0.30508324880127735,
      -0.4120196533096756,
      -0.3465672914545088,
      -0.6347529384030333
    ],
    [
      0.6520070266817202,
      -0.625045818936592,
      -0.16126927979540606,
      0.789460603832155,
      -1.1752148357523655,
      -0.5838315970522201,
      -0.05222262190898075,
      0.4874373720571903
    ],
    [
      -0.6015778580695708,
      0.1738961895719653,
      0.27614856501807106,
      -0.9245626360749366,
      -0.18750933066486963,
      0.4121403403909185,
      0.3756657110687953,
      -0.5583589086847933
    ],
    [
      0.2775387587106497,
      0.2070074095341785,
      0.6167772470583681,
      -1.3394764523034286,
      -0.45531781061487653,
      0.6608151386496219,
      1.1880611435384765,
      -0.4111494042865793
    ],
    [
      -0.6048987966965567,
      -0.8750823827552696,
      0.08324306437967488,
      -0.7088721691649442,
      -0.15428442046033863,
      0.4949528299764223,
      -0.23054958912147927,
      -0.7699948192821335
    ]
  ],
  "hiddenBias": [
    0.07271227929405044,
    0.8258664624822125,
    -0.305140075285522,
    0.3520062412636771,
    0.13840166823167,
    -0.44836557992724924,
    0.26198852258736194,
    0.2369261372435032,
    0.24194464705215757,
    -0.21170076327166898,
    0.4812653134752132,
    0.028013016014111436,
    0.22812757197476552
  ],
  "outputWeights": [
    [
      0.7001493798925948,
      0.21690625060923363,
      -0.9555972785260469,
      0.19175700479371116,
      -0.9269411152291405,
      -0.20389678907932085,
      0.3789851557207444,
      -0.32776624062666615,
      0.4808778230841033,
      -0.5480423367122222,
      -0.17000657454724677,
      -0.6240102511086172,
      -0.6528527642074993
    ],
    [
      -0.27280545013290647,
      -0.160548365485913,
      -0.5163544293023732,
      0.8070482517100928,
      0.8836269822830083,
      -0.5639299236228172,
      -0.1866267719888417,
      -0.28704077950661566,
      -0.5581934478290431,
      1.4090663125409266,
      0.7646445240960378,
      0.6634757450541726,
      1.0806106299975358
    ],
    [
      -0.006015279597731293,
      0.8050567935843529,
      0.3121290493437041,
      -0.020196648164550357,
      -0.024269403662429134,
      -1.0355227489664045,
      -0.4066695865712002,
      -0.22060049797492987,
      0.6720641812389339,
      0.16447077362709228,
      0.5574938150201225,
      0.4206207578923873,
      0.20521615315315844
    ],
    [
      -0.9839882520223981,
      -0.045355905292005616,
      -1.4276765673170304,
      1.2061339316744697,
      -0.43849074754982986,
      -0.9019432085479231,
      -0.08329841258057402,
      0.1015660141413226,
      0.9457293110166667,
      0.10076902642605079,
      0.7745276782787065,
      0.5266505378837909,
      0.23266038740405515
    ],
    [
      -1.3377673914856654,
      0.700600993595009,
      -0.9893458249645533,
      -0.8143320608141782,
      0.2050689295166468,
      -1.21595499443869,
      -0.7705553370426033,
      -0.7873632697594841,
      -1.3416715655546798,
      0.9382650342342276,
      0.7981257391102075,
      -0.32066052898623454,
      -0.3566423805200023
    ],
    [
      0.06392723220773178,
      0.5780478835917009,
      0.40252337032240737,
      0.3609344243290229,
      0.532935541026285,
      0.38910357523033934,
      0.8446579247766286,
      -0.13739971946956775,
      -0.8441407444691889,
      -0.5237731647352231,
      -0.09436918109223513,
      -0.37629694533490365,
      -0.12771833656973142
    ],
    [
      -0.9241348524181476,
      -0.3312177376892236,
      -0.8639380130711198,
      -0.38420612321473224,
      -0.072957971820661,
      -0.746068917529219,
      -0.2197215913253341,
      0.5904116003915492,
      -0.5161292747139448,
      0.01971264909122228,
      0.6551041009043423,
      0.7305981386446567,
      -0.12492774678647
    ]
  ],
  "outputBias": [
    0.7377020484330814,
    0.17838172426978338,
    0.476278900871707,
    0.10161542867628115,
    0.4017827908610776,
    0.4196714359235343,
    0.6258684079576782
  ]
}