{
  "weights1": [
    [
      0.5632195914145101,
      0.2888722570755592,
      0.5726522390390373,
      0.513347660368832,
      -0.944743354743077,
      -0.6678796081335658,
      -0.7413888565087949,
      -0.8283756447118954,
      0.7638642495505708,
      -0.6971383255588746,
      0.4607498874654765,
      -0.3349324050732516,
      0.6432712693361202,
      -0.11162652169736853,
      -0.4973795393293381,
      -0.9959111089196709,
      0.4929129315154135,
      -0.7779440415649042,
      0.4912797888353476,
      0.7587388662486846
    ],
    [
      -0.801333220247289,
      -0.025482970732053634,
      0.8010302047580474,
      -0.11906123092332144,
      0.2505664940100938,
      0.3273998408003358,
      -0.969008408641844,
      -0.2088277792981872,
      -0.06754787885160063,
      0.6183241470084446,
      0.4305660518409775,
      -0.5621082203714477,
      0.8452135710411085,
      -0.4233768686215207,
      0.6978214459313334,
      -0.6704211880457231,
      -0.011402316071349672,
      -0.48402664499188663,
      0.566294425182639,
      -0.25156382682423306
    ],
    [
      -0.7717405459579183,
      -0.10841293549677822,
      -0.17824678399458627,
      0.7094565411106863,
      -0.16887810473751808,
      0.9201468163931317,
      -0.23664093197798586,
      0.6264837423885528,
      0.2057536056503837,
      0.9317842188242988,
      -0.7795630883397546,
      -0.25234454089551284,
      -0.8062688515228578,
      0.31785151375286214,
      -0.5215133454737304,
      0.11300486065341753,
      -0.08871973670303923,
      0.08250285120339029,
      -0.1230243962853027,
      0.18788852345127216
    ],
    [
      -0.257485782328856,
      -0.6643739192528675,
      0.17340473035185378,
      -0.23790592872003336,
      -0.42134896781117215,
      -0.12573682769649708,
      -0.6556524801293259,
      -0.08205523236715884,
      -0.7078653947475635,
      -0.19591018966323304,
      -0.3257214956054737,
      -0.5128066278647716,
      -0.49283953665851676,
      -0.8341856200220257,
      0.7066300884619365,
      0.668355982937617,
      -0.09202850425041653,
      -0.6288535501315973,
      0.5391267808767948,
      -0.26239206187059416
    ],
    [
      -1.1885191536466042,
      -0.13066578678745655,
      0.16364836572740682,
      -0.669307207096131,
      -0.945596573241474,
      0.5002712815446602,
      -0.25048547288914946,
      0.3491687056336168,
      -0.6739464298990492,
      0.7459410259387247,
      0.703643960398649,
      -0.4654423349320068,
      -0.8969063978549064,
      0.8754610532367688,
      0.12532138438896645,
      -0.7654302724122748,
      0.7324933258955226,
      0.2601947488580024,
      0.9770063589838158,
      -0.27388881954152255
    ],
    [
      -0.500156120001436,
      0.5215062208870824,
      0.6232133730755752,
      -0.10775747452432594,
      0.005779933431322881,
      -0.3146300975869476,
      -0.7329818538192988,
      0.8457570911922679,
      0.152522580454447,
      0.1936738193308316,
      -1.003419131949033,
      -0.24565964527863715,
      0.4068567236810785,
      -0.6218095023780736,
      0.9034887476543161,
      0.69866647727855,
      0.5454759955495135,
      -0.1478533741400967,
      -0.22512830344130597,
      -0.24588928902364837
    ],
    [
      0.784590965672606,
      0.6580728774119646,
      0.36890675832582087,
      -0.9048727254932619,
      0.4858046924518914,
      -0.9390786029871432,
      0.7676399178817372,
      0.5692948513472286,
      -0.0018812849866711723,
      -0.4305466637329164,
      -0.44704269821994247,
      0.5438949461774238,
      0.7141283329542918,
      0.46480421419463247,
      -0.6362501520696786,
      0.9535802805875979,
      0.5057466266579924,
      1.1086595494690752,
      -0.36644962644534385,
      -0.5855291366043543
    ],
    [
      -0.35876890481613977,
      -0.4216250229349733,
      0.45080528110793217,
      0.37622717764885694,
      -0.6489865887133379,
      -0.08775212778490138,
      0.35292815536918676,
      0.44220613677765075,
      0.9474795239050332,
      -0.04057265176498592,
      0.5838800168440539,
      0.4768660226116337,
      -0.4282391536870491,
      0.4560471325832509,
      -0.3859408531252373,
      -0.46529541432176447,
      -0.38600417504054263,
      -0.7373505922735284,
      0.890364959413414,
      0.06332643869305454
    ],
    [
      0.35906225598728214,
      -0.18809950287163268,
      0.2251585414411903,
      -0.9999495601087854,
      0.6034809786940185,
      0.7887685785828098,
      -0.3065792461472223,
      -0.5708085197411839,
      -0.5139714925475647,
      -0.39640349394655394,
      -1.1125388141271646,
      -0.13740632965993516,
      0.493551930517548,
      0.5684577092058672,
      0.17159900706888376,
      0.051008975952105295,
      -0.5864554885547483,
      0.5095828588564699,
      0.7669332110837406,
      -0.021737488654302584
    ],
    [
      -0.3220657997238434,
      0.7264698105729519,
      0.30251311453668683,
      -0.22058915609045304,
      -0.0317071050273956,
      0.10740165507507682,
      0.461666458394848,
      -0.8259072239338034,
      0.25975054420267674,
      0.24693586143519852,
      0.6866742969773485,
      -0.37427029340214246,
      0.3550275494881219,
      -0.6645024252453152,
      -0.29548263864874913,
      0.4567887719093289,
      -0.9397503010363115,
      0.6999059383681638,
      0.53960924258252,
      0.9200413060092236
    ],
    [
      0.21681977990043044,
      -0.26460837712706287,
      0.10126541062381311,
      -0.9154345409804541,
      0.8951813154971315,
      0.761300381062788,
      -0.330838843957602,
      0.23063045663541715,
      -0.5034546321374012,
      0.5007991848641695,
      0.6770575430612356,
      0.49602405150060314,
      0.4272792999312569,
      -0.6301096952687968,
      -0.36796266116046716,
      0.7111894496903477,
      0.7228215113402781,
      -0.22968387309276228,
      -0.8862291331017023,
      0.6469628067317615
    ],
    [
      -1.0913707716583647,
      0.7438789602593187,
      0.398656459498116,
      -0.03310518911046956,
      1.1750990957389509,
      0.0008666449804475285,
      0.3974826250921447,
      -0.6028583138556044,
      -0.9648991381467149,
      0.687930762455917,
      -0.1896470877845864,
      -0.5702831039679862,
      -0.5704544987331271,
      -0.0807377686162829,
      0.8288961204569798,
      0.6925765306598481,
      0.0380689574098072,
      0.8765747332509422,
      -0.14806942569621873,
      -0.8190643571232964
    ],
    [
      0.080546633658932,
      0.6976646800045916,
      0.16009278489480527,
      -0.3264021699593327,
      0.15705730509096427,
      -0.3418849241246362,
      -0.737727162320978,
      0.04513070119991358,
      -0.4907133687464831,
      -1.0224491224460979,
      0.010137068107813452,
      -0.8825482668042958,
      0.5230936332630026,
      0.13835420624053452,
      -0.21129366320025433,
      -0.6650100552490377,
      0.6877435935243277,
      0.656218483666709,
      0.5020502756235187,
      -0.7615697186504915
    ]
  ],
  "bias1": [
    [
      -0.706087867666755,
      0.11345375453437423,
      -0.8843560895057934,
      -0.4343140310786895,
      -0.41522022915513956,
      -0.32543051057809413,
      -0.0759467940820906,
      -0.7970161169651565,
      -0.3540771277913284,
      -0.496354222462123,
      -0.7311496899668364,
      0.5778156833225416,
      -0.24659817220993285,
      -0.06575871682385304,
      -0.8146441600049222,
      -0.3389649888394164,
      -0.6524039971385283,
      -0.3384380751042675,
      -0.19892206234952514,
      0.3673505105642123
    ]
  ],
  "weights2": [
    [
      0.23987492997037885,
      0.8392936927889081,
      0.775857107221888
    ],
    [
      -0.42131863557147486,
      -0.7987201722574109,
      -0.0902911053886144
    ],
    [
      0.48873881975220046,
      0.8778099496623554,
      -0.7582484805734495
    ],
    [
      -0.5072143404332881,
      -0.93608804624643,
      0.584080234565199
    ],
    [
      0.8599004800214158,
      -0.37617293084069203,
      0.6619861502327506
    ],
    [
      0.7325168578498946,
      -0.6993752738587939,
      0.6720886678893345
    ],
    [
      -0.46837044751827495,
      -0.9168020233034075,
      -0.7234173685174868
    ],
    [
      -0.4499759371496759,
      -0.2825792921634759,
      0.7798332208069794
    ],
    [
      1.0093882656766588,
      -0.2677256333046678,
      -0.4654920990136163
    ],
    [
      -0.7503233397962171,
      0.32068776896091256,
      -0.49782137691110107
    ],
    [
      -0.5741565710674057,
      1.0645811103727345,
      -0.49018871386279184
    ],
    [
      -0.4005684312673069,
      -0.7896048753769055,
      -0.56277447041147
    ],
    [
      -0.7365457916256299,
      -0.7061854694759515,
      0.8116583474213894
    ],
    [
      -0.5102708798922767,
      -0.2806464457948299,
      -0.04686418578648388
    ],
    [
      -0.6240610973844696,
      -0.40124202956285515,
      0.7372183597968361
    ],
    [
      -0.4235177385805676,
      -0.04822680164242654,
      0.12301809318274581
    ],
    [
      -0.5430698921915456,
      -0.30318532681650157,
      -0.49540672266417607
    ],
    [
      -0.3667578126380793,
      0.28668401847726255,
      -0.9783555935507432
    ],
    [
      0.9907272692933509,
      0.9723099887450727,
      0.41212668547303055
    ],
    [
      0.44218270520170755,
      0.22441392685544437,
      0.9553040441264185
    ]
  ],
  "bias2": [
    [
      -0.16283837739797702,
      -0.4799726522820462,
      -0.5634424741007763
    ]
  ]
}