{
  "weights1": [
    [
      0.8191513864319888,
      -0.1070557183487666,
      0.37594346194480455,
      -0.07232434589457615,
      0.43127229485945406,
      0.998878261811361,
      -0.4898905444442385,
      -0.3383994305060174,
      0.3240928022414953,
      0.7951247916292394,
      -0.41542553302848084,
      -0.6109093140398927,
      -0.7292901634053237,
      0.6441921602228957,
      -0.5240626817338958,
      0.05800567004072166,
      0.5253509215320711,
      0.936547446715442,
      -0.3026508264124872,
      -0.2749951012125522
    ],
    [
      -0.3558763638250291,
      -0.05008757937712138,
      -0.5190901547521278,
      0.7805711402949886,
      0.9766285749135499,
      -0.5594277022781848,
      0.22753580703647458,
      -0.5212183965352706,
      -0.7412089095775709,
      -0.7395145322689354,
      0.591355751989068,
      0.6636047941552876,
      0.9550056210613844,
      0.6602539963195553,
      -0.12754338880012295,
      -0.012374217370003215,
      -0.21385658774492677,
      -0.6425663912279669,
      -0.6016365330522606,
      0.28503767715497386
    ],
    [
      -0.17481254844877459,
      -0.6589567900936051,
      -0.953350477152322,
      -0.11828509111434737,
      0.1906553486793484,
      -0.40143411793265926,
      0.6860587326302978,
      0.3342583640687269,
      0.8551354859051532,
      -0.7483605296999052,
      0.9764442982851889,
      0.9535236719708382,
      -0.21487036109437385,
      0.6519246818506188,
      0.7820173083604698,
      0.092630800500626,
      -0.9643899395137114,
      0.7979324846216516,
      -0.41078313274379896,
      0.9654453609626272
    ],
    [
      -0.44326616103503635,
      -0.2878012281282901,
      -0.8070661641506263,
      0.8302587325096766,
      0.34413655736324156,
      -0.41120838424777784,
      0.3938582831485258,
      0.06466661528598472,
      -0.22819343870787856,
      0.33261853467859526,
      0.7980835870778038,
      0.28735110950733267,
      0.4317016504999063,
      0.001787323259306639,
      -0.29578198739674333,
      0.766518406586024,
      0.46062009889838085,
      -0.9385666015353475,
      0.7008617846096548,
      0.20204741480128474
    ],
    [
      -0.02566403442216192,
      -0.9791040646105165,
      0.855424064579148,
      0.006687506136300314,
      0.47738213906732563,
      0.7784955188557494,
      -0.5872577629781168,
      -0.8276780233725369,
      0.5701954161272895,
      -0.6864605035482763,
      -0.7111189922857788,
      -0.2742020336483133,
      -0.27278944380669445,
      0.40101258703974985,
      0.05812058708882173,
      -0.3954981628182077,
      0.8242357108420815,
      0.5926650606452046,
      0.6934502074657933,
      0.21997065772467084
    ],
    [
      -0.3322033520014549,
      -0.4250817972120542,
      0.7334859476521566,
      0.7768283803487765,
      -0.21996120900982552,
      -0.15455867675892465,
      0.6097511666719138,
      0.5807636756694539,
      -0.00533870571831685,
      0.18365355821039175,
      0.8806888763774792,
      -0.16479800840793102,
      -0.8574584644409247,
      -0.13203237228834608,
      -0.7830900187660821,
      -0.36531516359803007,
      -0.24108024327683042,
      -0.783385474572976,
      -0.14612028763216678,
      0.8737098212747321
    ],
    [
      0.26007226466063793,
      0.6201294679193134,
      0.7881821494428811,
      -0.4913858374600122,
      0.6811553116755502,
      0.9608737946696352,
      0.28792471657575924,
      0.36608953960985025,
      -0.9649362081500867,
      0.2684600436925635,
      -0.43577696560452406,
      -0.006511072343474922,
      -0.0059131903800571095,
      0.8578340838179264,
      -0.20331073641821895,
      -0.7676285304680008,
      0.6431454812013113,
      0.12235957409511711,
      -0.23766631219806644,
      0.04643712546585954
    ],
    [
      -0.2293318447165733,
      0.13029777256105746,
      0.5163699921904408,
      0.964407842625751,
      0.4640561414954094,
      -0.5413397600540506,
      0.8188678427641369,
      -0.5100555835322051,
      -0.7325439938174942,
      0.222212196316796,
      -0.3930308930722157,
      -0.14906817938243355,
      0.19404810066403888,
      0.661231309752174,
      -0.2831692474844507,
      -0.6654618627498436,
      0.95050538398631,
      0.22852261198703516,
      -0.8440200173171322,
      0.8683296158641256
    ],
    [
      0.07673278190770405,
      0.9355083719087278,
      0.45517345235798246,
      -0.44020008076764716,
      -0.25301727421984177,
      0.5440022625096912,
      0.5839021955689452,
      0.40936774861254266,
      1.055117344708853,
      0.8956765497878636,
      0.6112296041767076,
      0.8587696118828085,
      0.33790277304436245,
      0.1544294025530757,
      -0.3815983546238524,
      -0.8144112125640008,
      0.14373035217969532,
      -0.405523589160774,
      0.8500359531011736,
      0.5178900682963015
    ],
    [
      -0.5492515347797569,
      -0.7889159014570049,
      -0.11848203615443165,
      -0.5481726359427315,
      -0.13780304103893926,
      0.039422946526976865,
      -0.6772209290966769,
      -0.0857255812720994,
      0.37241266726366407,
      -0.8291235422259904,
      -0.9397154471251636,
      0.6894177890753532,
      0.36691175540605014,
      0.7965961873952536,
      -0.18053766722672693,
      0.7303258067480882,
      0.3992522091574098,
      0.8613089672903995,
      0.1269864564704366,
      0.3374883730890357
    ],
    [
      0.3864473197782088,
      -0.7707159452951129,
      -0.8253764976649072,
      0.0418440398067772,
      -0.2721016706689663,
      0.759879165515327,
      0.5000187125142364,
      0.1392861811837368,
      -0.9260824342216343,
      -0.6412760465832505,
      0.7801429697105968,
      -0.48113261502551463,
      -0.5147738868648377,
      -0.09322166136471477,
      0.40426992124048766,
      0.9355147332566456,
      0.27523443776289636,
      -0.5185808156561924,
      -0.005392102601867066,
      -0.9604527280911141
    ],
    [
      -0.016361944700145514,
      0.1978730873520811,
      0.8477008419185044,
      1.0293795440477091,
      -0.5306424670223802,
      0.6055112002111942,
      0.6828627949397648,
      -0.24644150378954788,
      0.25957727983360535,
      0.6557061685488419,
      -0.35505554047163823,
      0.817950895789954,
      0.6893861645738348,
      -0.7730705299886331,
      0.004022898243218664,
      0.872913225418765,
      0.7273666442490022,
      -0.6621068773273917,
      -0.8216959231564926,
      -0.8275627684750275
    ],
    [
      -0.6062974458177548,
      -0.8794118956656076,
      0.3665312713777604,
      -0.041582648084389384,
      0.22690422985437353,
      -0.43371970281205874,
      0.47266731591974587,
      -0.7847681199516758,
      0.8175917413695979,
      0.6184568964074311,
      -0.8931643570409555,
      0.12283785383655665,
      0.2547450387458188,
      0.4850386541509444,
      0.8304858103059569,
      0.9286717497979224,
      -0.734217108610002,
      0.06483325044800203,
      0.8962012166146769,
      -0.6370149459412799
    ]
  ],
  "bias1": [
    [
      -0.7943895052448912,
      -0.9603912547644486,
      -0.559305406675068,
      0.6383242428339226,
      0.8905070052729087,
      0.9401043924272372,
      0.7403955092780907,
      0.1769616005749679,
      0.5082842199362259,
      0.8187033528327978,
      -0.5302147661358192,
      -0.3014894598089741,
      -0.8191661406999742,
      -0.8560699738226547,
      0.7434310452893995,
      -0.3118451635168542,
      -0.06955339000946248,
      -0.11241856350543022,
      0.47917168943205635,
      0.19052274959655557
    ]
  ],
  "weights2": [
    [
      -0.9079534569816698,
      0.1362905528897489,
      0.23219872173347023
    ],
    [
      -0.7218873060174351,
      0.42835975527719006,
      -0.5148039652562835
    ],
    [
      0.9545451280440287,
      -0.36309657460514133,
      -0.870337550353391
    ],
    [
      -0.08128924246291946,
      -0.9197117245993334,
      -0.4685217776788142
    ],
    [
      -0.9844886513966316,
      0.16160936777492463,
      0.8270708290470634
    ],
    [
      0.13806024483390011,
      0.7210885887664777,
      0.16019221525629757
    ],
    [
      0.9250063287734496,
      -0.173006739307193,
      -0.27043513129365016
    ],
    [
      0.9929480121055216,
      -0.6139479697995371,
      0.6180565370553053
    ],
    [
      -0.8798279901096495,
      -0.9754753548877666,
      -0.46740785431265275
    ],
    [
      -0.381539793928817,
      0.4540142278398269,
      0.002993931378895809
    ],
    [
      0.06090897108143034,
      -0.8956785100029316,
      -0.09392905847991795
    ],
    [
      0.2007262474547158,
      0.12553607891689156,
      -0.15762296090561234
    ],
    [
      -0.683336299573051,
      0.6776966060481286,
      0.3746696279995234
    ],
    [
      0.09605502057941218,
      -0.6702133617652314,
      0.6309366415284963
    ],
    [
      0.5328517818796348,
      -0.0314995208712503,
      -0.43569303306588214
    ],
    [
      0.052360703700282674,
      0.7030000905050966,
      -0.4174868857669911
    ],
    [
      0.5090654663413976,
      0.33061436001689737,
      0.6738416526671931
    ],
    [
      0.812419082898546,
      0.3925453457190664,
      0.06085653792881862
    ],
    [
      -0.5605490079206508,
      0.11513476193488481,
      0.4817290410074553
    ],
    [
      0.2774764453704526,
      -0.3335601581457497,
      -0.9908211306719585
    ]
  ],
  "bias2": [
    [
      -0.3919756173173785,
      -0.3689975475574907,
      0.45245853531073754
    ]
  ]
}