{
  "hiddenWeights": [
    [
      -0.29863871046344403,
      -0.6340934677882366,
      -0.11346196530898478,
      0.34947394122608433,
      -0.7016262615500524
    ],
    [
      -0.23366165732298105,
      -0.6844416884628055,
      -0.19495544223865569,
      -0.1491323226658927,
      0.35586987244509993
    ],
    [
      -0.1348501504543882,
      0.14362185867210497,
      0.39000167090158877,
      0.13555307719940268,
      0.4735131485483879
    ],
    [
      -0.4642459017129341,
      0.7545142906252995,
      -0.4738077651506012,
      -0.010327904617629002,
      -0.03730458350347554
    ],
    [
      0.16377527252468238,
      0.6436916536486383,
      0.019680930246785522,
      -0.12472172153860805,
      -0.7629559218368449
    ],
    [
      0.6710592598715679,
      -1.0440266695939142,
      -1.2772629423351007,
      -1.2175899332272317,
      -0.00548438372677551
    ],
    [
      0.6746133981873026,
      -0.055809742541477636,
      0.004587726328796782,
      -0.1362496227404435,
      -0.4331261810897251
    ],
    [
      0.5449251293992354,
      -0.5980874224563268,
      0.3245039965244567,
      0.09418651464725358,
      -0.4743212240513299
    ],
    [
      -0.6168246827092216,
      0.1357185912313832,
      -0.38270160131066766,
      -0.3318330667221878,
      0.3445363272555688
    ],
    [
      0.4897640475581784,
      -0.3451016581753146,
      0.5409645093963698,
      -0.12665894398390232,
      0.7493779080112488
    ],
    [
      0.4560537380537819,
      0.20893452630993314,
      -0.7578035966335928,
      0.472941366007924,
      0.2770555133435788
    ]
  ],
  "hiddenBias": [
    -0.06664842918693292,
    -0.008958757830224595,
    -0.3124931959662256,
    -0.3360936327259121,
    0.039883204577385145,
    -0.3366618968599693,
    -0.3275079364517206,
    -0.09456061929632309,
    0.3591324422922757,
    -0.3480359495908725,
    -0.010369201062544242
  ],
  "outputWeights": [
    [
      0.07189942529380655,
      -0.2675103401922634,
      -0.5067155409167896,
      -0.04331019339656583,
      0.17339697901218765,
      0.2817610307868814,
      -0.8114287461998666,
      0.7850416738262216,
      0.28706568754674544,
      -0.03358405663721742,
      -0.3593198437770908
    ],
    [
      -0.4944993441060914,
      0.3093789777121201,
      0.301919168125115,
      -0.9361786590527514,
      -0.9113055099886398,
      0.48820878550859725,
      0.4460094505815988,
      -0.1571477960216141,
      1.4473731627555466,
      -0.9691570753459029,
      0.30985448025636986
    ],
    [
      -0.5920761275260977,
      -0.8207017158040775,
      0.9716505899774508,
      0.3555278183014552,
      0.35407346862737743,
      0.11445944404924946,
      1.7743614029887083,
      0.437503032944748,
      0.5113986004407822,
      0.29688212380043,
      -0.12462223813881179
    ],
    [
      -0.2550567840377156,
      -0.6344675784076015,
      0.16867068804805263,
      -0.7485654464333884,
      -1.6637100413579753,
      -0.6094166291505154,
      0.7883826080260092,
      0.3778522203029562,
      0.13264940562617822,
      -0.2871471396667913,
      0.4466021580163686
    ],
    [
      0.6965832128969898,
      -1.0123545507509364,
      0.6762245337385804,
      0.4202213833827195,
      1.1213437558733454,
      0.8060476443371103,
      -0.7024486144940922,
      0.5539336435834423,
      -0.7816135984336934,
      -0.4399238121804854,
      -0.845504858972018
    ],
    [
      0.2899100585882888,
      -0.2970283351436347,
      -0.4068776195992472,
      -0.2473286518139819,
      -0.5674698083827789,
      -0.0886228196986869,
      -0.13420069357226816,
      -0.9429968924759253,
      -1.708443347396878,
      -0.44282740224854056,
      -0.22341990356392127
    ],
    [
      -0.8010242378725434,
      -0.9358911240300245,
      -0.5807196519739639,
      -0.5045520415092448,
      -0.5137690861166679,
      0.06152126507946343,
      0.2953176395941459,
      -0.2686458306343704,
      0.5198633308214986,
      0.9484515227073023,
      0.5407577939578094
    ]
  ],
  "outputBias": [
    -0.3094447677359502,
    0.510214804897994,
    -0.5062124598808164,
    0.11473787133461189,
    0.31372657704639906,
    -0.21885259911300126,
    0.3985550468172361
  ]
}