{
  "weights1": [
    [
      0.7769511516124012,
      -0.8156815297807589,
      -0.41418606217819187,
      0.6465458477523016,
      0.02456361615691549,
      -0.927206104034322,
      0.44816020663447087,
      -0.7749161627394885,
      -0.5847719019551767,
      0.3923865966951636,
      -0.9490059599295044,
      0.4852223495431369,
      0.004056029114636317,
      0.8684000537924796,
      -0.5522350455167873,
      -0.2483610976405779,
      -0.36387059926086396,
      -1.1086289736336867,
      0.1342610869487162,
      -0.29224233595192595
    ],
    [
      0.44971760848137476,
      0.6235270535977326,
      0.4415778656048164,
      -0.9551380994232526,
      -0.5024679875171945,
      0.2891484788411538,
      -0.6082046525933978,
      0.8044141296090941,
      -0.5905592519070879,
      0.42929396445453927,
      -0.2478850159146262,
      -0.18742936873924076,
      0.6950486592061987,
      0.7681854877673997,
      -0.7679409696002528,
      -0.1980476577342406,
      0.7842599568071722,
      -0.5377543060116312,
      0.31793367115505955,
      -0.37490178896687176
    ],
    [
      0.5045670719412415,
      -0.6418127403132695,
      -0.26973983166371995,
      -0.6521033380881427,
      0.17558761788500066,
      -0.6469263976970554,
      -1.0389343072778199,
      -0.29076114489351745,
      0.12116214388531787,
      -0.6405503784402868,
      -0.5246950219678568,
      0.594927506250253,
      0.13249510973569822,
      0.8114115514222,
      -0.31302589533583647,
      0.3998940203006187,
      -0.13100585448095226,
      -0.34892570917861665,
      0.8173484646497576,
      -0.38934662895183747
    ],
    [
      0.4679174504884398,
      -0.8122594526112046,
      0.1659982715369539,
      -0.45318584816856466,
      0.6351101412812672,
      0.8108806131613732,
      -0.938553067418356,
      0.1194521079559614,
      -0.7131169824250372,
      -0.9340418342145789,
      -0.050488392588550646,
      -0.3567161227699498,
      0.2545722245598625,
      0.7404589922627194,
      0.6301342528761475,
      -0.232779278084989,
      -0.07128363518597647,
      0.1911562411633292,
      0.3447843317274053,
      0.19654957716819865
    ],
    [
      0.10791295100853038,
      -0.2710854320702243,
      -0.5483007642463575,
      0.8174404019865178,
      0.8219008969781529,
      -0.8494858566486454,
      -0.0736993431292996,
      -0.28120583870518034,
      -0.31175412001876435,
      -0.0012370387031741537,
      0.424061433909412,
      -0.10261422833266565,
      0.16840942304495776,
      0.399233181297304,
      -0.7985135918779767,
      -0.38013844139415587,
      0.7748452591927109,
      -0.1548428068594161,
      -0.3695514274693985,
      -0.7825689111878216
    ],
    [
      -0.3658713467694331,
      -0.17499362574440802,
      0.3779281404694341,
      0.24816758001413053,
      0.09156552342931201,
      0.06251801058115225,
      0.5021152086760585,
      0.3520460004875572,
      0.49964876728636476,
      0.8621289698698846,
      -0.9744321527699915,
      0.7608318445180342,
      -0.7695112231598329,
      0.27140101638879566,
      0.22080758539528755,
      0.35725583440478914,
      0.9944438475070592,
      0.38435075036679534,
      0.8816847192379695,
      0.02721351624847923
    ],
    [
      0.3824214370239152,
      0.9812855255524715,
      -0.24278660349380088,
      -0.7836500343126942,
      -0.5351123205754154,
      0.4322494486251669,
      -0.31751993714254434,
      0.5104206727855852,
      -0.15421606566192425,
      -0.2848475011552436,
      0.4663799852644853,
      -0.7546561224380106,
      0.7196484292455376,
      0.42444573825287657,
      -0.033197625040553014,
      -0.8790624710433463,
      0.9432093016871601,
      0.7281198901565498,
      -0.3640242918057579,
      0.5150244959831141
    ],
    [
      1.195701606387292,
      -0.16931644881426733,
      0.6809442655052131,
      -0.25242074180886287,
      -0.02740550061359137,
      0.8389646443642924,
      0.20550872135436027,
      0.19059345990639498,
      -0.44072693051926937,
      0.7391088021993069,
      -0.8425043698889407,
      0.4484881049562066,
      -0.45231034294476125,
      0.13290177140214965,
      -0.04686458679358951,
      -0.16921818132048694,
      0.3580376940685053,
      0.6413550767222991,
      0.7462266946472127,
      0.5162686850186167
    ],
    [
      -0.2120574775251689,
      -0.44585254776658,
      -0.2406963677865872,
      -0.6732945311232661,
      -0.40842026372503604,
      0.31392954756192637,
      -0.9516014120672647,
      0.21373396531755873,
      -0.04186775227014117,
      -0.7181454245726573,
      0.7771930078051303,
      -0.39234042707460604,
      0.16918044948489674,
      -0.14617950995839157,
      -0.6225777188031589,
      -0.14840327913606832,
      0.6841651349498186,
      -0.4411685539964001,
      -0.5547989225837906,
      -0.3792662172941812
    ],
    [
      0.7343074094322873,
      0.4070257807965526,
      0.35195411686120703,
      0.475196380212613,
      -0.21529513532761435,
      -0.7084919138828418,
      -0.26531648314833056,
      0.6834556275334185,
      0.2778683108047275,
      0.8388723428737479,
      0.2768104789475513,
      -1.2530037178135438,
      -0.5243038486055881,
      -0.4755426232734594,
      -0.7072466728320008,
      -0.776761036544972,
      0.09137170124217375,
      0.6852183943428605,
      0.7178863360484349,
      0.5666834757416281
    ],
    [
      0.08653654947213152,
      -0.6216670000598207,
      -0.284458422493961,
      0.44310351199260856,
      0.21615701131819698,
      0.47079094616631956,
      -0.3667309663408329,
      0.3243177691468837,
      -0.929366792367485,
      0.2222374682843682,
      0.5091710758005425,
      -0.3388995971886768,
      0.25168209291996435,
      0.46263565898501835,
      0.16126406892948797,
      -0.6489257707595413,
      -0.8692217548200971,
      0.21796837055978902,
      -0.6784223037599504,
      0.9740585225196388
    ],
    [
      0.811160077982411,
      0.45675482537457857,
      -0.8635622369293351,
      0.37069894262730374,
      -0.9058139988081035,
      -0.9216299862998838,
      0.44799894035637555,
      0.4270814222460634,
      -0.059143229644856965,
      -0.8359316652341708,
      -0.4247311987313096,
      -0.19559211066870308,
      -0.6575674968753771,
      -0.6044965984838471,
      0.2726342041812466,
      0.26043658069016784,
      -0.09962524421584362,
      -0.9071116805674238,
      -0.962891939665699,
      -0.4918543562858635
    ],
    [
      0.3968622605074934,
      0.42472261924155064,
      -0.8677408104477045,
      0.8351348408313686,
      0.5429233736072668,
      -0.07114390887973954,
      0.8529399052182525,
      0.6127308121060144,
      -0.3461559134176089,
      -0.6086671951779881,
      -0.6952437546125343,
      0.11611738408675443,
      0.8031101963230722,
      -0.10410020245644125,
      0.06150655597274479,
      -0.6365128077729221,
      -0.46011513554905215,
      0.3411440093211602,
      0.06217057449071517,
      0.9445123322096776
    ]
  ],
  "bias1": [
    [
      0.8465687312071886,
      -0.5251020053576363,
      0.1209618765229391,
      -0.003922093286517825,
      -0.8555725161083183,
      0.00450227927768454,
      0.7004891142968228,
      -0.3343312628033748,
      -0.2509999691883502,
      -0.904293769346526,
      0.9460271993025797,
      0.7318659342223869,
      0.2280091082910074,
      0.25786873304511193,
      0.184210937217697,
      0.17744507991701297,
      -0.7886714781221862,
      0.7237954993997318,
      -0.43856108146115336,
      -0.07326843039843212
    ]
  ],
  "weights2": [
    [
      -0.8338355682540146,
      0.45562913329722343,
      0.1897397763377633
    ],
    [
      0.2943134283962987,
      0.6120743637330626,
      -0.7218815605841193
    ],
    [
      -0.28170664394898537,
      0.7703838596449308,
      0.10664202039356674
    ],
    [
      -0.02694677500435505,
      -0.7793290791233667,
      -0.8234967085139222
    ],
    [
      -0.041748712594475546,
      0.331168401101944,
      -0.6772873461793809
    ],
    [
      -0.2875692597941175,
      0.8948494735383989,
      0.942602016052803
    ],
    [
      0.29425135758756815,
      0.41343688158337466,
      -0.3987934889727571
    ],
    [
      0.11972176492280262,
      0.037315914466399924,
      0.47218602140988075
    ],
    [
      0.7160830228779713,
      -0.33789153079932444,
      -0.11169338353233016
    ],
    [
      0.8983699902533524,
      -0.8596569125100344,
      -0.7538974317314606
    ],
    [
      -0.07253230292623325,
      0.28142662085505865,
      0.2943185822876905
    ],
    [
      -0.8131813954477125,
      0.5255876504467749,
      0.4817946935245412
    ],
    [
      -0.39946881281924707,
      0.44744763045312563,
      -0.3047934700372479
    ],
    [
      0.5985572987446842,
      0.7837887714998035,
      0.5706868030412342
    ],
    [
      -0.3296250174108013,
      -0.2788839888816804,
      -0.6225506751462366
    ],
    [
      0.02970930984275233,
      -0.7931116429143534,
      -0.9002383747633278
    ],
    [
      0.6681856543027127,
      0.18933016198733865,
      0.45674622368984286
    ],
    [
      -0.7567076255041014,
      0.7617175210959595,
      0.7909807911042199
    ],
    [
      -0.8316018468577643,
      0.1967290619538531,
      0.560281338813676
    ],
    [
      -0.06753011629136108,
      -0.11599856448155466,
      -0.44557756135130777
    ]
  ],
  "bias2": [
    [
      0.19508139711188655,
      -0.4511486011819794,
      0.2763644497888119
    ]
  ]
}