{
  "hiddenWeights": [
    [
      0.002760392287728175,
      -0.3705854774688615,
      -0.5275165598751153,
      0.7944502596895364,
      0.7206421851544609,
      0.39459885195766553,
      0.8921617107774873,
      0.4259375862463455
    ],
    [
      -0.2702041020114796,
      0.2373417944175702,
      -0.056855100199209474,
      -0.724863583287183,
      1.0659745305859394,
      -0.5042658103168947,
      -0.7277326836386022,
      0.1439322379947292
    ],
    [
      0.7493113124394091,
      0.08005449117445296,
      0.954464268620304,
      0.8444365256152326,
      -0.1552950198425025,
      0.09456349544001386,
      -0.5935177506108087,
      0.245878464692189
    ],
    [
      0.3648763530656014,
      0.8995329130927745,
      0.45810961134491324,
      0.8767732746318679,
      -0.08273507167780991,
      -0.5547857256415438,
      0.03825159298644265,
      -0.7727632132515585
    ],
    [
      -0.9182323741759588,
      -0.11420788801868831,
      0.47323391396185865,
      0.0063773118301728715,
      0.7166385135673625,
      0.5270198808265416,
      0.945925207676555,
      -1.02385538168164
    ],
    [
      -0.1883760386885851,
      0.8854188107647296,
      0.20635714334673572,
      0.27017567887608407,
      -0.26603804485426785,
      -0.2040704054148863,
      -0.5310137233870993,
      0.2720124676992888
    ],
    [
      0.43673519155818363,
      0.03852023356575085,
      -0.8401298155133277,
      0.19026249204157875,
      -0.5403077655864581,
      -0.12479764814552041,
      0.7463455703852722,
      0.4799062770159792
    ],
    [
      0.3595070308996653,
      0.06072669460789948,
      0.19461293615365172,
      0.2696785308950638,
      0.47421181841907556,
      0.15269149629330547,
      -0.5309858143404607,
      0.5500889810893188
    ],
    [
      -0.5650344493557242,
      -0.526512008531262,
      1.0603940196497201,
      -0.7784035389080977,
      0.49636946986991015,
      0.6315344451068383,
      -0.5272149258704357,
      -0.6076252773235944
    ],
    [
      -0.6719648472484891,
      -0.2800349519692622,
      0.01772703453269031,
      0.036636969676447695,
      0.23891313754720844,
      -0.530790531850656,
      -0.09609322141892562,
      0.5254169823484061
    ],
    [
      0.6636594273203431,
      -0.010624855076760031,
      -0.6976057500995871,
      -0.41323781887625577,
      0.05126975034329684,
      -0.15430255348082333,
      -0.08090978293906703,
      -0.2286061921800755
    ],
    [
      -0.5927893789238667,
      0.3228909968971241,
      -0.4494350299223626,
      -0.38258251532018717,
      0.7069093395012078,
      0.5615430994284392,
      -0.6960281732344893,
      0.0827911151816576
    ],
    [
      -0.049964362494051784,
      0.36694990904002833,
      -0.4397179864008318,
      -0.2681745968225182,
      0.4411675438977878,
      0.5263898733122323,
      -0.25879025319042137,
      0.3738244654182399
    ]
  ],
  "hiddenBias": [
    -0.10992779401944319,
    0.7973029219406242,
    0.7708503148198134,
    0.4422362482425086,
    0.23947920529246813,
    -0.2501054746783149,
    -0.3815616547406433,
    -0.0715489033499952,
    -0.36823602660217314,
    0.3846706964183211,
    -0.4177322579533784,
    0.19113170624773046,
    0.4199878944896338
  ],
  "outputWeights": [
    [
      -0.29139268353577163,
      -0.4426732152866468,
      0.21936571779220104,
      0.5790139002426289,
      0.37157520107533837,
      -0.8756636980686947,
      -0.43075666319893036,
      0.49378864383860055,
      0.3542766698300568,
      -0.5743300266461884,
      -0.7841998132059937,
      0.127765576537906,
      -0.6698602125705837
    ],
    [
      0.4826641156076774,
      -0.8284503198777653,
      0.783722233390812,
      0.141175362944149,
      -0.7620560152290135,
      0.6705413700071938,
      0.10130316702763809,
      -0.5422104860364203,
      -1.1791113178399601,
      0.42169730601860067,
      -0.483842588336479,
      -0.05595668567087819,
      -0.0999518957408787
    ],
    [
      0.0035004351175669246,
      0.9215314590933377,
      0.4813355804013333,
      -0.7327038597188873,
      -0.052485549798416464,
      -0.5796355769703254,
      0.5257461220891178,
      -0.7660637452738652,
      0.05198537529418923,
      -0.1358084773693662,
      0.5481353235213553,
      -0.7166596530561726,
      0.3581076410891182
    ],
    [
      -0.6477062273899306,
      -0.6636724135337946,
      -0.6966733435376755,
      -0.07442329679218762,
      0.9985830442965011,
      -0.39069586588736716,
      -0.6720051112274388,
      -0.7545800062476049,
      -0.30635998162175593,
      -0.20438882479203846,
      -0.3157536278623869,
      -0.08261908851107824,
      -0.7378799630201962
    ],
    [
      -0.24807574312331337,
      1.1764006408593521,
      -0.7391284284150288,
      -0.41000635504558236,
      -1.1308624373388625,
      -0.1882083331145088,
      0.3877551436638984,
      -0.5980034123720772,
      -1.017735435653473,
      -0.3387209319744784,
      0.4048219875523049,
      1.0663335134695504,
      0.6464783075682763
    ],
    [
      -0.9500911539780625,
      -0.33284368362985894,
      0.6105641705529816,
      0.3818816590049696,
      -0.061422503938491246,
      -0.30987405912095345,
      0.5454845391492142,
      0.30950100228017385,
      0.968358739706698,
      0.15287275612327056,
      -0.8915444859173562,
      0.1905243453361205,
      -0.33896142140145535
    ],
    [
      0.6929636190638715,
      0.18173577955431197,
      -0.9637977375442786,
      -0.9452995551653336,
      0.9611396578696398,
      -0.03331217109200191,
      -0.8405933649933308,
      0.7029541982318639,
      -0.640987534500701,
      -0.8612590051521654,
      0.5312161539846461,
      -0.09944536522495362,
      0.28288063203471747
    ]
  ],
  "outputBias": [
    -0.42347970376693356,
    0.05291925213264226,
    -0.28606053501270723,
    -0.38207438958672646,
    -0.2080043248967116,
    -1.170401338918768,
    0.005837776373906145
  ]
}