{
  "hiddenWeights": [
    [
      -0.5495832802009746,
      -0.3254763660584328,
      -0.23503119456704002,
      0.4923362115760357,
      -0.8255877418117716
    ],
    [
      0.2237757075001232,
      0.6327131022708099,
      -0.584402143622146,
      -0.7111476762775886,
      -0.41617079611615404
    ],
    [
      0.5455361933859235,
      -0.9995840303137573,
      0.5212087319367218,
      -0.13246747228409772,
      0.7143007745369307
    ]
  ],
  "hiddenBias": [
    -0.6055664557693259,
    0.07452128210028719,
    -0.5421109122107348
  ],
  "outputWeights": [
    [
      0.8784631960490845,
      0.4449059350611275,
      0.6324766895671434
    ],
    [
      -0.8247499467550101,
      0.13542222899410716,
      0.9144446738451937
    ],
    [
      0.706518586462711,
      0.15649315147405574,
      0.3590656165712576
    ],
    [
      0.24872769057087307,
      -0.5464406922763756,
      0.41607162465887804
    ],
    [
      0.8796149421615516,
      -0.8314963171542553,
      1.081481991893263
    ],
    [
      0.9320622159201075,
      0.3638932908376771,
      0.03518895467849559
    ],
    [
      -0.8926303124555952,
      -0.8948100820366749,
      -0.37741605986863336
    ]
  ],
  "outputBias": [
    0.1155839858465948,
    -0.04427851541588135,
    -0.7147356319923734,
    -0.07363077638444504,
    -0.17823622571759956,
    0.08173461439840302,
    0.3494283048558984
  ]
}