{
  "weights1": [
    [
      -0.20542603022695127,
      -0.956178709241629,
      0.401647287677116,
      -0.553487811946454,
      -0.8208842137114721,
      0.49354805864221696,
      0.24671629825405184,
      -0.6660287972544393,
      -0.24843398610169565,
      -0.6159242499357198,
      0.3696805542811248,
      0.5674479750784206,
      0.14694971618848385,
      -0.89928782129802,
      -0.3001955079657259,
      0.7882704623826076,
      -0.5654243067179601,
      -0.1211565206870513,
      -0.3912699127426764,
      0.6520702679416726
    ],
    [
      0.6102845824815648,
      -0.5570492879872415,
      0.5135475856678209,
      -0.16397630981985678,
      -0.10395292189513494,
      -0.3949049087647313,
      0.24843276774770384,
      -0.41097433401535843,
      -0.4580162596311217,
      0.7402340176312385,
      -0.1564929903135901,
      -0.8902030829800522,
      0.9727038371892403,
      -0.11464337886339593,
      0.23261319004192693,
      -0.5409233799359736,
      -0.4039692980909879,
      -0.193231327642148,
      -0.7324662853583755,
      -0.11469051720107482
    ],
    [
      0.27918772187601637,
      -0.26789097278005825,
      0.9617419660988435,
      -0.12404017367995257,
      0.47966056166089555,
      0.2841325785444395,
      0.7210415994458742,
      0.07036207972006814,
      0.8956438649173997,
      -0.17943213630665333,
      0.17999149546654847,
      0.5606793063150799,
      -0.934596712661854,
      0.6079416646084339,
      0.10460333986189241,
      0.3694480842892456,
      0.15527479517068432,
      -0.14781053099615382,
      0.44231068398783213,
      -0.4661583038886923
    ],
    [
      -0.686675744025898,
      0.8570219380811315,
      0.9621157891798773,
      -0.48022715367697844,
      0.7137702433318593,
      -0.9104343478771915,
      0.176095353910378,
      0.14669450308409315,
      -0.5184777319933993,
      -0.4893705003746527,
      0.25234183942734156,
      0.17637095530618463,
      0.2530671402901441,
      -0.5728960984697629,
      -0.7590131775311248,
      0.24087756953886208,
      0.9018112303582586,
      -0.4513804116786241,
      0.6015544155757979,
      0.07168017062995036
    ],
    [
      -0.27857682712479415,
      -0.643983609120089,
      -0.07239150303324315,
      0.6434127756833936,
      0.15584593796862656,
      -0.7646257084210442,
      0.8086853856659446,
      -0.3213587839152575,
      0.8537677038348677,
      0.4621021618761507,
      -0.8693011769271257,
      -0.31863045741804763,
      0.461992964428555,
      -0.6948050276382735,
      0.3128748429490473,
      0.12970200072681437,
      0.9797999764393177,
      -0.08743745376761014,
      0.8969498732911387,
      -0.8288641940230068
    ],
    [
      -0.637636417633817,
      -0.0962146478052952,
      0.5670369338552543,
      0.6044344525769388,
      -0.9036967252438188,
      0.44910947296528536,
      -0.9985037170697062,
      -0.9776947916494332,
      -0.9805016512216382,
      0.10292378613914,
      0.7245127312306923,
      0.7058001786737212,
      -0.03130341419834437,
      0.35352432898867514,
      0.7588992560279948,
      0.6301654420020466,
      -0.10554138821427062,
      0.3911104261771876,
      0.0886147722109758,
      0.6372947476723105
    ],
    [
      -0.02575942272002374,
      -0.8734234002666539,
      -0.9446805905726929,
      -0.4122385120833414,
      0.8553513598869977,
      -0.5648671221356416,
      0.5280507756500873,
      -0.3013899912505975,
      0.9896755293621338,
      -0.7761645955932122,
      0.8441047798869827,
      -0.5217817299008716,
      0.6808637315660635,
      -0.12183101915788042,
      -0.04323007537437107,
      -0.33846297977465944,
      -0.8360926563594204,
      0.5655541646202364,
      0.5748136195744507,
      0.34252063881541517
    ],
    [
      -0.33439862057611913,
      -0.3666918838766402,
      -0.5225412053688459,
      0.9636695256710179,
      0.8951716595682031,
      -0.4887012402515949,
      -0.3246729619876758,
      0.04675528336540247,
      -0.5427719531482312,
      -0.6818509165544939,
      -0.6741338178936949,
      0.8506691979102903,
      -0.3741341630976027,
      -0.5831067538874692,
      -0.4270252869342812,
      0.2971419116044658,
      -0.4676743196465343,
      0.5214457969036537,
      -0.8437181537854701,
      0.9559594322401325
    ],
    [
      -0.9287967622844128,
      -0.21526630649680856,
      -0.5680674907736436,
      0.8838538249019763,
      0.08580501057537493,
      -0.5167924705885327,
      0.11970120326650902,
      -0.8414541188959808,
      -0.9057270288612254,
      0.3397242350303502,
      -0.3489695153850949,
      0.8609967427169838,
      -0.17810401795621567,
      0.027539677758732783,
      -0.28474625245608876,
      -0.13938213653031006,
      0.5775109783838599,
      -0.8502031071711769,
      0.7719667479715508,
      -0.10311972798165225
    ],
    [
      -0.8532801840746003,
      -0.7447265569598965,
      0.23332824651337614,
      0.4849913618872933,
      -0.4809993737338336,
      -0.2296628007926046,
      0.7047814400541442,
      -0.46521930163296066,
      -0.6348215267910615,
      -0.4226655632529699,
      -0.03783747885556776,
      0.2849380825315818,
      -0.9669735176362377,
      -0.30574737083863945,
      0.957058919146985,
      -0.3157849383756236,
      -0.4038093331388626,
      -0.07773094981809925,
      0.753810167711404,
      -0.43316288351003873
    ],
    [
      0.778046248286915,
      0.3245175013362167,
      0.8403622348102631,
      -0.26027903400296337,
      -0.36980275218789727,
      0.6834556858072576,
      0.8062291179013306,
      0.7124488052280458,
      0.333368023134363,
      0.42185374296869416,
      -0.1999355757487522,
      0.39395675247411654,
      -0.9963093209183347,
      0.6495628129123713,
      0.23029197526173173,
      -0.05382154094280067,
      0.04814018168823786,
      0.9595617385175633,
      0.37173338204206263,
      0.06738896037653186
    ],
    [
      0.327399395884608,
      0.5592422674695702,
      0.36786500403122924,
      -0.5254351522426526,
      -0.174539810045232,
      -0.9186784331734028,
      0.006147596087706209,
      0.9226616590469368,
      0.625698896797513,
      0.388544177608654,
      0.35826221628717736,
      0.3405586584895546,
      0.8812214170082835,
      -0.6136334981355934,
      0.4025450846448071,
      -0.5534861716391299,
      -0.1506282248601275,
      0.24902315038689027,
      -0.49117977573416294,
      -0.9247098347494189
    ],
    [
      0.6436862003991695,
      0.5044040140607217,
      0.978570201099815,
      0.2439326401559181,
      0.03538963850386212,
      -0.524380583598899,
      0.516849615521751,
      -0.01705033578775872,
      0.13686201877675952,
      -0.07593741085077443,
      -0.8942499088327573,
      0.21159049948549535,
      -0.8825023180127578,
      -0.7242670829292508,
      -0.2160345744260348,
      0.427190052104486,
      -0.26796637543161195,
      0.8427143104019503,
      0.7894817175135911,
      -0.6445891524865361
    ]
  ],
  "bias1": [
    [
      0.6810631233000466,
      -0.11239343933587342,
      1.0625732389682048,
      0.6614788341173541,
      -0.22860139351685582,
      -0.6354099281711854,
      -0.4840316641031328,
      0.35149544511058517,
      -0.004749566700975483,
      0.14699625240100345,
      0.8244049820135602,
      0.8739327422364935,
      -0.6188237158876797,
      0.5712967125847817,
      -0.5111005832509501,
      0.7959976455250257,
      -0.9996080503784919,
      0.9802365818747618,
      0.3050359771298554,
      -0.31180911299549097
    ]
  ],
  "weights2": [
    [
      0.49545523213459186,
      0.8441324438494902,
      0.6880709137206469
    ],
    [
      0.07275241363760543,
      -0.49969862277590993,
      -0.7407179126421206
    ],
    [
      -0.07237429870894063,
      0.6053428026370486,
      -0.3862274472088639
    ],
    [
      0.04566836724171297,
      -0.3672009363179466,
      -0.4852937577465082
    ],
    [
      0.5267290345027956,
      0.7296331536763423,
      -0.39389029390949615
    ],
    [
      -0.6848111760078806,
      0.5692407312518588,
      -0.990544824215795
    ],
    [
      -0.04273903485504649,
      0.24602495123493917,
      0.36764051509799844
    ],
    [
      0.4907483394016978,
      0.7085459198421917,
      -0.9452353982350945
    ],
    [
      0.8668283497424574,
      -0.232428868347883,
      -0.9080298783221274
    ],
    [
      0.2149822586173542,
      -0.1897452156429008,
      0.48864252267747577
    ],
    [
      0.0799154159314498,
      0.48805964221229525,
      0.8737535221851807
    ],
    [
      -0.7380933371735835,
      -0.10249837797531791,
      0.06894782966655688
    ],
    [
      0.06967602836756148,
      -0.6331961981423879,
      0.28563168296780095
    ],
    [
      0.008399983618432305,
      0.1008114009005916,
      -0.6396214628301795
    ],
    [
      -0.6904489548387285,
      -0.219178414544267,
      1.0125445649219975
    ],
    [
      -0.8517125467491571,
      -0.34122784276664575,
      0.5003785937134679
    ],
    [
      0.00038208011265483677,
      0.06336169031392247,
      -0.9395244172781001
    ],
    [
      0.15682342247999426,
      -0.14430397329512323,
      -0.10629092051017075
    ],
    [
      -0.09973538849447294,
      -0.7575738147388158,
      0.6647876341043703
    ],
    [
      -0.8410642924635456,
      -0.3629782371525958,
      0.048914176831801215
    ]
  ],
  "bias2": [
    [
      -0.8592206966389639,
      -0.3522784370567589,
      0.8166926269908178
    ]
  ]
}