{
  "weights1": [
    [
      0.984804286004378,
      -0.6532968911704236,
      -0.3177748147412385,
      -0.2977707975683992,
      0.5454626039876231,
      -0.38339263042908855,
      0.1209114775587734,
      0.061580768733370594,
      -0.5957935272041469,
      0.6228910524457015,
      -0.9848179951279228,
      -0.9873920684230542,
      0.5920140349912342,
      -0.7446291552723792,
      0.023817874858240717,
      0.49182856445848777,
      -0.8357212696776132,
      -0.465959277898614,
      0.4277464766089216,
      0.47465237634142543
    ],
    [
      0.6163241312705963,
      0.04606314478359441,
      0.47390442299575086,
      0.9576838111749365,
      -0.8116542409822562,
      0.773696136225094,
      -0.28749231152433996,
      -0.3954365264444075,
      0.3853189130522684,
      -0.08062733959964674,
      0.7286033507303928,
      -0.8481210997701436,
      -0.3574298358953274,
      0.7025619974695614,
      -0.573726325236342,
      -0.6626067927767356,
      0.9386057671797172,
      -0.04096107805516391,
      0.1435158098719862,
      0.7788038194952609
    ],
    [
      -0.708448500198882,
      -0.41053450849981166,
      -0.6350120737978844,
      -0.23660417043319404,
      -0.6291610296226278,
      1.061051286103618,
      0.5236632887568262,
      0.1735555655070229,
      -0.2784984377620531,
      -0.38067780694761,
      -0.4337879834022975,
      1.079646779240477,
      0.32478182282034995,
      -0.11302946914076228,
      0.566931847040367,
      0.40679195341302954,
      0.21879126376528057,
      0.9420210109350499,
      -0.397296088039219,
      -1.0155928933907652
    ],
    [
      -0.24309535204062183,
      -0.4298508562191302,
      0.9000946250503694,
      -0.15935387185992644,
      0.48622175585461624,
      -0.494388005184736,
      -0.6655782301219076,
      -0.30934483166386795,
      0.14385261012077277,
      0.047177672305023566,
      -0.6914366864625374,
      -0.21333886683831438,
      -0.28892281284342336,
      -0.3508340385073847,
      0.45189783370281134,
      0.016567243149867128,
      0.5159761087518359,
      0.2123858332023607,
      0.4574436102366253,
      -0.8153506796644324
    ],
    [
      -0.3188788180502069,
      -0.34222454325710805,
      0.45272655286838304,
      -0.6336205250301945,
      -0.07083158996173289,
      -0.4591026034051371,
      -0.3679355939610558,
      0.22108858748825755,
      -0.18029264221374974,
      -0.24982722322002804,
      0.7087447356228912,
      -0.7438813220742289,
      -0.508689993028135,
      0.8028730550853567,
      -0.14040387280967925,
      0.14056300651599685,
      -0.0842261837534578,
      -0.9546772257511863,
      -0.4582382610360587,
      -0.9909092765188511
    ],
    [
      0.7627976985262951,
      0.2177783879995897,
      -0.5295163882264742,
      -0.6287189131398434,
      -0.6753768507055541,
      0.6545548572669491,
      -0.0950445774828712,
      -0.849420268278331,
      0.7166157460001568,
      -0.6001719363151251,
      0.5265735237880603,
      -0.8984638887562436,
      0.3915764793040222,
      -0.6258056215661731,
      -0.4306998279439508,
      0.5852278227528644,
      0.7371371653107013,
      -0.8274831694655669,
      0.4022304503689862,
      0.9255228707366268
    ],
    [
      -0.9352902534958165,
      0.22624401534190441,
      -0.625353906615492,
      -0.6904452012128348,
      0.9064749637330611,
      -0.09649219041872215,
      0.4597319989397426,
      0.5864247105260009,
      -0.7455293761960129,
      -0.8023054277763845,
      0.6204534979532637,
      -0.019493818087969128,
      0.5927212323703841,
      -0.8332267230383157,
      -0.5225004776429366,
      0.6696800594193749,
      -0.35262567092484487,
      0.6635526141970649,
      -0.19625619782435422,
      0.421587007071621
    ],
    [
      1.0252336436941851,
      0.48722943991543,
      0.05617597325269863,
      -0.21148365629834398,
      0.9078908151283667,
      -0.6351358435771461,
      0.882951779985939,
      -0.5134996772780656,
      -0.19372039860272583,
      -0.2491499546861058,
      0.09994381287820475,
      0.011429725622667752,
      -0.2864197110868263,
      -0.459054604979376,
      0.07029833512452655,
      0.698399223290252,
      0.12838835638805035,
      -0.38990417386221676,
      -0.18290431841877153,
      0.04886096125278394
    ],
    [
      0.8087501612711128,
      0.3751666115184391,
      -0.4425121620118946,
      0.19484656258135535,
      -0.15898709961075053,
      0.26992455506625423,
      -0.6785514083578637,
      -0.5491700638564098,
      -1.0798322371266065,
      -0.9023567893847293,
      -0.4976834644949357,
      0.617112043960409,
      -0.19022895912018978,
      -0.7123477695080601,
      0.5225722524211922,
      -0.4799455409985266,
      0.9083593862623355,
      -0.16270640853613627,
      0.22303942216079253,
      -0.05070859497561386
    ],
    [
      0.1516646530285667,
      0.0685745325950049,
      0.4634575580913678,
      -0.6245653561101392,
      -0.22026540678164608,
      -0.800541082565189,
      -0.3965316227316853,
      0.384816401986649,
      -0.9195135795644336,
      0.06592829490693475,
      -1.084039069539378,
      -0.7212332889211202,
      -0.6070797180698357,
      -0.7010752636462598,
      -0.1996346838048919,
      0.7936555497866173,
      0.069581280508209,
      0.9057022617805752,
      -0.5689490037406538,
      -0.6386049063480521
    ],
    [
      0.08917434551831926,
      -0.5998474424038873,
      0.5917455482074602,
      -0.5364404164681433,
      0.8774056618274728,
      -0.6068830996348044,
      0.28185313777018695,
      0.47391348334547434,
      0.31334078787036246,
      -0.5012870125858594,
      -0.21317457866870992,
      0.2212433090403293,
      -0.6337843583527056,
      0.6721051370075724,
      0.3268628458787223,
      -0.37986988467015426,
      -0.8991328696252963,
      -0.48559031124782526,
      0.5995735330651466,
      -1.212337463942762
    ],
    [
      -0.004115176353490124,
      -0.7771590232910244,
      -0.0623891174575415,
      -0.4159435929122741,
      -0.08552258429809934,
      -0.9768593284392227,
      -0.12269613988717876,
      0.6668408638156859,
      -0.24425345841557422,
      -0.7931931636061162,
      -0.02329816778809335,
      0.4736662594085642,
      1.092203630264204,
      -0.7867643257090329,
      0.04355654488203875,
      0.24592296260162771,
      -0.827035654698447,
      0.4706092697196066,
      -0.43532143896988407,
      -0.6080429322619183
    ],
    [
      1.0811427048947455,
      -0.6144004364294285,
      -0.6145273563577572,
      0.6411903349485535,
      0.7592003099056265,
      -0.005824842144966036,
      -0.11594130832554894,
      -0.018384652961159764,
      -0.8591143868181415,
      0.5349637587374696,
      -0.7501550227908078,
      -0.1040130470191194,
      -0.5820950339224433,
      -0.4470458366986416,
      0.4517795005705656,
      -0.9365864672102817,
      0.46763178322905974,
      -0.732755745353782,
      -0.1965115593574409,
      -0.5674787072345963
    ]
  ],
  "bias1": [
    [
      -0.7946119173645356,
      0.12076563446312094,
      -0.6311903732321911,
      0.02252663201827687,
      -0.9629546967467832,
      0.31381616827154313,
      0.6305864494655635,
      0.36626821053509273,
      0.13491003687672554,
      0.2219038316731563,
      0.49446185740720194,
      0.6997569805911096,
      -0.34667532158097136,
      0.4344649264436643,
      0.45282529979312236,
      -0.34587131528758475,
      -0.8588493853267962,
      -0.4014315404108699,
      0.8961822121293972,
      -0.30290557547680474
    ]
  ],
  "weights2": [
    [
      0.9719143406405579,
      0.2627377949722892,
      -0.4744618210691066
    ],
    [
      -0.9038225666323992,
      0.0720588276989047,
      0.6798915770756848
    ],
    [
      -0.47146245336181414,
      -0.930479465207909,
      1.1412677767799235
    ],
    [
      -0.6326842263500391,
      0.08130316068849286,
      0.3945768828788223
    ],
    [
      -0.5613497004544308,
      1.209153070221703,
      -0.5106182141765054
    ],
    [
      -1.1419691019341909,
      -0.3963307247601562,
      -0.33454987479089127
    ],
    [
      -0.7773081508945546,
      -0.6808261229894161,
      -0.6614224364598971
    ],
    [
      0.7650656424288078,
      0.585153341631707,
      -0.19277581581428682
    ],
    [
      0.037662457390202686,
      0.8841769550748158,
      0.23786066058038635
    ],
    [
      -0.42637845296536714,
      0.4959262389627499,
      0.34878830147982287
    ],
    [
      -0.5978863097365466,
      -0.23637565671248062,
      0.3422698025509656
    ],
    [
      0.2551900207856911,
      -0.9682068725026554,
      -0.6070469377379027
    ],
    [
      0.7137744378072477,
      1.1768062950129754,
      0.9982466325318966
    ],
    [
      -0.36258260644444107,
      -0.47110964554818313,
      0.9287079574935415
    ],
    [
      0.05498507575609324,
      -0.2754120821864836,
      -0.23331553341872535
    ],
    [
      -0.29042265283925706,
      0.04075998001698489,
      0.973458560135148
    ],
    [
      0.790637400577721,
      -0.2785843769434334,
      -0.7263107128905254
    ],
    [
      0.013753649021489345,
      -0.17893364533321143,
      -1.0150148508378314
    ],
    [
      -0.9719740176933573,
      0.8934611797172557,
      -0.41360702312404674
    ],
    [
      0.017070364417241968,
      0.591825090208694,
      -0.49246962948128226
    ]
  ],
  "bias2": [
    [
      -0.1969455421792622,
      -0.7173208115801142,
      0.8845900725296287
    ]
  ]
}