{
  "hiddenWeights": [
    [
      0.9985845572415997,
      -0.867605325318543,
      0.4753883667076524,
      -0.7510736696738296,
      -0.14451174575643444,
      0.5812463091935558,
      -0.22811537499486256,
      0.5464142387351161,
      -0.5503071260677395,
      0.159190751726058,
      -0.1459146135124354,
      -0.7636318435406211,
      -0.9783657921099529,
      -0.2550317609030812,
      -0.9087726267078144
    ],
    [
      0.33685755721045973,
      0.355519068611176,
      -0.38535802792799156,
      -0.05257377549420683,
      0.9295236478335451,
      -0.3323810447066524,
      0.8007910894745494,
      0.370504405903187,
      -0.03919000635840986,
      0.16042214736714344,
      -0.14801585348773516,
      0.23262915412421936,
      0.4429333884960598,
      -0.6830873360002725,
      0.3914354166202658
    ],
    [
      -0.7003906398758448,
      -0.05427576852479232,
      0.33355759633845095,
      0.18943197606258355,
      0.11736052998820945,
      0.5565845519478207,
      -0.9706222303466294,
      0.8721137450684338,
      0.224857673673315,
      0.6957136787398559,
      0.28613540660149717,
      -0.4258589252695799,
      0.3012970195193496,
      0.9653694820476493,
      0.16050667459253365
    ],
    [
      0.847710970424445,
      0.17206333395971907,
      0.004071945334321203,
      0.5153929809863609,
      0.2940151438792937,
      -0.360678861327528,
      -0.09940254018257377,
      -0.9739172144136541,
      0.8462401891657758,
      -0.1420835230111699,
      0.3334482118353135,
      -0.6051116083197718,
      0.5165794736052343,
      0.4960995456958375,
      -0.9684878647390431
    ],
    [
      0.6133004324814699,
      -0.812016291050742,
      -0.26686917678976707,
      -0.6524249523441967,
      0.32071546828120256,
      0.5746847501107131,
      0.7046899150046535,
      -0.9318744884645054,
      0.6369447736508391,
      0.38274631813155624,
      0.4365675063890806,
      -0.9942393231890092,
      0.9519704119584924,
      0.13220105464786203,
      -0.9301668687198488
    ],
    [
      0.364455274064432,
      -0.795473161635317,
      -0.2024035876513759,
      -0.8271693194796792,
      0.31575604564015336,
      -0.12066106592982484,
      0.6988692298199943,
      0.32618308088665504,
      -0.4224497737823185,
      -0.8604097497188326,
      0.4929775960443159,
      0.9834869682282168,
      0.26433632074215874,
      0.504448559741951,
      -0.22836374910260693
    ],
    [
      0.1017361127919445,
      -0.08963093601135119,
      -0.27323564465892547,
      0.23816364257194422,
      -0.32186708811845843,
      0.30161081083634844,
      -0.12316238841437244,
      0.20029051510363205,
      -0.7143438336816401,
      0.08254533227582739,
      -0.553840019641314,
      0.934938017421814,
      0.1500926888605032,
      0.8634730671630462,
      -0.4403142388200192
    ],
    [
      0.05699495825060863,
      0.7380698011880646,
      -0.9633831105984649,
      -0.11671503274611839,
      -0.6878399082188267,
      0.28781698846665016,
      -0.11389018379951077,
      -0.8449433386425187,
      -0.36257596021546146,
      0.556576376265153,
      0.039907712201968426,
      -0.13659735336278445,
      0.2251859822239517,
      0.8394775624816408,
      -0.7109169190281994
    ],
    [
      -0.25528298211371947,
      0.26602502946993,
      -0.521152317446087,
      0.036239649999368684,
      -0.2654028162997597,
      0.527996325115176,
      0.2529817204481257,
      -0.1535224768539436,
      0.10546868236832241,
      0.27428645540038543,
      0.8152615486115513,
      0.9127787943740326,
      0.6461221708295435,
      0.6827921727832234,
      -0.8792996307510537
    ],
    [
      -0.48648200028312116,
      -0.28577444922688544,
      -0.27142637263521996,
      -0.5732690834364895,
      -0.8923634531901463,
      -0.11913554780719604,
      -0.9117187351955613,
      -0.31679196935317755,
      0.5944572837636826,
      -0.7546936236246902,
      0.9472818767608224,
      -0.18539558501564946,
      -0.1682779831393173,
      0.0732799873806722,
      0.8776121318843679
    ],
    [
      -0.5684792268710477,
      -0.6859920179976933,
      0.5981943193940737,
      -0.06612811688081566,
      0.6621767132122298,
      0.1150234173489677,
      -0.47633550177670747,
      0.08830530098780054,
      -0.6508112205457701,
      -0.5756689145363003,
      0.640604923585073,
      -0.6650238509205226,
      0.1776979990594798,
      -0.2838402018317012,
      -0.8940165634070065
    ],
    [
      -0.13597912281754354,
      0.9367507891134217,
      -0.6778510359465781,
      0.37773738662696044,
      0.8625947153644202,
      0.6780997598394265,
      0.874398670443699,
      -0.04019444809355033,
      -0.8971034063820498,
      0.2802841254205912,
      0.5396314671711053,
      0.4171208921724423,
      -0.733060760082541,
      -0.06811049577920292,
      0.058124022629363115
    ],
    [
      0.6598525385444427,
      0.711644060973772,
      -0.23932852015238382,
      0.31243207837932774,
      0.6532368857781377,
      -0.5731267307294194,
      -0.46196850959390945,
      0.4343494827808936,
      0.40304666833807445,
      -0.22645940720153268,
      -0.1746359530897137,
      0.8382951933149796,
      0.5601766464163807,
      -0.5627275815824366,
      -0.23291931823542233
    ],
    [
      -0.7381514419564068,
      -0.4467217871206217,
      -0.6585733174342785,
      -0.21638630965278738,
      0.9843456018771239,
      0.6959608203289784,
      -0.3673437944934608,
      0.4846628232879322,
      -0.944059154153706,
      0.9144466632741013,
      0.941021928878718,
      0.5834872199349874,
      -0.9343537737300283,
      -0.946369942199154,
      -0.6497177757108421
    ],
    [
      -0.5354101494997554,
      -0.6381198820172389,
      0.07770767513969101,
      0.6470390459952897,
      0.04071256340199314,
      -0.09596106007082339,
      0.9338498125198762,
      0.6556135041921429,
      -0.8668345907617159,
      -0.5900869457079474,
      0.8321945219899569,
      -0.05801089999237563,
      -0.4013996435936851,
      -0.509627570596721,
      -0.3747961201115859
    ],
    [
      0.028796178687243934,
      0.5555741979783058,
      -0.3725840849890334,
      0.29036455086597135,
      0.703714176512968,
      0.9128998628593266,
      -0.059255757714926194,
      -0.682889308645902,
      0.958030620931094,
      0.41306076097293865,
      -0.6310252237412288,
      -0.0004475376749124571,
      0.20717186695934053,
      -0.4336684522852239,
      -0.14065152497507194
    ],
    [
      -0.6832187054134682,
      0.7562827223394861,
      0.13392575960295927,
      0.7162481940162091,
      -0.7016242921983138,
      0.9259049995865971,
      0.7967317600778863,
      0.07336463975404373,
      0.3277809074343554,
      -0.08897368232953173,
      -0.6490919724934598,
      -0.3512692344384134,
      -0.7370530680816407,
      0.6963671851083948,
      0.6450803672021803
    ],
    [
      0.8168821066970389,
      -0.9415601601581041,
      0.12197600491774896,
      0.9002493581393574,
      -0.6936697107071725,
      -0.40347824215059136,
      0.898607157559085,
      0.6627379465339125,
      0.6468047994257491,
      -0.1420275161037976,
      0.2364754987538462,
      -0.6592193022076347,
      0.4897389518663573,
      0.002210160227395175,
      0.3592769085498486
    ],
    [
      -0.467957159805207,
      0.2902920961389204,
      -0.9320006579875559,
      0.6642521550897049,
      0.39881001295860674,
      -0.6787051417268004,
      0.12941814468853297,
      -0.2483251453148263,
      0.8824305537460178,
      -0.7754315021611982,
      -0.3007994394765161,
      0.28927919340988595,
      -0.24061617507144462,
      -0.7390938053673439,
      0.7744285198513632
    ],
    [
      -0.9165020501631034,
      -0.233834375155467,
      -0.646180564623247,
      0.5911361025145707,
      0.08877192227825637,
      -0.023845139875477095,
      0.21497188151280522,
      0.6088366905195444,
      -0.2744188208976426,
      0.9808770238766451,
      -0.9592319387991912,
      -0.8065767581832683,
      -0.4174491545236827,
      0.6997176518321062,
      -0.5160976211133557
    ]
  ],
  "hiddenBias": [
    -0.2079342982533976,
    0.1174620283519825,
    0.08317783550298152,
    -0.45661592471534473,
    0.17423775177038991,
    0.19188142876117542,
    0.4726850858497855,
    -0.15242122817278458,
    0.2715852728538535,
    0.20617248571129343,
    0.27457305371984453,
    -0.4719883847752824,
    -0.03268221450721609,
    -0.3263140483769478,
    0.07668146885002347,
    -0.30132358658760006,
    0.3642485720377291,
    0.13115350084286148,
    -0.10229550609817184,
    0.017234832145405887
  ],
  "outputWeights": [
    [
      0.5954069279079075,
      0.6044029446810804,
      -0.48762053158500596,
      -0.03150487761254128,
      -0.1559502273601523,
      0.9299227902439693,
      0.18044043713062452,
      0.9809512175303152,
      -0.42198630849071517,
      -0.7960210606390201,
      -0.08784624268087349,
      -0.8700553193021023,
      0.3845944007376141,
      -0.28842807323604447,
      0.35253316833793935,
      -0.3917544523082892,
      0.06537423339405768,
      -0.14733012707085802,
      0.02138528952067853,
      -0.19563781337033426
    ],
    [
      -0.7266755637622508,
      -0.4860968535698107,
      -0.6047102644690105,
      -0.529161379574254,
      0.3846902250121804,
      0.416219763686982,
      0.9013004220577576,
      0.9849612042613933,
      -0.7904882211016093,
      -0.85497404046244,
      -0.6570195819669831,
      0.5472552771482935,
      -0.9601059174676059,
      -0.1229165314455436,
      0.06365442041197822,
      0.592325020292789,
      0.27516838982426695,
      -0.897551203187402,
      -0.7046126016260383,
      -0.08535900921317818
    ],
    [
      -0.9161543004196147,
      0.575810125205332,
      0.8456073246922555,
      0.7581622046550116,
      -0.4155294224901529,
      -0.7197397871809716,
      -0.784313095224491,
      0.8348342949755709,
      -0.852086570409226,
      -0.4785283258720052,
      0.01886935739868756,
      -0.9989214530544772,
      -0.44316106563510216,
      0.43434594663878956,
      0.8833985345466737,
      -0.9592272604796777,
      -0.8945903840165759,
      -0.36779323903408745,
      -0.23359578890245025,
      0.7684561765397864
    ],
    [
      -0.4633300854308646,
      -0.28507876635003004,
      0.07532920557237066,
      0.9601836584108652,
      -0.23024773746187677,
      -0.5683649305331038,
      0.9565273968900536,
      -0.0311578052794661,
      0.4093602169662267,
      0.25366768997136235,
      0.42899647630323745,
      0.6209442260820772,
      -0.5832466363996991,
      -0.8316967639484871,
      -0.8892457047478013,
      -0.9986574393253083,
      0.7645227758809297,
      -0.7664709127706031,
      -0.37782700023482585,
      -0.03157444885280869
    ],
    [
      -0.5767867541953393,
      -0.22641439842674194,
      0.3618011431547803,
      0.7847834017304001,
      0.7001367990252394,
      -0.1658972881918559,
      -0.3176884911650868,
      -0.5511512710731141,
      0.38146468900221997,
      -0.7817224093561719,
      -0.5146757166508262,
      -0.7858361615573624,
      -0.2585269253535345,
      -0.1338469578219299,
      -0.24095742300104916,
      0.17473068243907797,
      -0.8327696602121395,
      0.9616116212420365,
      0.9927749795712666,
      -0.434848475896751
    ],
    [
      -0.05455808503841464,
      -0.7387201635743628,
      -0.5924831811715121,
      -0.429568681531423,
      -0.10420583233924718,
      -0.16282217157186407,
      -0.0019985677234806154,
      0.3084341771206218,
      0.06284840480386222,
      -0.5643260248850424,
      -0.19537071027649544,
      -0.9000991899971251,
      -0.5045839945145656,
      -0.6849775054034812,
      0.8697259355404436,
      -0.7038898739009238,
      0.8973367739755682,
      0.1117041943988486,
      0.17840812565398023,
      0.13620437119027562
    ],
    [
      0.10732735136778837,
      0.9802238658456521,
      0.5729481518409894,
      0.6029548580268251,
      -0.9802310401717804,
      0.5002186444365888,
      0.6706216552645299,
      0.3841513739683027,
      -0.05049163989767269,
      -0.10686792337661011,
      0.5721527961107422,
      -0.6525310062864409,
      -0.15495668963008224,
      0.9910120354430694,
      0.4575446028157084,
      -0.9850770778668099,
      -0.10783343641760812,
      0.22769664134621603,
      -0.7904014682726195,
      -0.8963647981195373
    ]
  ],
  "outputBias": [
    0.120850746243236,
    -0.39277273008964,
    0.4541374974673156,
    0.4937967142766726,
    0.32558713548226836,
    0.38554523117610007,
    -0.22299725235822598
  ]
}