{
  "hiddenWeights": [
    [
      -0.2693487165505346,
      1.269714512219985,
      -0.12192320659968647,
      0.6470046694565856,
      -0.9116126337846944,
      1.257818788831064,
      0.5795267433719835,
      -0.018338510195229585
    ],
    [
      -1.22182954079877,
      -0.8468655356541634,
      0.1399526162063327,
      -0.9756436366726717,
      -0.19647551683637543,
      0.6682212058853181,
      0.9051450194711741,
      0.7496363754497835
    ],
    [
      0.87763574547018,
      0.7448947389350686,
      0.32627786473127207,
      -1.026293746238394,
      0.7389518653936265,
      0.2554941918791396,
      -0.6762985150059386,
      -0.28018868127578855
    ],
    [
      -0.286084641328769,
      -0.8011007177132399,
      -0.08414777561184628,
      0.6435093372398866,
      -0.2671606903369901,
      0.3680384793800615,
      0.34130113444763976,
      0.45004273461977706
    ],
    [
      0.035502464493125,
      -1.0562819691444256,
      0.3108961390293359,
      0.9889091391926099,
      0.3048501462280533,
      0.13573602681404107,
      0.16329790128361243,
      0.17083679263116203
    ],
    [
      0.7360188683986637,
      -1.0627643425475137,
      0.5598137427350647,
      -0.4658166146281939,
      -0.8637681371063612,
      -0.51466193932095,
      1.0442002305291602,
      0.7691330637136451
    ],
    [
      0.8736311873834304,
      1.0520609649421513,
      0.10741835147142642,
      -0.2028835822837991,
      0.7831301731265481,
      0.521667975566408,
      0.072380141346162,
      0.07251525619163446
    ],
    [
      0.3477036396374542,
      -1.0538474185256,
      -0.4162794577149369,
      -1.1602178003235535,
      0.6580197339068068,
      0.5344930663840395,
      0.6466981700435088,
      0.21616798871235732
    ],
    [
      -0.20454341682414978,
      0.7627814463463194,
      -0.29029240504771403,
      -0.6857594267557647,
      0.3439812017131465,
      -0.4737075608879402,
      0.2586765273691891,
      -0.5755690238696829
    ],
    [
      -0.071399988447864,
      -0.7318426895191243,
      0.7067992958127856,
      -0.8539724753326645,
      1.2477574775055595,
      1.0816061288957812,
      -0.5014757637180709,
      -0.29962976796206453
    ],
    [
      -1.2415167943570267,
      0.433808031991163,
      0.3769325256160747,
      -0.6576685115938092,
      0.20130408757404683,
      -0.36176880362036457,
      -0.20716955673564375,
      -0.3638889374550467
    ],
    [
      0.8028955811673577,
      -0.38177525776932186,
      0.5253358362455818,
      -0.11725741650065413,
      0.8605409184403203,
      1.1092691920653308,
      -0.570476407027303,
      1.2357883325863008
    ],
    [
      0.8939478236479128,
      -0.7876373449288745,
      -1.051278867284693,
      0.6931956397135668,
      -0.22261891600784445,
      0.23115096404885538,
      0.6461537714293635,
      0.6981184324271599
    ]
  ],
  "hiddenBias": [
    -0.7898129082648031,
    -0.18991929301506927,
    -0.37212391750260854,
    1.0458269666695168,
    0.2516710557722648,
    0.5339168670879724,
    0.03753526128835771,
    0.1105454908534651,
    -0.2916939490860413,
    -0.6448980073946502,
    -0.32410323363450977,
    -0.6751521656465969,
    0.24124944799365933
  ],
  "outputWeights": [
    [
      0.6387518561118695,
      0.7702452080240483,
      0.11209076368366899,
      0.45320975148781106,
      0.9998769308201885,
      -0.7753721862553702,
      0.553402657078502,
      -0.5526681673371687,
      -0.0978695105090377,
      -0.4683110160116928,
      0.5142273929289907,
      -0.29775183352603296,
      -0.07856498907346565
    ],
    [
      -0.6778049972848161,
      1.240247538537158,
      -0.02760393656311866,
      0.8091469934035169,
      0.42241407656644125,
      0.07366256053989773,
      0.14854765999469266,
      -0.5189470445986633,
      0.5116702284555843,
      0.2101709871647266,
      -0.6444680282349666,
      0.18162305179388216,
      0.3535442575733265
    ],
    [
      0.6974875658953068,
      0.4602441330745286,
      0.1685514933469161,
      -0.38070525630918617,
      -0.4651873508926183,
      0.7393616807637191,
      0.38593843224403424,
      0.07485271706721441,
      -0.08227727191811351,
      0.16429411966926288,
      -0.31767216706624524,
      0.6580482914041852,
      -0.4423149566826716
    ],
    [
      -0.5627005601827046,
      0.2962281974671801,
      0.8553467622957285,
      -0.5267145116740573,
      1.0621924929896613,
      -0.545453032484867,
      -0.4419218623673995,
      -0.07585607641936232,
      -0.29584193697381345,
      0.45724496245443413,
      -0.9005561060176523,
      -0.007345169098374571,
      -0.12726097208951126
    ],
    [
      0.31337200018721356,
      -0.8635759736669244,
      0.23243653160659083,
      -0.22733961771139444,
      -0.24802258231632868,
      0.4823542082969121,
      0.7480636617290477,
      0.7220255925465198,
      0.42731405938232947,
      -0.5215443515801539,
      0.6793141012800414,
      -0.02821111861123704,
      0.8505382011075799
    ],
    [
      1.1318002163203216,
      0.5114638981052864,
      -0.09437450929319935,
      0.3669293646735845,
      -0.9674496695079018,
      -0.6414543322986357,
      -0.16445023646021872,
      0.18272108005034493,
      0.00036007025029283213,
      -0.05596490683902067,
      0.9776910153874874,
      0.31494716218433605,
      0.02330003010235404
    ],
    [
      -0.8357972295404346,
      -0.6351867613802618,
      0.39897933365720384,
      0.4013014891469191,
      -0.883594249177523,
      1.2134677980648503,
      0.6442857072796726,
      0.451901593897186,
      -0.8864317640251413,
      0.583023755155452,
      0.41196253508447134,
      0.18440113814148873,
      0.7802591583121903
    ]
  ],
  "outputBias": [
    0.16166697324483437,
    -0.37526878444131806,
    -0.38117329917184084,
    0.23077979903793766,
    0.13759067762359778,
    -0.9986594105709363,
    -0.642838591688754
  ]
}