{
  "hiddenWeights": [
    [
      -0.11312878238992252,
      1.0456052501465138,
      -0.7903662568349756,
      -0.6404972473037389,
      0.995868779064998
    ],
    [
      0.4826054537822506,
      0.760660365279997,
      0.09611216488207219,
      0.8968935396595785,
      -0.6965924625612168
    ],
    [
      -0.49511359445823966,
      -0.2681905567148415,
      -0.770165721925812,
      0.33558347678453826,
      -0.6092543722146155
    ],
    [
      0.7601387643642448,
      0.09029693932643146,
      0.36655130985685336,
      -0.36964986810867595,
      0.10052180679984701
    ],
    [
      0.6652255145191384,
      -0.7372404358424121,
      -0.3622039179168839,
      -0.20343730566836937,
      0.14928881014006512
    ],
    [
      0.2978542603606873,
      0.39111185264789383,
      1.0098239282931634,
      -0.8897952500993371,
      0.9084298834713884
    ],
    [
      0.6826778699199663,
      0.14249033227049201,
      -0.7273301419434164,
      0.4770562928770832,
      -0.9599016820557571
    ],
    [
      -0.35703923321473674,
      -0.8045295938773056,
      -1.1207985968379826,
      0.9895588368350368,
      -0.9019150380024703
    ]
  ],
  "hiddenBias": [
    0.31278301948917364,
    -0.2095527979278624,
    -0.025870274505149338,
    -0.6478904992965406,
    -0.24390474207895974,
    0.1070677864674967,
    0.13066401826692875,
    -0.42079780326914995
  ],
  "outputWeights": [
    [
      0.4020924626464182,
      0.8950889908129693,
      0.6525589398904583,
      1.0873048657855477,
      0.306223607956863,
      -0.9203409029831997,
      -0.5890668956835419,
      -0.9160964664449247
    ],
    [
      0.6247932371063336,
      -0.5754888397510332,
      0.683228059537679,
      0.7776713396039168,
      0.8155971231887957,
      -0.10777676489173027,
      0.27510052487865355,
      -0.0829840559652073
    ],
    [
      -0.07315267340908016,
      0.9815221105978318,
      0.9040898341257795,
      0.8879063127000926,
      -0.945841394701108,
      0.5487306388112643,
      0.8024215792076759,
      -0.1993712718172156
    ],
    [
      -0.04985690739418569,
      -0.06966924027758781,
      1.0722570050355327,
      0.876353562773712,
      0.13956011612330643,
      -0.28426522535933163,
      -0.07355767783194089,
      0.8428797190279922
    ],
    [
      -0.5407489168060065,
      -0.45420469037752564,
      0.5123263544426324,
      -1.0063023268026632,
      -0.6511709629338021,
      -0.3011378705403751,
      0.036900457823782595,
      -0.32884814284064046
    ],
    [
      -1.1382211840888523,
      -0.24264153972984293,
      0.10102407012032888,
      -0.9589389286712433,
      -0.8063176633461104,
      0.01876226060693309,
      0.23632908325858804,
      -1.0707683091990363
    ],
    [
      0.17913230018860538,
      0.4333718784842604,
      0.3299891073080632,
      -0.20577681070965603,
      0.005004479752030555,
      0.9807980288764915,
      -0.7870189024740186,
      -0.09321674004947078
    ]
  ],
  "outputBias": [
    -0.23538298520908008,
    0.5770536936243049,
    -0.6092847116239779,
    0.09027617340996685,
    -0.06886340950597969,
    -0.5393374671068596,
    0.4626506330207063
  ]
}