{
  "weights1": [
    [
      -0.6140608456399396,
      -0.16826226494512286,
      -0.5407900764432463,
      -0.10371494205206533,
      -0.342115876957088,
      -0.8919920382294038,
      -0.019693477553837768,
      -0.22653874793183648,
      -0.6370408203861055,
      -0.4742569064533694,
      0.8659348317647142,
      0.0037769505911676715
    ],
    [
      0.10621648481608759,
      0.6989624178199878,
      -0.6214611155506986,
      0.9145278111874744,
      -0.12463513299028117,
      0.2509197001589746,
      -0.7621531952529819,
      -0.7605633415199787,
      -0.9466366757721523,
      -0.8628749708448571,
      0.5911750466997323,
      0.41716149926831225
    ],
    [
      -0.6608849716701144,
      -0.30233911968803584,
      0.5198749986284642,
      -0.47068725998389405,
      0.9235356734681084,
      -0.6232450930382987,
      0.5699384764757922,
      0.11045275569676294,
      -0.4171595458963968,
      1.1757767554284535,
      0.007240171641933024,
      0.1518905079444145
    ],
    [
      0.021288972698756847,
      -0.15285840437364273,
      -0.06711181880267192,
      0.025903131239868316,
      -0.49174024752863255,
      0.048203413434948494,
      -0.006908757212951144,
      0.27462799110826486,
      0.7694130121340824,
      -0.7457229285636053,
      0.1880374872080457,
      0.2121296471687617
    ],
    [
      -0.7805964882733494,
      0.2140595714254423,
      0.6758050872373823,
      -0.05167759448357945,
      0.6337173703556205,
      0.23499102579644116,
      0.5755813419195938,
      -0.7811497730422303,
      -1.1644510837964108,
      0.5181678756207904,
      0.4230064016853299,
      -0.05878039229796683
    ],
    [
      0.8436979169557541,
      -0.8797327164577271,
      -0.5612962479734631,
      -0.696799182073017,
      -0.5205423141324688,
      0.44845321802156213,
      -0.08138106371238885,
      -0.43845171804289984,
      -0.40739850329796323,
      1.139293526936596,
      0.7784253031413813,
      0.25300801511498383
    ],
    [
      0.42621554962013297,
      -0.027234817431817993,
      -1.1582033910287948,
      1.0093018260301223,
      0.08164611726797455,
      0.8269063484147314,
      -0.612241433212711,
      0.6361480175571241,
      -0.3062690578339493,
      0.3420687508849338,
      0.32191715108807406,
      0.16462126535702426
    ],
    [
      0.8174881598010298,
      0.9931481825645352,
      0.500727262178249,
      -0.37605919097228147,
      -0.9001370254081532,
      -0.8835892395884201,
      0.7861769114919572,
      -0.10405541575375743,
      0.29421586480535167,
      0.6755528754880814,
      0.19007942889490392,
      -0.6427516036303822
    ]
  ],
  "bias1": [
    [
      -0.7565711338315464,
      0.40236032108964315,
      -0.329501158111841,
      0.816720022675665,
      0.41432602761566906,
      -0.6548475738448751,
      0.6979494784785735,
      0.09062364899760222,
      -0.3675270404193749,
      0.30934341886961003,
      0.29201261439826487,
      -0.05045041004559003
    ]
  ],
  "weights2": [
    [
      -0.24934038546736226,
      -0.16790474793777943,
      -1.05288198083658
    ],
    [
      0.34940319870660974,
      1.039810131755809,
      -0.6106413171609906
    ],
    [
      -0.18848141338538582,
      0.1288725036030729,
      0.24255741136194464
    ],
    [
      0.14175830847814375,
      -0.8936157219896566,
      -1.0611531771430163
    ],
    [
      -0.13867617149244105,
      0.024490652713739958,
      -0.15453585813443327
    ],
    [
      0.3235962752286602,
      -0.7988934660113975,
      -0.703967888954224
    ],
    [
      -0.786271842433987,
      -0.43187940136603153,
      1.0483757443444421
    ],
    [
      -0.5173598269426303,
      -0.789368447991083,
      0.45328369477644603
    ],
    [
      -0.8026175706787108,
      0.8480678806186571,
      0.20793015397949466
    ],
    [
      0.0802020888944498,
      0.6348095152266845,
      -0.09695000294773559
    ],
    [
      -0.47901852802844935,
      -0.4197857159575178,
      0.7349065983878766
    ],
    [
      -0.825155852172935,
      -0.02081758794660926,
      0.5942702951056603
    ]
  ],
  "bias2": [
    [
      -0.7485886783740536,
      0.04458437959567785,
      0.9505348873249542
    ]
  ]
}