{
  "weights1": [
    [
      -1.5587144802649577,
      0.9894570459285889,
      -0.7653454747221843,
      0.12452491818646139,
      -1.01862618338288,
      -0.7665791609609338,
      1.0974280361458435,
      0.36129901445599166,
      -0.5797689835599804,
      0.2691880858714425,
      0.9082123190773402,
      -0.9467079535092335,
      -0.16156699829155152,
      -0.45475660234243354,
      -1.2076175464342316,
      0.7684558500309049,
      -1.1190469514804842,
      -0.5353989285324068,
      -0.5731087395860864,
      -0.9203076989304083
    ],
    [
      0.8896556364657927,
      0.5541963293373193,
      0.02746441339390704,
      0.1827685276509895,
      -0.5277676643519094,
      1.4033767891676387,
      0.10545628063381651,
      -0.7385908639821329,
      -1.4366602963620902,
      -0.2530007459880864,
      -0.2818789062489331,
      -0.5701262252320058,
      -0.07459159553975125,
      1.0841451095999175,
      -0.8813998543885586,
      -1.15881912388009,
      0.10375192981832837,
      -0.6933517012577158,
      1.7869956649024137,
      0.03979338004258992
    ],
    [
      -0.060944687955139965,
      0.01161791522440292,
      0.49406207401720714,
      -1.3471298601606563,
      -0.3508380179801156,
      -0.7381116971548198,
      -0.3720631726719339,
      -0.8231644912138821,
      -0.9036477494358057,
      1.3951472526849478,
      0.07503026040965433,
      1.4205990813165819,
      -0.2993959191117401,
      0.7802952850110361,
      0.09833950448517215,
      0.5163857886310121,
      -0.3838228237933944,
      0.015279665394307806,
      -0.06669829858213805,
      -1.0470066577249673
    ],
    [
      0.27456828991685267,
      -0.35750505766800333,
      0.9994289053525545,
      1.0831216511434185,
      -0.28788186800615756,
      -0.2380347627860906,
      0.06864395341916818,
      -1.03990270008616,
      0.12165337827056688,
      -0.3944057602968887,
      1.242401359577574,
      -0.06290352212311179,
      0.787789819288428,
      0.1925032105922999,
      1.3295459500746487,
      -0.6106486493741271,
      0.5012238604537982,
      -0.2624042954559386,
      -0.9151325759992228,
      0.9843075284193469
    ],
    [
      -1.5876276652090966,
      -0.006376377436099756,
      0.0031684583434747893,
      0.41025072088345105,
      1.3588514259825542,
      -0.6810807414222158,
      -0.2015345581949276,
      1.281609909561436,
      -0.42050536265956606,
      0.380713230832431,
      -0.7319340065600427,
      -0.03714157145749375,
      -0.47459078789668563,
      0.43184791436973224,
      0.8119031147613393,
      -0.3005805531968728,
      -0.47292115215428265,
      0.24355706862034043,
      -0.709249309648942,
      0.38304455693639494
    ],
    [
      -1.2888609954017283,
      -0.6520403669774106,
      0.5579695589348315,
      -0.5082950420956034,
      0.1854001240987464,
      1.0010689507027153,
      -0.22013715247753207,
      -0.049429268351156574,
      -0.5240367555276791,
      0.27892999230546833,
      -0.28337738547568514,
      0.6540697303060479,
      1.076884486742081,
      0.3957074403463958,
      -0.22202131432179972,
      0.9803128665980547,
      -0.07887916060111588,
      -0.2871856528210759,
      0.40709317625700603,
      1.0418462413304663
    ],
    [
      -0.03803414007181338,
      -0.03281545554865495,
      -1.012027375027732,
      1.2470989370539343,
      -1.048198603091714,
      -0.4905618166737319,
      0.23164166897728466,
      0.5997301776154551,
      0.4746074216084847,
      -0.6794226840459244,
      0.05646789423055176,
      -0.5869991584751019,
      0.20074767684378259,
      0.5165634319887605,
      -0.14580162250427964,
      -0.7104439297407497,
      -1.3385179291032028,
      0.8028048606053636,
      0.03510907894178994,
      -0.2541309051657935
    ],
    [
      0.46005713296672945,
      -1.1786295416271786,
      -1.1258949933060884,
      -1.9343991409403185,
      -0.3229722317382271,
      -1.504989004933834,
      -0.7958973270324308,
      1.2146765894471134,
      0.7702316829998886,
      1.2388366659062826,
      -0.9839477547961274,
      0.8509240682839617,
      0.6183820397492147,
      0.262480603294576,
      0.12947531014782443,
      -0.2580044108283922,
      -1.1016395970050614,
      -0.7414394890257833,
      -0.30420585881744233,
      -1.4239405660255642
    ],
    [
      -0.7670934572293948,
      0.18368094409941138,
      1.5875741042680833,
      0.7477177218731392,
      -1.8506666019321996,
      -0.795375276986568,
      0.7297694031087029,
      -0.7038612549951939,
      -0.5324719101157174,
      -0.40809707208340906,
      1.020841188287159,
      -1.0409335225134426,
      -0.17388195747247093,
      1.1909933414074847,
      0.46390768352608713,
      -0.5213319036426384,
      -0.3427423698893529,
      -0.20859379361735453,
      -0.32255879989085634,
      1.1845043963525068
    ],
    [
      -0.929672447477334,
      0.8957513098823688,
      -0.5277574525734793,
      0.9023570309444214,
      -0.9423003740600091,
      1.1049039846508784,
      1.1657141849667436,
      -0.37689187461755347,
      0.8271456299905396,
      -0.772228306087924,
      -0.3648935724025958,
      0.036164234054800626,
      -0.4881152240373601,
      0.14293969957834285,
      -0.605579059411454,
      -1.5209067598181754,
      -0.9032426099813468,
      -1.1685617223091969,
      -1.0918540428089714,
      -0.6878184602951091
    ],
    [
      0.2677753117709989,
      -0.2970661422612326,
      1.0734034153293943,
      -1.9294947073116628,
      0.4192649443180205,
      0.31318686057376977,
      0.9627467712741111,
      0.7444999391578535,
      -0.2555937001489019,
      0.133339580572857,
      -0.23374365463630964,
      -0.8594064666294086,
      0.6960200019528805,
      0.9323110059710613,
      0.17698493454334496,
      -0.7905247055575441,
      1.120307840077614,
      0.6037443397312365,
      -0.8451225373740827,
      -1.9998906553021678
    ],
    [
      0.518379698224533,
      -0.4752915402958363,
      -0.4149518228398714,
      0.5830021144913973,
      -0.2216634769217769,
      0.654967363488247,
      -1.6031152847833832,
      -1.2206843119285087,
      -0.3936593099944302,
      0.008165051342447383,
      -1.196676872800453,
      0.039424763336126434,
      0.5416483763997945,
      0.31689356558421755,
      -0.4178891695203264,
      0.4183532653268752,
      -0.9024734080708122,
      -0.7049574663875708,
      0.4259935184287148,
      0.9309401485155172
    ],
    [
      0.669257230518338,
      0.591738927906427,
      0.9638546270692805,
      0.5051476885763225,
      0.005888756598308453,
      0.7267591975150034,
      0.4998821278363639,
      -1.3506899966437378,
      -2.0049078020129385,
      -0.9508732352727963,
      -0.15401636437983124,
      -0.20263914612498224,
      1.1257734818518674,
      0.9638834825380045,
      -1.8784934553869905,
      -0.3444523537979818,
      -0.2949444521666612,
      0.20286722096722087,
      0.35733714552142093,
      0.5716798323465493
    ]
  ],
  "bias1": [
    [
      -0.6807005424476036,
      -0.553112171489586,
      -0.45327653124717826,
      0.8715528675514573,
      -3.146556909778133,
      1.1994293630993624,
      0.7918199389016372,
      -0.6862040826103647,
      0.44704566611491525,
      -1.023106434822881,
      1.324458181312389,
      -0.27037277744578114,
      0.4472639169317474,
      -0.3168378840590329,
      -0.9463720323771736,
      0.14992758430428066,
      0.0837085896792722,
      -0.050034186834090555,
      -0.41173645254149915,
      0.04497961629396152
    ]
  ],
  "weights2": [
    [
      1.1548761521105555,
      0.0043056329382576974,
      0.43833853950611545
    ],
    [
      0.7551340515984615,
      -1.376275175408497,
      -0.6032449822655386
    ],
    [
      -0.7594395742135429,
      -0.036856985962494204,
      0.06126536210321376
    ],
    [
      -0.21037376710118494,
      0.5748906530559217,
      -0.8017003046084064
    ],
    [
      -0.581610770765485,
      0.7735733785990485,
      0.25421995272786035
    ],
    [
      0.05073961177773112,
      -0.016085718608008448,
      0.2760233221689645
    ],
    [
      0.38467576533051673,
      0.6975718851450887,
      0.38389269526781034
    ],
    [
      0.3181514250191927,
      -1.3067060890409423,
      -1.3884497928087765
    ],
    [
      0.6183475618744688,
      -0.19249343547738562,
      -0.7560842915789128
    ],
    [
      0.3520282665893478,
      -1.6573356806489343,
      -1.1351630395487855
    ],
    [
      0.9352945892156193,
      -0.7580633328539041,
      1.041826059701735
    ],
    [
      -0.014795150924187261,
      0.19115819584647076,
      -0.06651691229096313
    ],
    [
      0.32462833284879533,
      0.422803405020135,
      -0.3263815493806219
    ],
    [
      -1.1042799284124065,
      -0.5115556855795411,
      -1.1272193951411942
    ],
    [
      0.08818881888942498,
      -0.22943924568224683,
      -0.021694440912885304
    ],
    [
      1.3521583438078664,
      0.17258489037776836,
      0.6213870955269865
    ],
    [
      -0.39380786320070316,
      1.1464582494259647,
      0.00979668092129593
    ],
    [
      0.1500078418991263,
      0.12529509350856027,
      0.2118104324280371
    ],
    [
      -0.7119367274381224,
      0.2487795500664548,
      -1.0587575865097167
    ],
    [
      0.9690011316313938,
      -0.2081681198982216,
      -0.6174402076152112
    ]
  ],
  "bias2": [
    [
      -0.42142844963454784,
      0.23584028285690695,
      0.045959218142669345
    ]
  ]
}