{
  "weights1": [
    [
      0.3644365666519169,
      -0.0987001459612391,
      -0.34435044407954285,
      -0.7271816721817103,
      0.5795231954567156,
      0.17860869166889426,
      0.03407396655524475,
      -0.7627073779360989,
      0.1503679144293707,
      0.747860311984379,
      -0.5882394404250376,
      0.5247908139377284,
      -0.18242251900970807,
      -0.989605541362029,
      -0.4925573306170141,
      -0.3802096126139707,
      0.6153592535904835,
      0.0834865680323702,
      -0.5954993202153314,
      -0.5729992538079975
    ],
    [
      0.41228357632906976,
      -0.896962106159985,
      0.17628614346128268,
      -0.1690232198492353,
      -1.2227702540737706,
      0.7826746751559273,
      -0.9028594685342943,
      0.10355877100363664,
      0.11096702936192959,
      0.33582251747279124,
      0.9752649162924112,
      -0.5438823470918748,
      -0.30073773779283064,
      0.08523163524941568,
      -0.8860255397439285,
      -0.5448054631357881,
      -0.978597111732487,
      0.7308587780657843,
      -0.520646352996315,
      -0.799608461293155
    ],
    [
      0.05722375778803768,
      0.06497948930465491,
      0.6917918818074034,
      -1.021650934370292,
      -0.6095873160196682,
      -0.9792076955003917,
      0.5945310379289617,
      0.6557898793846415,
      0.5201572503767843,
      -0.34839519697078236,
      -0.8665322965961115,
      0.2574448310820614,
      0.01764538828938933,
      0.28878359431015954,
      -0.8930771508954591,
      -0.4136621213485281,
      0.6347825339273623,
      -0.13498174327220092,
      1.1033290675768908,
      0.2096915477951926
    ],
    [
      -0.39072102841781353,
      -0.5082225516552816,
      -0.3305089789690997,
      0.29470156827800587,
      -0.9877105297915185,
      -0.5214941071675663,
      -0.4712899737454741,
      0.7405096673000968,
      0.7351447332151994,
      0.8735441207321198,
      -0.2506946816991308,
      0.6718827099569453,
      0.7950674059413676,
      0.8122309715302357,
      0.3948039803006167,
      -0.8875308015277179,
      0.9448048600102934,
      0.24630935134984666,
      0.2783474643613836,
      0.0020449564256451724
    ],
    [
      -0.5802394932941004,
      -0.07384382381984966,
      -0.5270859079060903,
      -0.8721992203848448,
      0.3740357190391297,
      0.05874805920370996,
      -0.28500459826337576,
      1.1991076738184763,
      -0.7690633584548908,
      0.6247273504846022,
      0.9854827482287734,
      0.3737769624235361,
      -0.5303930356607376,
      0.6294598789620228,
      -1.013668514657331,
      -0.43583291351436215,
      0.16586061281071407,
      -0.16278941072350217,
      -0.6588401252088047,
      -0.6869650909735024
    ],
    [
      0.6107985456848115,
      -0.6955885603152657,
      0.3278781433496345,
      -0.04797462144228781,
      0.9385529095950118,
      0.9063599347608212,
      0.10213983495179191,
      0.6280228986792673,
      0.02173442395912728,
      0.585222336386855,
      -0.18759721903619297,
      0.21856115875990223,
      -0.3514619511171726,
      0.3371935955491392,
      -0.6442390722582281,
      0.3126890368374292,
      -0.23342493399858943,
      -0.8604399266661167,
      -1.0487023627897398,
      -0.22281203408754435
    ],
    [
      0.3438215032346017,
      0.018832779853873216,
      0.8933140257995668,
      -0.6088179653159576,
      0.9520543133883532,
      -0.5182614329245872,
      0.0921116052745028,
      -0.48378943555523746,
      0.37981388689550477,
      0.6559024367345203,
      0.4638187335668319,
      -0.6110340892322372,
      -0.6202956084793696,
      0.44184039934464103,
      0.7487977173846079,
      0.13908097476847603,
      -0.6178740511720927,
      -0.23406256724914987,
      0.11247353832980445,
      -0.22410552645151316
    ],
    [
      -0.7614153109916396,
      0.7336374938453671,
      0.15839107675520658,
      -0.425793885375938,
      0.6657700613655524,
      -0.2875450183870849,
      0.9087112728643336,
      0.23913417851597674,
      0.6243220745178872,
      1.1937853448286846,
      0.5411582560102521,
      0.41647096236286674,
      -0.8898480308823047,
      0.4087090001308037,
      -0.0036364735371168244,
      1.0339455445820813,
      -0.6463215701137653,
      1.0328328334413266,
      0.9018118910911217,
      0.18619503616969268
    ],
    [
      -0.7338995275057179,
      0.8177691376417324,
      -0.643076227241787,
      -0.20016174491618166,
      -0.707948678034175,
      0.899274513225996,
      0.38885284471281845,
      -0.06889911341198252,
      -0.7682338329226388,
      -0.2296289203119859,
      -0.28806896188135234,
      -0.19738381312337028,
      -0.6021656846258421,
      -0.469340678744807,
      0.17122149476515647,
      0.3740876639408217,
      -0.502731485007078,
      0.7635492011869114,
      0.595963915202995,
      1.0305221098307076
    ],
    [
      0.8973242729202617,
      0.41499058978166303,
      -0.6322344757236364,
      -0.30710799872204797,
      -1.1853640122984865,
      0.5393448516093774,
      0.8376978226686758,
      -0.7613251206408183,
      -0.061131899266605116,
      -0.2839678083081054,
      0.012024997050647634,
      0.4018619665526737,
      -0.4116278945370788,
      0.4794364621689189,
      0.5164263733161532,
      -0.664327151156366,
      0.48584222120553966,
      -0.5951419905593696,
      0.3467412434904512,
      -0.22392986464379439
    ],
    [
      -0.08807526472542015,
      -0.5643340301628021,
      -0.3843864396979506,
      0.06771484704493058,
      0.31830192280258784,
      0.8901360865021353,
      -0.6133015137550188,
      -0.8611238769090692,
      -0.47031468956037026,
      -0.31315109649367656,
      -0.8672566394244305,
      0.25819523354313845,
      -0.6568943622315668,
      0.18399302563686026,
      -0.7299802224483262,
      0.06546500580268111,
      0.9195015151061129,
      -0.003129916977718361,
      0.4093695944422161,
      -0.5529663478933706
    ],
    [
      0.5629701724088643,
      0.33027986584801194,
      0.1705786040825119,
      0.5138304218061092,
      0.8607365435310004,
      0.8558416136651115,
      -0.14937085347016243,
      -0.7789202647552824,
      -0.1351439632526623,
      -0.5385073926963098,
      0.8559746309693017,
      -0.5545603007401786,
      0.03492428341274456,
      -0.31759798196659705,
      0.5807231411513277,
      -0.5240023909604719,
      -0.05304395908661297,
      0.08826561140013478,
      -0.6896641029356937,
      -0.013877670142458443
    ],
    [
      -0.8758826256911016,
      0.09970367640379973,
      0.6662133689507228,
      0.10963223244295461,
      -0.7273116976780509,
      -0.6009060066225529,
      0.8225091325092827,
      -0.6799082791440663,
      -0.12167745894233173,
      -0.901258628612617,
      -0.36040039633721355,
      0.5616964349480527,
      -0.7247763378509098,
      0.43703507078546633,
      0.9466537202628662,
      -0.17849440282075246,
      -0.2768325033608974,
      0.37966812027535957,
      -0.14266597354822852,
      0.06630743586859833
    ]
  ],
  "bias1": [
    [
      0.1958776870712221,
      0.6106259286239011,
      -0.7929840586439099,
      -1.0136567967100474,
      0.34297592132181143,
      1.041008981745354,
      -1.196468927349787,
      -0.3370553411443563,
      0.3741254460847574,
      -0.6610379422438873,
      -0.4815510662281246,
      0.13937571651452862,
      -0.8813133092627654,
      -0.717676176756651,
      -0.7301700052301081,
      0.7567119392101103,
      0.7726520744633791,
      0.8156974105839216,
      -0.7642993707835144,
      -0.29629814687348843
    ]
  ],
  "weights2": [
    [
      -1.004431378319138,
      0.7926954700809734,
      -0.47265559515655475
    ],
    [
      0.04566529689693999,
      -0.6819148222594733,
      0.7232695687382851
    ],
    [
      0.9317107232097483,
      -0.028894871277590273,
      0.0166566543255513
    ],
    [
      -0.42847607555325196,
      0.6999652524506095,
      0.24874943588719434
    ],
    [
      0.5604933069177835,
      0.06663726045377927,
      -0.6962480662060957
    ],
    [
      -0.6251612297160052,
      0.31745640217185267,
      0.9889511496620206
    ],
    [
      0.06109079245015958,
      -0.5533646225096547,
      -0.18815068528852585
    ],
    [
      -0.2598706911386893,
      -0.9145735206021249,
      -0.35100778905956165
    ],
    [
      0.6403909252025909,
      0.34051625347895076,
      -0.5506614552936888
    ],
    [
      0.5051762249421821,
      -0.12913324680351446,
      -0.5765500235248688
    ],
    [
      -0.5991021598614674,
      0.10472572596564511,
      -0.48925256790498395
    ],
    [
      -0.0026629681839325237,
      -0.8933558920874033,
      -0.03284326165188112
    ],
    [
      -0.6954654488748423,
      0.4850354058016627,
      -1.013654371688072
    ],
    [
      -0.45395194332705335,
      -0.7695873345218459,
      0.40181133199140584
    ],
    [
      -0.46841718413381617,
      0.6313984882137333,
      -0.11381913049763337
    ],
    [
      1.0708699215500441,
      0.18700312229929072,
      0.4450451772568069
    ],
    [
      0.0642066107103565,
      -0.5053772994915325,
      -0.3559759640830067
    ],
    [
      -0.8312421821690952,
      -1.0637122277298665,
      -0.5253063426048374
    ],
    [
      -0.38229723614867495,
      0.5217522881521628,
      0.8059800769493122
    ],
    [
      -1.0015756050227858,
      0.9898498076307081,
      0.4456344543092654
    ]
  ],
  "bias2": [
    [
      0.3081533618109309,
      1.0050673900009708,
      -0.7209702857679163
    ]
  ]
}