{
  "weights1": [
    [
      0.15299842361344185,
      0.8747552670891143,
      -0.11078451787979571,
      -0.04263141315672936,
      -0.3025457094301096,
      0.4566973687332969,
      0.23984962574915702,
      -0.09554709158371999,
      -0.21530850453086892,
      0.5250315261143017,
      0.2549233510143467,
      0.6595751568444705,
      0.7845796501515006,
      0.8652380942641055,
      -0.5856280046608426,
      0.9771535465593639,
      0.7484541161257732,
      -0.454109095961603,
      0.12802911777396142,
      0.729610517916629
    ],
    [
      -0.423362730090302,
      -0.7786123230613441,
      0.9198552532068933,
      -0.04220589790535545,
      -0.016000998356445972,
      0.1736909117902885,
      -0.1695908728754032,
      -0.7569194009439184,
      0.18547462779819268,
      -0.3220331981747808,
      -0.2140713577279647,
      -0.6755683162766397,
      -0.7718718143378497,
      0.8867549568633946,
      -0.6168255901090554,
      -0.19400080330372083,
      0.8912378885401409,
      0.7843461387274502,
      0.2894548211139023,
      -0.5774492550818611
    ],
    [
      0.869168635786493,
      -0.13083226411888615,
      -0.7401300358937593,
      -0.5131244977527957,
      -1.0842484213785628,
      -1.2738859864796281,
      -0.5946583217493409,
      0.6528352523362138,
      -0.7602222646972684,
      0.7765324647611056,
      0.8242197556749153,
      -0.10714781966229303,
      0.9698320402960072,
      -0.06944170536939476,
      -0.5408661077220418,
      0.34883354661165156,
      0.7122544196858623,
      -0.8125242238922019,
      -0.6908628937505322,
      -0.376778098709984
    ],
    [
      -0.21376223460274846,
      -0.36783639614624564,
      0.6420392477688601,
      -0.28058029498324666,
      -0.04383162286785236,
      -0.7766804472353237,
      -0.6204978615071428,
      -0.3875178374437911,
      0.7847479828813873,
      -0.14297633650890473,
      -0.9207771980297643,
      -0.9936467639596525,
      0.5644528295822395,
      -0.8545699469295198,
      -0.8412653121639897,
      -0.680540029705901,
      0.09468737774677027,
      1.0572652688159987,
      -0.2634667825555175,
      -0.8530813574196334
    ],
    [
      -0.6019212165165131,
      0.9618727660669393,
      0.09435926169833098,
      -0.8437063036035024,
      0.16228604633367416,
      0.04316352160730075,
      0.9685091078201532,
      0.8449141275669501,
      0.27903632530960765,
      0.6048423959758713,
      0.23701395378378143,
      0.2976300615321845,
      -0.28499827353861706,
      0.25191360889598124,
      -0.4848886373234098,
      0.7854712059333511,
      -0.7017527007976744,
      -0.3260904319743445,
      -0.24013516585855932,
      0.4963368256795704
    ],
    [
      0.226627174556695,
      -0.2084953115918542,
      0.5449813069337628,
      0.047935047405175624,
      -0.09868515358706087,
      -0.09339248574843584,
      0.9116814030060225,
      0.49249630392787647,
      -0.1363362811600437,
      -0.7174678143873363,
      0.7172403653751684,
      -0.2391203343631032,
      0.70696982584685,
      -0.04141765677212916,
      -0.5398360474914218,
      -0.018344562434407408,
      -0.49480666402532103,
      -0.6229922610404239,
      0.8880769106662751,
      -0.34931408113883533
    ],
    [
      0.2853541612638848,
      -0.2797507068996875,
      0.7893369689943719,
      -0.30385046331683574,
      0.29144766308999426,
      -0.4424579630035065,
      0.3321693554440839,
      -0.501194034697277,
      -0.855602615369,
      -0.7327296588673784,
      0.26282276391523984,
      0.018380166772869355,
      -0.4948026208868126,
      -0.6279924088827551,
      0.2022545252291561,
      0.944559170491682,
      -0.107949954302343,
      -0.9832333243218896,
      0.46008009734220856,
      0.28586080327575214
    ],
    [
      0.6007980877258929,
      0.3041729467184102,
      0.963591949428948,
      0.018662409704607308,
      -0.5525251247482434,
      -0.2944006829322232,
      0.4345366550009464,
      0.8961002327493673,
      -1.0292701607234431,
      0.35057937286807617,
      -0.5229838192633044,
      -0.03957663216488072,
      -0.19984843411372344,
      0.060926597741446376,
      -0.0501662093601809,
      0.6938485645850343,
      -0.8606347206082625,
      0.5737838749450312,
      0.9816472875010418,
      0.01961534315167679
    ],
    [
      -0.36332483742826893,
      -0.8936183765696999,
      0.10955591770005224,
      0.5942529363537108,
      -0.4309266183836369,
      0.22222910273677066,
      0.7272139571405805,
      -0.18725915869940746,
      -0.030613114834071475,
      0.44660682312023436,
      -0.4814764525412021,
      -0.2938996085741361,
      0.11649527292627937,
      0.6698965318151013,
      0.6451474429752482,
      -0.9721934671502717,
      0.5995147504421205,
      0.7604639845499622,
      -0.8913382993095995,
      -0.46344310358240115
    ],
    [
      -0.3502170793600561,
      -0.46821520449426135,
      0.05761927193089589,
      -0.17911556782455296,
      0.2292374191944656,
      -0.7491350277023185,
      0.7425742888028415,
      0.21909889868371168,
      -0.7370273147863995,
      -0.20783451871995728,
      -0.04516228446674675,
      0.8411838461534451,
      0.64139376786297,
      0.19269099933758227,
      -0.4816517746869411,
      -0.3050750475376103,
      0.31181628781567305,
      -0.2981370081667847,
      -0.5547667434339645,
      -0.5398594478099183
    ],
    [
      -0.9455130054778498,
      0.439267281579244,
      -0.31640913174761076,
      0.10037550667544304,
      0.19645959372801336,
      0.1484745805999177,
      -0.8487670184140579,
      0.8581885950685979,
      0.18212114758263764,
      -0.345340154780435,
      0.2394666378395648,
      0.5957775044806956,
      0.4933130491574511,
      0.7109116671286142,
      -0.6283842352599718,
      0.9239948310323478,
      -0.16622626732889945,
      -0.5278554851425628,
      0.0932075653406712,
      0.7978160328469712
    ],
    [
      -0.5784923240860702,
      -0.5333345652568805,
      -0.4629539897897965,
      -0.6519024037459542,
      -0.4861926944131528,
      -0.9814252647674242,
      -0.29370539715931454,
      -0.25093247596203416,
      0.7340377081953736,
      -0.8872092586717635,
      -0.8674212087399571,
      -0.8110554155686662,
      0.9333283897732385,
      0.32473193266633893,
      0.45601986532809136,
      1.1223654834216688,
      0.24312444675498135,
      -0.3700067437322012,
      -0.47955278239575094,
      -0.7193705642090187
    ],
    [
      0.35980816644063873,
      0.42190605019586247,
      -0.2987152917319884,
      -0.527606290104293,
      -0.9127400174398043,
      0.8185903088916069,
      -0.8402936462502928,
      -0.5963430859932113,
      -0.4427472779373527,
      0.6238485974715311,
      0.3752348808271715,
      -0.1988367798574453,
      -0.38178524964695226,
      0.3797155853525984,
      -0.5099039664486833,
      -0.09561951623709497,
      0.26733489974695923,
      0.2949282018887138,
      0.9177313789037057,
      0.6510323614552904
    ]
  ],
  "bias1": [
    [
      -0.18329777005375103,
      -0.6769842042922064,
      -0.30471301278803786,
      -0.40357267776135686,
      -0.009031099908898166,
      0.857797860250515,
      0.4057723938907305,
      -0.22269242335127926,
      0.7462134260014248,
      -0.003268530567977823,
      0.49765207506243136,
      0.5766935441299319,
      0.7159849939137826,
      0.8204345272618934,
      -0.3408338313136028,
      0.7929449902261352,
      0.7429636551296475,
      0.37744195962759985,
      0.7620093686611051,
      0.5944103918940695
    ]
  ],
  "weights2": [
    [
      -0.6139564244447104,
      0.26568898511376826,
      -0.32897930726289015
    ],
    [
      0.07721014646002267,
      0.13759238234537152,
      0.21350205796946975
    ],
    [
      -0.2832812504280402,
      -0.1120150822666135,
      -0.47790337763608537
    ],
    [
      -0.038552003234755605,
      -0.2573399757228394,
      0.9414828585965379
    ],
    [
      -0.056780262406954995,
      0.3164910895855564,
      0.6219423546177847
    ],
    [
      -0.7401601528668245,
      -0.19662892702485113,
      -0.49526142417076
    ],
    [
      0.8113108944345244,
      -0.9711972302730718,
      0.7395338947553279
    ],
    [
      -0.9967302287087204,
      0.3778525591116283,
      0.7094135888950865
    ],
    [
      0.5570385161749472,
      -0.5455840666561366,
      0.23719107895028602
    ],
    [
      -0.6942335397432059,
      -0.0208268742973714,
      -0.3001214357365809
    ],
    [
      0.7486540020167327,
      -0.11569405397007593,
      0.9392262314060651
    ],
    [
      -0.4199431508624447,
      -0.08714752749123011,
      -0.2566920397245227
    ],
    [
      0.2917083626200032,
      -0.23439560040267793,
      -0.6455583918325658
    ],
    [
      -0.7275501528863697,
      -0.8233904282132611,
      0.1592704064087478
    ],
    [
      -0.3548779628349106,
      -0.9372801489553433,
      -0.07811398653552848
    ],
    [
      0.15787505285870918,
      -0.3811327684884156,
      0.544913145117639
    ],
    [
      0.5767064687994163,
      -0.08751762599404911,
      0.3364572730385218
    ],
    [
      0.5644948702393036,
      0.8641053566658243,
      0.20308154741677376
    ],
    [
      -0.29859943814938594,
      0.7377968116549747,
      0.30149844393824
    ],
    [
      0.1639277749783612,
      -0.7891835788613428,
      -0.09317224907582122
    ]
  ],
  "bias2": [
    [
      0.5366045314310468,
      0.025423781848529003,
      -0.05346173162100465
    ]
  ]
}