{
  "hiddenWeights": [
    [
      0.6412469714563276,
      -0.37688684905396874,
      -0.4868364664968712,
      0.052453406954334536,
      0.3592001003116225,
      0.4894269908875426,
      -0.9019543828216534,
      -0.043583206589381085,
      -0.22816012411017672,
      -0.5924472394007174,
      0.8716179667392292,
      -0.524011396487353,
      -0.2655104273009661,
      0.4158899409999335,
      0.9035029640569006
    ],
    [
      0.5689758195441916,
      0.6650192573962879,
      0.8371721061401236,
      0.7136258675428193,
      -0.4903291955427074,
      -0.7632250363821416,
      -0.6080917293715564,
      0.6759633970260848,
      0.8625352483069171,
      -0.2953204188358227,
      -0.3746772069727182,
      0.4080838542593237,
      0.28287726642025746,
      -0.293426541078158,
      -0.7015924791954053
    ],
    [
      -0.05226444561627508,
      0.44728491291561756,
      0.4929274312147678,
      0.1584896115573271,
      -0.8552483556284318,
      0.6548526930812231,
      -0.6432593441602634,
      -0.9617652943152879,
      0.6535794687410306,
      0.9457095100144071,
      0.35151422615674877,
      -0.10216089419862184,
      -0.34515772968098757,
      0.09632865843679639,
      -0.9189677630982369
    ],
    [
      0.5734923625252208,
      0.011663498622966895,
      0.5275575030287758,
      -0.3098449458554895,
      0.19740820171456397,
      0.36719690084104073,
      -0.18088832626973206,
      -0.47829183393037344,
      -0.6060785579420638,
      0.40498004108438446,
      -0.6425839547542265,
      -0.9954341066739683,
      0.04786268904754287,
      -0.6419354273219255,
      -0.7369292190076286
    ],
    [
      -0.8854321380082477,
      -0.7531568376915638,
      0.9795095737290342,
      -0.5798716924667007,
      0.44247327746689935,
      0.5369095351835154,
      -1.1519004205450794,
      0.9905489156766043,
      0.19502982802003377,
      0.03964972319878646,
      0.16491926552266944,
      0.1571885385270626,
      -0.19227995874262493,
      0.09440600816959366,
      0.7500691520547451
    ],
    [
      0.3104395379030973,
      -0.32397745435462877,
      0.6204407795501261,
      0.08638169140500507,
      -0.4177718023920205,
      -0.2512324765592693,
      -0.9578416196579593,
      0.8831457306811368,
      0.3867992421923572,
      0.3537706763237294,
      0.10349191456583284,
      -0.4281159735520492,
      0.4460812779910426,
      -0.9653177369827723,
      0.24557998964956873
    ],
    [
      0.3790138173957063,
      -0.2550395869533424,
      0.1875024958034377,
      0.43118107039778786,
      -0.40416206879769945,
      0.19290377014600324,
      0.3085897555178301,
      0.8107246360335467,
      -0.0513310384682657,
      0.6119068862283954,
      0.6227921622974613,
      -0.2810477336026884,
      -0.7018099524053514,
      -0.6399399449729746,
      0.1511758821028888
    ],
    [
      -0.36937602037195894,
      -0.1274672636830645,
      0.32264034624463545,
      0.5939028364591823,
      0.5761422337616398,
      -0.9290621162564077,
      0.536395315093658,
      0.05097443911231503,
      -0.12416524979304056,
      -0.4484914093823029,
      0.47875775005188714,
      -0.8849165538147994,
      -0.08995299832599057,
      -0.4220263480808417,
      0.8271658014561831
    ],
    [
      0.17101578970351117,
      -0.21941045015771987,
      -0.3203142391610041,
      -0.9688172018744927,
      -0.664453387314448,
      0.4458085448665239,
      0.27799968464487357,
      -0.9406442371044639,
      0.07898144244160221,
      -0.7920375847236634,
      -0.3149357371041117,
      -0.10926455336055563,
      0.05260435029092658,
      -0.188943637635959,
      0.6353553488763626
    ],
    [
      -0.9543383192962516,
      -0.3575218853375719,
      -0.6501036927300858,
      0.7128557318764557,
      -0.1169906789956845,
      0.36495733685321285,
      0.1938310335372715,
      0.07397836354216558,
      -0.8922354909724222,
      0.5548175011905072,
      -0.06124646691730318,
      -0.10832624411222103,
      -0.5286916134932773,
      0.13811594898887858,
      0.15785389560468
    ],
    [
      -0.013658408216700835,
      0.6211734171596377,
      -0.7841149173885467,
      0.9650521722150716,
      0.7970578727591424,
      0.919610239765198,
      0.13862240505976642,
      -0.08743682827976795,
      0.7790884727612619,
      0.9590288537583147,
      -0.14382875996183886,
      0.2903862469733287,
      0.3814123798442499,
      -0.30560653182114317,
      -0.5378830851216527
    ],
    [
      0.8981605928333343,
      -0.5644431132223011,
      0.8340263813433362,
      0.4044557649337115,
      -0.01263424064938512,
      0.7138390754999824,
      0.7747851070650746,
      0.8370177329644122,
      0.038667094880139974,
      -0.6837574768179029,
      0.20586829521965466,
      0.2993750080463573,
      0.3728453369011584,
      -0.6592185480022295,
      0.06128883734273627
    ],
    [
      0.6197823016690727,
      -0.5711125150238234,
      0.307828991522034,
      0.7518077955766711,
      -0.2053923281769765,
      -0.9119657140308934,
      -0.7849944928148775,
      0.8477394546035897,
      -0.5275266659534847,
      0.5994282031997518,
      -0.6437726343549137,
      0.7990822861136033,
      0.16196824766845008,
      -0.835238141622626,
      0.8005562596025135
    ],
    [
      -0.06057932273534483,
      -0.9065958007784776,
      -0.963398104612645,
      0.47161238177149345,
      -0.321455920131142,
      0.4098646962430825,
      0.395896237783695,
      -0.8865435045465051,
      -0.9717193248510352,
      0.340087092121204,
      -0.0772171336988996,
      0.009209242387166139,
      0.4506424898754251,
      0.2513697137812909,
      0.5016567109953067
    ],
    [
      0.8311046459538667,
      -0.6641420521514725,
      -0.3972866724688213,
      -0.7160970535549609,
      -0.019699078017086702,
      -0.2434014734299934,
      -0.37771598806389495,
      0.709445705347016,
      -0.4965053004167945,
      0.31488494850039794,
      0.0024426955964593766,
      0.36185277095878465,
      0.9000289116121576,
      -0.22018617511715988,
      -0.03599302220292255
    ],
    [
      0.4021042905331518,
      0.27900514214747796,
      -0.09045281574678654,
      0.9186370692331098,
      -0.8634375179997646,
      0.6876934141951581,
      -0.3727031711330131,
      0.7633996996820209,
      -0.5853213026121273,
      -0.7660117658666072,
      0.10771242266837966,
      0.43068603342599454,
      0.37624229002388576,
      0.31959049392153327,
      -0.761286729660156
    ],
    [
      -0.6817122410447589,
      0.2975212486006882,
      0.5311749701696722,
      0.5407644816416481,
      -0.8109588334598827,
      -0.009373512315694388,
      0.29370993692332936,
      -0.5366375743341152,
      0.3599851585624556,
      0.0786650472344248,
      0.021912730111000478,
      0.20348610247461485,
      -0.4720958812702549,
      -0.8213544345772048,
      -0.4616539313895536
    ],
    [
      -0.7529262773845153,
      0.310613867399395,
      -0.7216177920328408,
      -0.8514946481361982,
      0.9728404992717943,
      0.28292246079372396,
      -0.06431146015814981,
      0.8022273083846763,
      0.6863063361378985,
      0.8748244856738534,
      0.8624200505501358,
      -0.13492287775761413,
      -0.12412597166989858,
      0.20263655652717727,
      -0.15006959799280306
    ],
    [
      -0.8966162193362934,
      -0.08317802411525355,
      -0.10905360205120385,
      -0.11107386034309208,
      0.34359208411509434,
      0.9941156805142306,
      -0.5384493064397153,
      -0.7593903887061413,
      -0.7233712610873724,
      0.8786928186810736,
      0.2676707369499063,
      -0.08526154684651033,
      -0.528893967070093,
      0.6472751158393071,
      -0.6809890808000878
    ],
    [
      -0.39999682572609396,
      0.686659026883683,
      0.03809836486726059,
      0.5214401648654223,
      0.6780654346371069,
      -0.45679800030491924,
      0.27727226930659743,
      -0.7911441361003653,
      -0.6290224578913763,
      0.2319738049653126,
      -0.6696582804230213,
      -0.913934531630376,
      0.4958645386686813,
      -0.29470302329267595,
      -0.21932684739935304
    ]
  ],
  "hiddenBias": [
    -0.16060573641035525,
    0.2595149238479213,
    0.32624140709572047,
    0.1758638308065119,
    0.13839648567258056,
    0.4661446778297613,
    0.49211676873486865,
    0.004800384668675717,
    0.11946378756846165,
    0.004865335219436329,
    0.3155043033467637,
    -0.20542797739556184,
    -0.2922994277789628,
    0.23464414585637527,
    0.1593231120848213,
    -0.22836991338178958,
    0.02980654448397857,
    -0.01111217936044473,
    -0.22340652072582134,
    0.07975510794801433
  ],
  "outputWeights": [
    [
      -0.30864845695628773,
      -0.8200040207062207,
      0.6251615270087414,
      0.35597738820836833,
      0.7607885789688051,
      0.3627569401863924,
      0.5683966947773667,
      0.7310110882321914,
      0.2893566343458005,
      0.3504859993877836,
      0.07246363216613405,
      -0.14297383263375973,
      -0.17367850505296323,
      0.5695769307786831,
      0.23855000703628582,
      -0.5735720684963299,
      -0.08933833562643656,
      0.8986133793382152,
      0.09764147914590948,
      0.026003371186298363
    ],
    [
      -0.59040825460277,
      0.5125964792862017,
      -0.09641014938123194,
      -0.32730701176292376,
      0.8003379146268337,
      0.3293898742639305,
      0.38089004414186256,
      0.4629756525781632,
      -0.3588832974644256,
      -0.07742032476485239,
      -0.015244400087324195,
      0.8764369415166358,
      -0.01207567719610081,
      -0.16078856104160044,
      -0.09324732324068252,
      0.30117863141722356,
      0.757696871738645,
      0.8037828429801337,
      -0.8438863550331033,
      -0.17849764577356542
    ],
    [
      -0.5654300923826416,
      0.4645554775475378,
      -0.48418720366542334,
      0.04690346301190518,
      -0.6506412120780585,
      0.46951462950705025,
      -0.25924615701828024,
      0.2867236793796093,
      -0.9534642700208744,
      0.2577102200422674,
      -0.10724309896683382,
      -0.5780313268987083,
      0.39090966276028816,
      -0.11469746627119726,
      0.020182432424735275,
      0.7273974855193748,
      -1.16035439219156,
      -0.2859562291361022,
      0.44098729043666385,
      0.1670519024702557
    ],
    [
      -0.4923092295079372,
      0.9467404305008627,
      -0.3319955055349122,
      -0.9918809704041025,
      0.6074744698515238,
      -0.761394066497934,
      0.5404794424725465,
      -0.7216707478035278,
      0.19067561105765884,
      0.7036932458434286,
      0.4216520707195861,
      0.9410366039737115,
      0.16176577773799083,
      0.11971377071772293,
      -0.4768342120339333,
      0.36133632212386546,
      -0.6378191086228711,
      0.6088867913202569,
      0.6839741485103801,
      0.3121888113589293
    ],
    [
      0.25477163011150994,
      0.3792001529371327,
      -0.627160251443394,
      0.7260906708087163,
      0.6623896869624089,
      -0.48647611447620687,
      -0.9594591704582962,
      0.14547582537315895,
      0.554357133969569,
      0.48832148795331687,
      -0.21075887725105424,
      -0.8834247985540515,
      -0.37042540732400253,
      -0.4299688129360839,
      0.7831246819052851,
      -0.6100352731239314,
      -0.6867377778411901,
      -0.061638979304476926,
      0.49257920592280824,
      0.09113605015898152
    ],
    [
      0.44629757978758455,
      0.5037419438265642,
      -0.42089309379689155,
      -0.07661017148029403,
      -0.1169693248775645,
      0.93979597044286,
      -0.03436065946049416,
      -0.8716383988528835,
      -0.24144976609654245,
      0.650085433353675,
      0.30778464114769966,
      0.9505452047880913,
      -0.8870381557074394,
      0.11833226027020238,
      0.6681640938265394,
      -0.2575492806084698,
      0.23853852229850991,
      0.26879391437785216,
      0.5205695005766291,
      -0.09638353750351847
    ],
    [
      0.4786407368147718,
      -0.44547153041456067,
      -0.42890949906217246,
      -0.5674400058110347,
      0.05845614956279599,
      0.9761059999730031,
      0.26002522815104223,
      0.22148984845401776,
      0.34535016226152093,
      0.8122338872452568,
      -0.13076969561374918,
      0.46837024695738805,
      -0.3762603742956201,
      -0.7956581283266284,
      0.6192025194877875,
      0.038565589318126925,
      -0.5257845567679982,
      -0.1910409757778564,
      -0.41362594048205015,
      -0.4948018973811297
    ]
  ],
  "outputBias": [
    0.14768811241626434,
    0.3487066310482545,
    0.2823817379542122,
    -0.2030003829734206,
    -0.02137363014297411,
    -0.04460891983044779,
    0.48812865600890754
  ]
}