{
  "hiddenWeights": [
    [
      0.2651274399344703,
      -0.8153767033050077,
      -0.19386555912569792,
      -0.8297272145788339,
      0.18012119130040904
    ],
    [
      -0.4150491857934733,
      0.26579940290496085,
      -0.1905201503970113,
      0.8074172610583077,
      0.7463696877476482
    ],
    [
      -0.557514728169652,
      0.3300552885722339,
      -0.6912524821674038,
      0.8890910393798381,
      0.8772318879274121
    ]
  ],
  "hiddenBias": [
    -0.58901696861323,
    0.7279575916696364,
    -0.4003114734402988
  ],
  "outputWeights": [
    [
      0.8760428616631959,
      -0.21312627395263473,
      -1.0927453324001843
    ],
    [
      0.271799972700705,
      0.8493595705243093,
      0.654628260158157
    ],
    [
      0.5852790252320981,
      0.6728193509834033,
      -0.8459218409615308
    ],
    [
      0.41519628258441976,
      0.9615174211162447,
      0.7925276880683889
    ],
    [
      -1.0925118707415382,
      -0.9833878568219712,
      -0.9335687895497775
    ],
    [
      0.45300316758534054,
      -0.08137087980140123,
      -0.5602946391972004
    ],
    [
      0.9810803341111372,
      -0.6585789343862007,
      -0.28259464777685706
    ]
  ],
  "outputBias": [
    -0.2528369726060651,
    -0.3613942852075387,
    -0.7619300478817879,
    -0.06412586402309395,
    0.16492090714701768,
    -0.0913698477899707,
    0.03323695757012768
  ]
}